1235 64
49 -0.61805713 0.90082145 -3.2812626 3.3512213 2.4129934 -2.4981594 -2.9441283 -2.340564 0.3960169 -2.1515222 -1.119803 0.2752479 -2.5348759 -2.4807277 3.0459628 -2.188004 -4.322807 2.724562 4.910462 -1.8661302 -4.01371 2.2154765 -0.5223517 -1.5512356 2.009771 -0.70315284 2.0006306 -1.1290562 -0.98541725 0.63138074 -5.006413 -6.649512 -1.8494288 0.3860623 -1.2178218 2.0810473 2.2614462 -2.9426305 0.69379306 -4.163224 -2.432539 -0.029365804 -0.51439476 -1.3855836 2.099057 5.7146654 -1.4563868 5.061393 -0.8831704 0.34426653 1.6053203 0.53032523 1.8997095 -3.469744 -1.2697043 -1.8979609 1.9163872 -3.014344 -4.696526 -2.1091354 -0.74433637 4.246309 0.46519357 0.04500833
0 0.8428174 1.0666456 0.3074983 -0.1599591 -0.05515012 1.5330834 1.9462351 -0.89804196 -2.0699916 0.37869576 -4.487567 1.201406 -0.41119295 -4.5765767 0.43220395 -1.8635615 -2.2460225 -0.015145453 -6.966855 -2.54918 -3.6446743 -1.2419229 2.150719 -0.24603568 5.6646585 -1.1991968 1.0620878 2.0543103 2.0992796 1.178072 0.41736948 -2.4428477 1.7785909 4.515867 -2.9675426 -0.32997638 -1.0809677 4.1720605 -2.3317518 -7.205031 0.77623266 2.6093497 1.9811448 -1.8230337 2.928435 -2.9666529 0.22157674 -1.9633693 3.4489994 -0.14593852 -3.997489 1.5952057 5.1121554 -1.3866652 -0.3858219 -2.5781648 -3.1280067 -0.31615067 -0.89890176 0.3714191 0.00024849846 -1.9516948 -3.3326893 2.4746554
285 -2.1869972 2.2368631 0.15581411 0.44567987 -3.4969356 0.8934051 -5.2519727 -1.7282932 1.5506328 0.45724335 0.9306019 -2.8324735 1.4739727 -2.0152144 0.23713675 1.4624455 4.6818476 -5.3917418 0.18665037 5.491001 2.1017463 2.4684162 -2.392467 1.3082204 -0.9804825 -1.1155897 -4.574043 0.6369349 0.16479394 4.0336294 -1.0895017 -0.6699403 -4.26512 4.3521333 3.7823796 0.39003333 0.30814075 1.0718166 -0.9555608 -2.3681793 2.155554 2.5944295 -0.62422127 2.9609516 7.438709 -1.0361228 -3.063792 -6.193146 2.8846772 2.9338455 0.01448205 -4.490365 -2.6845827 -3.3358166 1.4182664 -0.760303 2.0080724 0.01653356 2.326425 -3.4907455 1.8453614 -0.0073423507 4.5937085 -0.13357773
6 5.0943546 0.8405856 -5.1725864 1.2594823 -0.1451575 -0.84275955 4.662697 -0.8729016 -0.65326774 2.1621046 -3.2940927 -0.3117792 4.11936 0.17231752 0.62331945 0.28648886 1.1085508 1.5230147 -1.449408 3.0478592 2.9779618 -1.879361 -1.0448309 -3.012221 1.2826828 -2.6890013 -1.8597656 2.8004594 -1.5846523 4.403559 1.0033957 -2.8723173 0.76808256 3.3827968 -0.039473526 2.6162643 -2.5692987 6.516651 -1.8619536 -1.7552812 2.1074762 -3.9319682 0.1052155 -0.22582604 -0.05782179 0.57748914 4.106449 -0.36141992 -3.371258 -2.4630606 3.276889 2.0035903 1.7074229 2.41416 2.283963 -3.8616323 -1.1951877 -2.66758 -4.651462 -3.146872 -3.2375553 -6.20147 0.58590865 5.03062
126 3.4622314 3.459011 5.7306805 -1.2883685 8.0067005 -1.7289597 2.8865752 -0.054244686 -1.7860689 -1.32661 -1.4546224 -4.66735 3.8553648 -0.17671378 -4.2297826 3.9929507 2.125865 3.0889275 0.02359677 0.47790655 2.125119 0.54402035 6.915972 0.3171415 -3.2007205 0.514201 1.5681412 -0.45057333 0.8777332 -1.2448997 2.536462 3.293027 1.71076 2.7685716 -7.0674133 0.76070106 0.1813132 1.5381411 0.7598968 -3.1051838 1.9946511 1.6548114 -0.9677758 -1.3339479 -1.5290543 0.019544292 -2.7001057 1.255192 0.029100401 -1.1597368 0.4528576 2.4107068 -1.140401 -2.2474318 -0.6551802 3.2960708 1.3401761 -3.7826266 -2.3423095 0.22173518 -4.19474 4.221169 0.22883295 -3.301741
99 -0.58861804 -0.75109595 4.1993847 7.620717 1.7355688 1.0575064 6.689183 -0.73304003 -0.1702421 -3.4637146 1.14003 2.7017126 3.1650672 3.1556263 -0.8031525 -1.7755452 -1.7104043 7.9471006 -0.88784564 2.2844346 4.7993183 0.15124692 1.6326388 -6.3985596 -2.706193 -0.42463621 2.9988542 0.13791972 -1.9893589 1.5249804 -1.6932826 -5.1494985 0.2590168 4.673319 1.3383679 0.39347458 -2.5008683 2.681502 -2.510161 -4.098873 -0.9010378 7.118795 0.7263932 3.9429305 -2.7960746 -1.2148091 -2.7681742 -4.6679053 0.95344424 5.6733837 1.0859646 -1.0304481 2.7872179 0.07998312 -1.664487 0.6496798 -2.4993165 -1.4938064 -2.5266342 -2.0456927 -0.4262562 -1.766681 2.1389115 -2.8260486
275 4.945516 3.3803802 -0.31543252 3.972342 0.09019049 6.4872136 2.859849 -1.2026112 1.3305931 2.3173642 -2.7663617 2.5589373 -0.2836485 -4.184727 -2.1228719 0.93242615 3.6644607 1.9570956 -0.25274146 1.3605683 3.1106417 -6.191161 -2.433976 -1.7110006 -4.327016 -0.9939106 2.4849896 -0.96894616 -0.81158763 -0.5566345 0.6801847 1.7006376 -1.9130743 -2.1809657 -0.02805561 -3.3137267 -4.29752 0.9278576 -1.5839698 0.82098407 3.6691263 0.61141783 0.43711987 -0.064429134 1.3531104 -3.252699 -6.0909314 0.4409175 -0.6510878 -1.0447778 -0.96030396 7.121358 3.9957488 1.0656842 -0.24793503 2.214022 2.270467 2.9835732 -0.19790253 -2.3342845 5.6282787 0.45600805 1.6060809 -0.39238706
317 0.49727038 2.4053473 -2.4753647 0.7677076 -2.3669157 -0.091485575 -1.7966722 7.279447 2.826979 3.0578 2.2350492 0.57080823 -0.042193815 -0.741486 -2.6008625 -1.5908177 3.9823215 -4.7283072 0.9710467 -1.014884 -2.219334 0.15957038 -3.7216938 -0.4565778 -5.570445 -0.3828064 2.654664 -1.3255756 -2.9705458 3.9084263 -1.2524773 -3.79676 5.702355 -1.88993 0.5986313 -3.7413218 -2.0069067 -6.0052476 4.860371 -3.9455376 2.1132495 1.9688933 -5.984068 0.8841915 4.130955 2.9672694 -2.3554778 2.149689 5.652911 2.3889496 0.72361887 0.08328143 3.2812955 -0.04812133 1.9338061 3.9864786 1.4379448 2.235788 -0.80615115 0.2410323 -2.9589539 -1.1248815 2.4309125 3.223955
55 -0.77832526 1.4455743 5.3416276 -3.410182 -5.192044 -1.2945907 2.40714 -1.0872873 -0.17369248 -0.9598894 -3.7946193 2.2227535 -0.495909 -1.9865706 2.9708445 5.2809896 4.704518 0.85386693 2.5116513 3.05254 -0.035737548 0.9680003 -1.3509884 -3.2525108 -6.163266 -0.5105198 2.3076954 -0.31884056 -2.615138 -0.44274586 0.1941706 0.38916504 -1.503374 -1.1011262 -3.4429655 2.5445075 0.70607895 -2.1190004 2.7326424 3.468026 -3.1069496 2.073386 -0.07079142 -2.433779 -1.7161053 4.603446 -1.6908829 0.662831 -3.4048047 -0.8797548 -1.2601593 -4.7025294 0.010805495 -0.5962403 0.6026387 3.0730922 -2.3416724 -1.5695047 -0.8407918 -1.7336862 -5.1059637 0.7487114 -3.0995557 2.9018784
173 -1.5458804 2.4985156 -1.096634 1.3863224 -3.5166302 4.2690897 2.6947792 7.413217 -3.0969608 -0.539816 2.1427567 1.5321919 -7.2999988 0.53919935 1.6047071 3.3786826 0.5372534 -1.0237833 3.4375463 4.9682417 -4.4683285 1.3701335 0.9449309 5.1730533 3.2677836 -1.0248085 1.296581 3.0273292 0.25088543 -2.680847 -1.6644859 -4.462386 1.3960046 -5.837893 -2.4343867 -1.2610104 0.8143905 4.243188 0.3409026 -0.99642634 0.24285349 2.8618376 -4.8710055 2.2162097 2.356688 3.131255 4.622859 1.5101137 -1.518598 -0.28210688 2.4699838 0.49621093 -0.8545868 -1.3263967 0.9633168 3.4031968 -4.2579384 -1.5783128 -2.0112257 -0.33661035 -6.6383457 -1.214598 2.4804358 4.9495454
150 -0.14814141 3.8533013 -5.6375976 -1.8626878 -2.3032005 0.642408 1.504473 2.242505 -3.6859667 -4.375329 -2.3182034 -2.3454924 4.003409 -3.082869 -7.395827 -0.41538545 1.7732699 4.3636684 -5.187156 -1.9328725 4.1770134 -0.054022707 -0.86254555 -1.9000311 1.8538975 0.57881474 1.4356985 3.1582427 -3.2307565 -0.73106927 -6.9343333 0.4646379 1.8697244 1.715829 3.7760775 -2.4616406 -5.1392303 3.4435425 2.3486714 -2.2051194 -0.5871762 1.492323 2.3633463 0.75085557 1.1218196 -2.441527 0.30242258 -0.8879874 2.6907594 -2.6610074 0.46629322 -4.062722 -5.8939257 -0.13681278 -1.5503585 -1.8331829 0.0010145459 -1.2198029 -0.39503583 -2.87118 -1.4371889 -5.839624 2.7090116 -0.16538869
180 -1.6481239 0.21154445 -8.812279 2.3640714 -1.407212 -3.4973164 4.4233947 -1.0647666 -1.3739535 -1.3568851 -2.7591515 -4.307553 -4.7947054 -1.521579 -3.4655628 -1.4745003 -2.705019 -2.31568 -0.39534265 -2.0226433 -4.0424833 0.44683376 0.58141565 3.4442267 -3.1779318 2.369637 0.11347399 -3.677205 -2.2950363 -2.2207477 0.0352916 -2.118553 -4.1532574 4.1117024 0.36604843 1.0663526 -2.9499695 -0.010219624 -1.38271 0.15628026 4.035089 -0.16305424 1.3407638 -4.9867635 0.8740654 2.69474 -0.65329087 3.1793973 3.883976 2.037116 0.77336717 1.9079963 -0.17477044 2.2560823 -8.265908 -0.5014345 0.56207955 2.1929958 3.5049279 0.24442928 -3.4834485 0.8481797 -0.21574326 3.1494207
449 -0.0865042 2.1672652 -4.8854933 2.8685472 -3.0239413 0.8950629 2.7131927 3.8361177 -1.3862267 -0.45489234 -1.682174 3.2026684 2.2492902 -1.8946955 0.28249305 -1.5883538 -2.3074293 1.514144 -1.0218766 1.1636047 2.9995823 0.76208174 0.022350121 -3.4414358 -0.1457245 -3.2691934 -1.8098572 2.1589286 -0.5056852 -1.4257983 -6.1997066 4.4583554 -1.822027 2.9151525 4.685091 0.34271446 -3.0878232 1.2101042 -2.7313483 1.8045993 2.8174896 -5.216978 2.606558 -3.2030642 -4.267078 -0.9582206 -6.7740917 2.5081444 1.760878 2.1697335 3.483892 -0.20090476 -4.6177545 1.5070469 0.80327576 -1.1668372 0.8273992 -0.5490286 0.2017517 9.503061 -3.253424 -6.2720394 -5.526226 1.3376878
473 6.7100697 1.493361 0.93913025 4.0007153 -0.4160318 -2.767012 2.7321534 -3.3648727 -2.2504554 -0.73340636 1.5663701 -0.0037342755 -0.013535935 1.9468865 0.7719369 0.42823163 -0.08419649 0.389148 -0.2748615 -1.0471232 5.415958 -1.387394 -0.34575245 -0.5593439 -2.1399834 0.31769413 2.3954198 2.9448187 2.8776157 -3.3726385 -1.206144 2.0519133 5.072143 -0.037947346 6.652048 0.35528353 0.43491903 4.121506 2.516166 7.1659384 0.31762943 -3.679951 -2.7415483 -1.589569 -0.79369044 2.90655 -3.6746156 -0.5884195 4.5855436 -0.69897324 0.21450704 -0.9769639 -1.6556398 0.15248926 0.24402677 -2.6553156 -1.94493 -5.9930425 -1.7792977 1.9561518 -6.101578 -0.28339565 -0.020627037 1.4023492
312 -2.9217088 -0.68511873 2.2976751 2.9072742 -0.9504658 0.08129312 3.547642 5.003324 3.0751996 3.864741 3.1820292 -3.6628456 5.4644694 7.6089506 0.12923987 4.4778066 -1.6327337 -3.201816 -0.8344359 -0.2505485 1.2896078 -3.2916489 0.7767033 -1.8295534 1.413058 1.1273963 -2.401596 -0.8580136 0.47523397 -0.21352631 1.9437197 -0.15715148 -1.5904704 3.012952 0.12651137 -0.9969432 0.31669268 -2.9176803 1.6882126 3.0629792 0.30077198 -0.20243552 3.286356 -1.8156656 -2.4984784 -1.3877457 -1.1720022 -1.6931955 -2.8262079 -2.026095 3.7441742 5.333505 -1.4312701 7.410936 -2.2684677 -5.2074485 -2.893871 1.8775501 1.3738722 -1.8826746 -0.9293146 -2.7877407 -3.554324 -1.366874
63 2.031534 2.2940035 -0.5410909 -0.7101739 0.36319694 2.6424546 2.0208745 3.665336 -2.1225333 -3.539287 3.8390532 -2.4045594 1.0696515 -3.1694963 -3.1393263 -0.45751974 0.33386773 -1.0078206 2.6380422 -0.89682037 -1.8256394 6.0629864 0.7417997 -1.0530711 -6.716468 1.5820625 2.303681 4.1190133 -3.8396037 3.1742544 -1.8191868 -0.84509027 4.7446527 0.040693495 2.0839884 1.2249471 -4.423339 -4.6659894 3.6693747 -0.5162445 -2.9874156 -2.0415998 -3.4998627 3.10291 0.75951314 1.1681625 -1.2103028 1.1344637 -1.5784727 0.21908155 3.1651547 0.5256213 1.429967 0.24306409 3.7297163 1.7558017 1.1509906 -4.0714574 0.46438658 2.7543597 -0.06794115 0.6516303 8.383633 3.2626777
415 -1.5551139 4.378685 -2.3969223 -2.3412845 2.1632733 3.3132722 -2.062282 3.0052123 -0.7607939 -3.3109589 -4.413526 4.3011303 -1.0080187 -3.6417441 6.9267836 3.3448877 5.6797767 -3.6821325 0.79710156 1.1877912 -1.4409363 -5.2961164 1.90655 0.3950848 -2.707598 -6.1614213 0.025958164 2.8696587 -2.7644274 1.7626426 -1.7017295 -1.7044458 5.07379 4.186962 2.4244685 3.0656006 -5.276965 1.2734066 -1.4361014 3.209227 -2.0475094 -4.789302 -1.8145206 2.2325034 1.7153623 -1.7816225 -5.9465723 -0.42533833 1.0025853 1.1839257 4.0215545 -5.115089 -2.3523974 -1.8575463 -2.4246576 -0.47263482 -3.1372356 0.9788382 2.727868 2.9873176 -2.8463705 -3.2243183 -0.41870952 3.346881
120 -1.0489676 5.739834 -2.2417014 4.499741 3.47134 -0.4022599 3.856349 -1.5846486 3.4203174 0.17721616 -0.69985664 -1.9203894 -5.57773 -4.855271 -1.4586868 -5.2861505 -7.3310275 -0.6157176 -0.017769104 -2.7200005 -2.9125652 -0.62055326 -2.3552341 0.7284947 3.1605346 -1.7080624 -5.8314066 1.6436466 3.0875847 4.7493005 -3.1896935 -6.098576 -2.4843676 1.8873992 6.1978135 -3.0669239 1.0846156 -0.14376564 -0.8146045 0.46455133 4.4951324 -7.132346 9.162489 -2.214492 -1.0643389 3.8490746 5.4063435 3.0383103 1.148637 -1.9610507 -0.67450964 -2.092561 1.0369437 -5.8549557 -1.7874153 1.5544505 5.0593967 6.269221 -2.6627545 -1.3901223 -0.14372733 0.9195855 -2.024818 -1.1919031
12 6.58241 -2.6784596 4.816054 2.2846804 5.3797646 0.59531844 3.6614501 -2.423733 -1.3168763 0.80702126 -4.4765177 0.4074595 2.1012037 4.1992736 2.6655693 2.6353164 2.751718 6.645545 -3.7339568 2.0567095 -0.88203263 3.2530363 0.9541943 -4.0472655 -0.26681614 -4.2335134 -4.2741704 7.983469 -1.6034467 1.1445011 -0.8404742 1.3280948 -0.06039718 1.1797694 3.8712733 4.0592256 -4.9234905 0.7339064 0.6496896 -5.4061427 -2.566602 2.2603943 -0.14369692 -2.2239983 -0.028990421 -0.2795325 3.1189344 1.3431191 -2.6528196 1.2345202 -6.305727 2.8768277 -0.42733502 1.4187676 4.851799 -1.7367852 0.39718288 -2.0506248 -0.7588942 -0.7089447 1.8037279 3.1191692 0.9115671 -5.2593765
268 2.8105147 -5.271779 6.8231597 3.8895435 0.5238941 -1.3348515 -1.2278684 2.08607 0.5584774 3.0465415 -3.8169184 1.0806184 -0.35474774 1.4615971 -0.5578697 -1.5796553 -0.8440036 -2.7601473 -2.5099401 0.5002276 -0.59256357 1.4410194 -3.2549815 -1.2797415 1.5862607 0.86044484 -3.1739876 -0.57094145 6.754744 5.978963 -2.6805131 3.020195 1.4297146 -0.027865913 0.41240984 -2.7838736 -0.14331813 -3.8396144 2.6196427 4.1307497 4.143303 -0.5410223 -1.350108 -3.7840595 2.5879915 2.301679 -0.6855766 -4.060922 0.819994 4.4406915 -0.80352473 -1.1799308 -2.3736238 0.9486604 0.5749893 -0.7493713 -0.8884326 -3.1848953 1.2046772 0.6631284 9.570129 -2.9966953 0.03516453 2.3391578
257 -7.049846 0.9292134 -3.4567287 0.67048234 -1.1362692 -4.1285667 -1.6266326 -0.7622548 0.8789508 0.020735394 1.9959215 1.5244325 0.16480455 4.6890426 -0.5969162 5.7602577 -0.8569294 0.6311411 -6.768336 2.9909263 -1.8708456 6.998863 2.454193 1.2948372 2.874229 0.027046453 -2.0605512 6.7465215 -2.1219335 2.1748219 0.148285 1.593732 -6.0887175 2.4974477 -0.46734783 -1.9388019 -0.38629594 -2.2038121 -4.2364106 3.2352138 2.6572046 5.440356 0.97946113 0.23050386 -3.5534086 1.4993048 3.9239223 0.13758788 3.6134753 2.3728917 5.595261 -5.529396 -1.2890526 3.631353 -3.7161565 0.75846106 2.4742308 0.14209326 1.7201132 -5.2401824 2.1517327 0.4071453 2.3157117 -0.6113342
97 3.4717982 5.627776 -3.9727497 6.795681 -2.6065261 -3.9097288 5.8425093 2.1113267 3.1998563 -1.6924284 3.5519767 4.4547296 -5.1006675 -5.6147256 0.33953983 2.516129 5.0637193 0.81109613 -2.0456538 -2.5052042 -2.218096 -3.5892885 0.5371359 1.475295 -1.7092383 -3.6166353 0.32385686 -1.5380319 -4.328103 -0.50583726 -1.9369847 0.6071229 0.14191969 -1.0645757 -0.3631466 4.9273677 1.2882885 0.094384745 1.7158173 0.3555956 2.598719 5.0069537 -1.417457 0.20381217 1.314374 2.0672991 1.2665582 3.7363448 -5.8748174 -0.8807748 -2.6474402 -2.7049468 0.43553257 1.8972359 4.6441774 0.1763247 2.7832918 0.7741822 -2.8123248 -0.57533157 -3.9804096 -0.59111446 0.805806 -2.3303325
233 -0.55280113 2.5200453 -3.720612 -1.0976564 -1.5642058 -2.0053527 -1.1562599 -2.5449424 1.263649 -0.6866783 5.822 -2.5862408 4.262218 -2.332498 -0.35283807 0.86682475 0.4979802 3.8313472 -3.8805993 1.9547973 -4.5949287 0.46713495 -1.3903277 -4.386096 -3.2017355 2.6764762 0.44876373 3.5276854 3.762407 7.813522 1.8095679 1.0795232 -3.34106 -2.70232 5.929838 -0.16689977 4.9663296 1.1837747 5.3888197 -2.7157328 0.55755436 1.3374864 -0.43158785 2.5582123 -3.6054106 -3.1866095 4.774241 0.8531839 1.6217755 -3.0631213 0.69104284 -0.14737599 -3.350945 4.0016665 3.294119 -4.6461406 -2.3461866 -0.36960787 0.4493591 3.6292913 -1.212527 3.4667277 2.8255663 -7.5619793
221 -1.8110214 0.45027402 4.936214 3.2606776 6.6076922 2.5087442 -2.8882935 -1.420519 -1.7778574 -1.5140169 -1.0326816 -1.2270194 -2.9938893 -1.9346051 -0.010689463 3.4910758 -0.98676825 -3.8882024 1.1325988 6.5942273 -0.48077756 0.42525935 -1.8605216 4.748651 -1.4208797 0.63720125 0.50698197 -0.6488652 -3.845352 -5.1979733 -0.6976166 -1.9669448 3.8682423 -2.3608174 3.808671 -5.6930895 3.8573737 -1.2683725 -4.463338 -2.5576472 -2.1309893 -7.774638 -0.7913921 -1.8144481 -2.3478532 0.7625053 3.9335144 4.3896937 4.3503933 -1.9711248 3.9771593 -1.2170061 2.1539125 3.2551706 1.9256294 -3.3256893 2.0155275 2.295837 -3.2826731 -1.6280489 2.0030081 -5.993082 0.61142206 0.14418072
58 1.2585046 -6.930072 3.3059213 -4.397545 0.4868459 2.8735843 -2.3731787 -4.641667 -1.0345691 0.59941775 5.9439797 1.2524397 2.4007666 1.4883646 2.5655935 3.0008883 5.2395463 4.0531273 0.46400502 4.2643557 0.47721988 -3.989715 3.362037 1.8760175 -0.38524944 -1.0144327 -1.3904307 1.8032312 -3.6030629 -0.7583275 -1.9079711 1.1774051 -0.7806675 4.665819 0.17153741 2.162603 -1.3698711 -1.702617 -5.147706 3.6251006 0.6962778 -1.0514971 -0.7346275 -1.7846148 -1.0220097 4.8851643 2.4507022 -3.7608335 6.665013 -3.9149818 1.5001235 -0.19865802 3.087636 -3.522596 1.9935976 -2.6287825 3.1437576 -0.1311823 -3.7628503 -5.2141166 -0.3030436 -0.72020227 -1.554608 -2.5741265
654 -1.8467417 -0.4294532 3.51294 1.4588659 -0.96714324 -6.337714 4.0244975 -0.55449224 2.9714215 1.853902 1.1283373 0.585152 -4.9809785 -5.2007546 -0.052842665 1.9748439 -1.8773361 3.7747512 -4.170989 -4.3197246 1.319823 1.0724851 4.4125504 -1.3070333 -1.0245522 5.238941 4.5531845 3.8472826 1.5611161 -2.7920148 1.4234016 -2.421538 1.4379431 -1.502611 3.0371373 -3.1933224 3.2305315 -7.4148016 3.111823 4.8469105 0.14480206 -0.8280849 -4.38062 -2.0217133 -3.219157 1.6352315 1.3695781 -0.06050242 -0.78160584 0.8535799 -1.5733726 3.3080297 -8.220427 -0.70357454 -4.6455107 0.23099935 -1.7658477 4.975469 1.6154597 -4.577201 -6.9445114 -0.65569156 -1.9467036 0.13238335
209 -1.2979375 -0.73099494 -1.9232788 -0.15352808 -1.1942086 0.76579165 -0.87191266 2.592351 -1.7553982 3.5033438 0.5223271 -1.8986117 0.60355306 -4.3995523 4.7157354 -1.7714319 -0.16884018 1.0534735 3.0569997 2.7019968 3.8608465 -1.8359182 4.057168 0.061346322 -0.9126415 1.6713755 -0.9001254 1.9156077 0.16213892 3.2599092 3.7683628 -2.9311943 -3.37424 1.2128931 2.2487226 -4.7035537 2.078944 -1.9353806 0.8976181 -0.12576504 -1.5160216 2.6628175 -0.80990756 0.15188813 1.7013683 4.2933607 6.5251355 3.1014063 5.716766 1.7699018 -1.7748994 -5.153167 0.086645074 9.267029 0.037437543 -1.4621857 4.667272 -0.31533745 2.2852962 1.5873924 -4.3082123 2.897998 0.7024116 4.7777977
143 8.004842 -0.619914 -5.2087307 3.8227458 2.556768 1.9267775 2.1121826 2.6924222 4.3078775 7.8315063 1.843201 -1.4120991 3.8941343 -2.2017298 -4.098552 0.566424 2.1301415 -3.7015736 -3.079047 -1.7971083 -2.5923681 0.55706674 -2.2960844 4.3010416 1.0571343 0.25985825 4.1665072 -2.0020363 -1.7726785 -1.6802098 1.8596159 3.3054223 0.37348637 -1.8609054 -2.1185985 -2.7791893 -0.4166246 5.1257305 0.5133362 -1.744207 -4.1248317 3.9553912 -0.1829932 -1.2857805 -1.0633117 6.841242 5.9135785 1.7484746 0.037016843 -4.8890615 2.8885171 0.13177356 -0.5744828 -2.4144068 5.037097 0.9084314 -1.5094306 0.64848334 3.5721247 1.506125 -1.6361407 -0.8161338 1.1231202 -0.7933155
194 -0.31682527 0.3932361 -5.4042764 4.9110975 -1.2399154 -0.75091684 1.3807564 0.7870877 -5.023642 0.24207312 0.8328866 6.547575 -0.6643875 -2.7576904 -1.0446851 -1.7842374 9.333674 -0.0148710925 3.3468883 -0.48700336 -3.4772015 4.6628456 2.733112 2.9069986 4.1471066 -0.6674086 3.507895 1.7912827 -1.0095011 -2.5998626 1.1884394 -4.656039 -3.2754142 -3.556782 4.209669 -3.421142 -2.2168345 -0.08233642 2.66151 4.62854 0.56604 3.2697177 -1.2338504 3.4587362 -0.9445245 0.21183944 2.8819296 1.4266456 8.044703 -1.6678739 -1.0904651 -2.519265 2.4175143 -4.9315534 2.1967793 2.0017192 -1.2694762 -0.73718905 -5.748654 1.60951 -3.0351968 4.0208907 3.8529792 4.181898
392 -0.83993536 2.2993546 2.3941123 0.6922288 -4.2738843 -1.045221 -1.3229458 1.7407254 -0.9738733 -1.8568887 -1.096549 -1.6916562 -0.29451403 -2.1963065 -1.8178104 2.793903 0.6910914 -0.35551128 -0.22613633 11.477629 -0.42867222 4.2000413 3.6616757 -2.7004054 -5.4207306 5.420155 -3.6280856 -0.01996133 -4.3767424 -0.72988147 2.8891568 3.988814 1.6102046 -1.4428897 0.5450376 1.7031195 -3.0978558 -0.1694289 -0.15815778 -2.0222318 0.19049871 1.1813972 0.60059595 3.8415716 -3.3131 1.0789798 -0.17046133 0.8391546 -0.63892996 -3.1119204 -0.9570383 -1.7779765 -0.2991051 0.08764323 1.8972025 2.6663616 7.010902 -2.614893 -2.832797 0.9657329 -3.5621858 0.5581615 -1.7213867 0.096685864
116 -4.675465 -0.27428883 -4.1237874 1.2377961 -1.7411997 7.50671 1.2669749 -2.0018153 3.1521668 -1.7697955 -0.79033566 -1.7459245 -1.7438383 -3.0874233 0.08770923 -0.9503912 -4.1589947 -2.6871612 -5.4065194 0.50235087 -3.457927 -0.032539055 -3.6704528 -6.386083 1.8146707 -4.664143 -1.594997 -0.2633401 -0.2950507 2.0610652 -2.6560802 1.3593457 0.22671708 -0.9537076 3.1986978 -4.033091 -3.1889832 0.9419926 -4.4304647 -2.30185 -0.7180361 -2.7336185 -1.0102384 -3.3763082 0.8228905 -4.5470276 3.4302406 2.8653798 1.9013184 -3.0376828 -5.320262 2.183765 0.7057533 -5.738538 0.9830536 -7.1233225 3.6578224 1.5781273 -3.568207 -1.8908476 -0.9055706 9.020006 -2.1450663 2.054613
88 0.41830745 4.104802 -0.20553768 0.7101666 -3.945794 -1.7606901 -0.08302641 3.9662368 5.5038004 -1.2717845 -1.607706 0.46996883 -4.740891 0.57714206 -0.55998385 0.95566475 0.39124915 3.6615496 0.11403021 2.3614707 -3.8038447 4.7145977 -7.7389145 1.6347874 3.5834398 0.2659524 -0.05333764 -4.2481036 -3.4651744 2.5468833 3.242946 2.1940742 -6.3970575 -0.473375 -1.2280205 5.540895 -4.0414267 -1.963926 2.331762 1.2532638 3.235655 -1.4915774 -1.9361321 -2.8267584 0.351906 1.4652545 0.8029559 -0.68804234 1.1034434 -3.8927574 1.2044358 -2.1921248 0.25213453 1.5456853 -0.62334377 4.8038654 -2.4342606 3.4972632 -4.47907 -7.769158 -7.3790727 -2.014359 4.6728773 0.90049785
356 7.395903 1.6376098 3.0642803 2.0722823 -7.0910006 -4.8157954 -5.4180818 2.8109612 3.8566778 -2.8840127 5.207187 3.3667648 -1.1211149 -0.18005748 -2.9707623 5.27112 3.7813435 0.42728287 1.0328455 1.8794572 0.24045661 -0.03210765 -2.9758594 1.6386701 -2.6242461 -1.4694058 9.316236 0.5645588 -0.67058676 -1.2326341 -2.8061368 -0.31096464 -0.5818697 1.587368 -2.0357096 -7.356684 -1.0077537 0.81627196 -0.069985576 1.4224083 -3.2549026 2.9456282 -3.8194652 -2.5617094 3.2256467 -2.6641164 -3.5421104 0.63119966 -1.65936 1.9428554 -5.349677 -2.491281 4.2166824 0.09803113 1.3525022 3.373964 3.3095555 2.5994873 -1.295749 -0.7507962 -7.5893383 -2.490392 2.803311 1.8194646
270 -1.3951293 2.6981013 -2.6334417 0.9318567 -3.0513346 -3.234794 -1.1040384 1.8196586 -4.451723 -1.0819052 -9.745311 -4.6573186 3.4347203 2.0781388 6.563097 -1.5303304 2.6488338 3.2098742 -7.590485 -2.1680605 3.6126783 -0.6578302 -0.7697768 2.8664038 1.9825841 0.9861084 -1.057796 -1.1065857 7.092528 -1.4878948 0.85801977 1.9163928 3.3476317 -3.2960725 -3.301669 -5.599103 2.3377316 2.3598368 6.389455 1.5671316 0.065579 4.956081 2.4664617 -1.3918085 -4.1958623 0.40294957 0.5615687 -6.8630347 -0.14615327 -3.1137109 1.7764084 5.518366 -1.508797 -1.108737 -1.2493279 -1.040128 4.618298 -3.5411146 1.116529 2.2597158 -4.9717135 -0.22422811 0.14849772 -5.2526474
327 -4.8455386 -1.6011591 -3.5642235 2.8398488 0.913932 -4.058191 0.88995093 5.07235 -4.9724574 -0.38084903 0.36335626 2.418527 0.3365599 -0.55188054 1.9441881 -4.773636 4.0126023 6.0287004 -6.043975 5.9581017 0.64870566 1.8065616 -4.7417293 -0.27176636 2.5287194 3.760553 -7.4673166 -4.6712255 4.552315 -3.7281165 -4.197191 -4.507968 -0.16320781 2.2214873 3.5620496 -2.2959082 0.9080166 -1.6103126 -1.5286921 0.576836 -2.3405352 -4.3348694 3.5842104 1.9278907 0.6196072 -0.09075908 1.8966234 -0.19387491 3.1104975 3.063163 -1.8477728 2.5170116 1.6840179 3.040422 6.3498783 1.1376103 2.399237 -1.5931326 2.7369893 1.1868675 7.009835 -1.0202092 -2.7041786 -2.010108
302 -2.6943405 1.3101462 5.0402117 1.9157834 -2.5084925 -0.9811379 4.294778 -2.1702957 2.1444938 4.303631 -2.6903017 -0.14209323 0.4829755 -3.2107403 0.30635446 8.743099 1.0319527 -4.326531 1.0682868 -0.37013498 -0.062117945 -3.7559547 0.716663 3.9030495 -2.8605661 -1.9100922 -7.3092155 -5.653131 0.3999607 -0.5565092 0.032413676 -4.1710143 4.5707593 1.4151416 -0.512986 -1.2340803 3.9889855 6.320006 -4.529472 0.29819298 0.63129187 -0.3810126 -0.4907171 1.7978348 1.2545378 -2.5145948 -0.22667556 -2.4680464 3.371089 -1.57746 -0.79218084 3.1989045 -2.8862023 3.193469 -2.5646544 -5.1115575 -0.23388869 -2.661926 -5.5970387 2.1962106 7.4112535 0.0021265084 -4.9021077 -0.39855063
10 -0.7616694 -1.826842 0.008124876 1.523117 -0.031167818 0.8983732 3.8174613 -0.42420626 3.180846 0.49466994 2.1330318 5.557753 2.1706653 -7.999743 -3.5585155 2.1195102 -1.8587335 5.627077 -0.07761917 0.64028883 2.2846646 3.4363167 1.5535096 -5.2756686 -1.3734447 1.433163 -0.16533807 -1.3231634 5.1227045 -3.2886293 3.9276497 1.2032322 8.143411 -1.1845591 -0.6455748 -4.319764 -2.6514065 0.8033262 -4.035361 1.3903686 -0.8705329 -6.942298 -4.4519076 -0.50532186 -1.2989255 3.252431 2.4981077 -0.62162334 -2.9766157 3.7991676 1.1649547 0.23113406 -4.6271033 -8.425347 -1.4994477 1.7099487 -0.8345523 -5.3027234 -3.6109672 -0.27036104 -3.3684025 4.0349083 1.8650401 -2.0469353
21 1.4809116 1.5949366 -1.1348187 -1.4239931 4.6364264 1.7042657 -3.4342747 2.037147 2.9018323 -3.869256 4.0695963 -2.5506644 0.5257351 2.645058 -4.0423017 4.6989875 5.585031 2.2661033 0.9240567 -2.3748055 2.5425954 -0.7005855 1.6505417 -3.5491967 -6.0550914 -2.4191358 1.3646427 -3.1183174 -0.96489465 0.8725993 6.3899217 -1.1653149 -2.767142 -0.46692494 -1.1305687 -5.9964294 -2.5584567 -1.0105177 1.8731642 -0.05799945 8.164494 5.0663576 -3.3727908 -0.49217007 1.0915078 1.3599199 -4.8496575 5.2580743 -3.707331 2.7206595 -1.7759184 -3.0430062 2.9932358 0.4908826 -3.036222 -3.1106353 -0.54419786 -0.825927 2.5608423 0.8938891 -3.4100623 7.19279 1.4435835 -1.8225399
199 2.1927402 2.8409836 -0.14219643 2.1370091 0.44762188 -0.6738003 -4.047418 -0.09765559 -2.7688603 -0.28030995 -1.3345853 3.8588276 1.4572301 -0.57561976 -0.82196516 -1.8416225 5.0884748 2.975042 0.25912747 -0.3184987 -5.9210696 -0.6020418 -0.1051979 -3.5680683 -2.0681105 -3.0392013 -3.0663853 -0.3905037 1.5462708 3.3734884 -5.207542 2.1809638 2.3658004 -2.5845506 -4.3627725 0.68763363 -4.0919085 0.32759228 -3.6014295 -3.716031 0.6536042 4.5521646 3.148013 2.0097191 1.2996227 -1.7811359 2.2240741 7.6047077 -7.027284 -4.38155 -1.8278637 5.0875273 1.4045136 -4.4373302 -2.2233286 5.4186425 -0.6915019 -7.2956285 -3.8656633 -1.7102412 -4.629249 -0.7126284 0.39949596 1.5321952
93 3.7724738 0.34739602 1.9110249 -4.6243052 1.7250069 -1.4396211 2.7642536 -1.9058925 -8.515498 1.336986 -2.8876815 -2.6911893 -3.1323636 -4.5319376 -0.79497683 -1.4358319 4.747965 -3.8400295 6.9912696 0.67052674 3.898785 1.588506 1.8903047 -0.124766074 5.9821434 -0.06582452 -1.6558175 0.7749456 -1.9864682 -0.77948886 -5.4226823 -0.6074261 0.16081013 -3.4775186 -2.4316237 -3.5085616 -3.980914 -4.777253 -5.6170583 -1.4885046 3.305649 0.086085446 -4.057265 -0.34417832 -2.3122633 0.013002662 1.0242468 3.7652066 0.49453878 -4.4016514 -1.2599033 -2.4110036 0.5140153 -3.271353 6.017546 0.08200914 3.2363029 -0.31179044 2.7845743 3.1640103 1.3327554 -3.6956341 -4.781455 3.5432937
203 -0.78812045 3.4370213 -1.69763 2.1158042 2.0786421 5.1993833 -0.35536313 -1.7123822 1.9696902 -1.7103539 0.6845225 -2.085374 -7.620645 2.3699024 -4.0269384 0.28728712 0.61369044 -1.495569 -0.5827143 -7.9925914 -0.30160922 0.69498813 -0.19762862 -2.1051643 -3.8810022 2.4580557 -0.41894603 -3.3770351 -2.3554404 0.3788305 4.3317175 -2.5604463 -7.695895 -3.1737869 1.9265567 -2.0251052 -2.9645402 -3.9266236 9.14951 -3.1465485 3.2932878 1.9798518 -5.8154125 -2.9224148 1.2071911 -1.0813956 1.7733237 3.8994615 1.4682542 4.7923017 2.2743745 -2.1666107 -3.9147048 -0.11620497 -1.3082654 -3.0011718 2.2192483 1.5072489 7.0110836 -3.5292587 -5.5843 2.2944813 1.9153185 2.4950504
307 -0.68432945 -8.093121 -0.4937509 -0.47999173 0.98035383 -0.3638186 -5.565688 -1.6487209 -0.514425 3.4590929 3.1114807 -2.2523692 -0.2562536 0.7718953 -1.5031444 -1.910964 5.044063 2.35266 1.0122931 -5.4020886 -1.3604255 -4.1514144 -0.13664256 4.68716 2.6608145 -1.0500406 -3.551942 -1.5276071 3.7293005 -3.0157397 -8.39177 -5.341945 3.6716027 3.5234952 2.21966 0.07750332 -3.3579552 3.6397696 1.4874587 0.73183626 1.4366015 1.2597167 -3.1120117 -1.4038588 2.6182327 5.8878255 -0.6846673 0.020855278 -2.9446285 -4.5024877 1.3653759 4.8629475 6.12804 2.199045 0.73830885 -5.159186 2.4071066 -1.003536 1.962903 -0.75109196 5.2646246 -2.9054475 -0.98674667 1.9449679
434 5.070457 1.7561296 -2.461451 -6.5055537 2.5697901 0.112139426 0.7152959 1.8810726 3.3157582 -2.1214597 -1.5824286 0.74805784 2.3778844 -0.66477275 2.116598 -1.5450197 5.823758 -1.787459 5.580626 3.9926677 -2.0491555 3.934901 0.77857494 0.78369874 -2.5770779 0.650375 2.2495182 0.27366662 0.2609538 -1.1294628 -2.264485 1.2279216 2.790425 -2.4018717 -0.9073919 0.19908297 1.1938832 5.151777 -3.7389367 -4.4065905 -0.5301736 -5.049011 -7.2554607 2.4447951 -3.224536 -2.5565171 -5.5418425 0.4753328 1.0197052 -4.20309 2.8161685 -5.6179037 3.9301074 4.1175957 -2.1052809 -4.2847934 -0.8319072 6.1469784 0.911319 -0.8897134 -0.25714582 1.4267539 1.4908365 5.327579
89 5.206083 -5.4624515 -7.3386793 1.0379186 -3.40264 -0.8338768 -2.542054 4.5132117 -3.4738393 3.1944582 -0.82551277 1.6898645 -2.303278 0.68329245 -6.158857 0.6113499 -0.27924004 -6.444177 -7.987557 -1.7849212 2.3219283 -4.5009418 -1.9056017 -0.53813595 1.0947512 0.79429007 4.6330886 -1.3798213 1.6758796 2.70224 -3.1833901 5.3925133 -5.3165197 0.69601077 -1.6471088 -3.396665 2.2768502 3.5049908 1.9701562 0.7983199 7.4892573 -4.6950817 4.017272 3.9756215 3.726818 2.3838463 -0.54750913 -8.78736 -2.7732868 -2.8289196 -0.83997154 0.77928406 -1.7071236 -1.6763278 -0.025738947 -3.1566021 -1.7319452 0.40807548 -3.0744946 5.620887 2.7161355 2.5863683 1.0017353 1.8235917
299 -1.8169289 -4.0448847 -1.4530652 -2.424852 0.2600117 0.18702619 -6.5613604 1.1452668 3.07656 7.1671567 3.8172977 0.17390923 -2.8783357 0.04247899 1.9963205 0.12458766 -8.048701 -1.7336048 3.2025473 2.8719394 1.6541582 2.4392447 2.1252367 -2.9207048 4.290817 0.7079117 -2.5111535 0.9584952 -0.6329028 -3.605197 -1.3436487 0.5265104 -4.154655 4.332442 -0.2772381 -6.2687654 -1.8563142 1.9888645 3.5787578 -1.0377218 1.9509686 4.6923347 3.1529005 -2.489106 2.1102943 1.3088397 -3.8264394 1.538877 8.84661 9.599331 1.359248 4.8083444 5.6543937 5.0784993 1.38194 0.12729977 0.39841774 5.1229095 -1.0649827 1.8929818 -4.853621 4.298286 3.1423783 0.29095584
11 2.5099478 6.717628 -4.8505936 -2.420852 0.9556779 4.9715424 4.396384 -1.9419734 1.3613912 -1.3627025 -0.4077868 -5.8376083 1.6911602 3.3305905 -1.0568383 -3.1522658 0.23606871 0.6434902 -3.7767646 -3.424062 7.4822755 2.54463 0.39366856 4.4741545 -1.0476946 1.9476001 0.02669426 -1.5710423 -1.1447815 -0.06444081 2.2503495 0.05822739 0.01829021 2.0380855 -2.1933143 -3.5867903 -2.3199487 -1.705841 1.1895401 -7.015611 -2.1459725 0.42412126 0.9240199 0.67924863 -4.3485374 2.421969 0.19475283 -0.31546718 1.5748117 -4.404865 1.1529024 -0.21399893 -3.0582514 -2.63725 2.9484034 2.5222387 -1.2002672 -9.0584955 -5.803763 -1.519509 -3.4672518 -1.6102424 3.0590565 -0.28157818
78 -1.1719856 2.2238693 3.2310097 1.394914 0.87405145 -0.073623754 5.8931513 -1.0060412 2.2783937 -1.4835855 2.5614974 1.4175636 6.735133 -0.2262356 -2.7685082 -4.940083 -1.1456633 4.551875 3.0304408 5.993596 -1.4281118 3.33933 -4.224302 1.4366245 2.8150082 5.297938 0.96784973 1.2502675 -2.152889 -0.96003413 4.77471 2.5242052 -2.8161292 -1.7904645 -1.4326744 0.35898256 -1.8028009 2.0197127 -0.8669227 -3.9986517 -2.2262285 0.4780154 0.01801167 -0.74201095 0.8647598 4.4433417 -0.13065398 4.8114223 0.55517364 4.7253385 -0.2536979 -6.685282 -2.2382762 0.96766657 2.8823843 0.0717939 -4.712714 0.8195746 -0.50808036 -2.8337915 -7.442176 4.8963995 3.8332438 0.4748886
215 -5.56195 2.0805237 2.9799967 0.2561105 -2.4992602 2.426614 3.5561872 -1.88745 2.5342705 -1.8917742 -0.8432308 3.1312094 -2.2190747 -5.2677746 2.2389007 -2.6204615 5.838696 -0.32465765 1.5458846 -4.0961046 2.903342 -0.7965756 5.267951 -1.682112 3.306887 -0.3873805 -0.006986692 -2.290887 -3.2396147 5.275546 -2.0644007 -1.4905765 0.86622614 1.3911332 1.4863433 -1.2990259 3.7211246 -0.5939624 8.789949 2.1166155 -0.78627294 -5.079218 1.6198659 -0.34941176 -1.2803758 -0.24710011 4.3510036 2.978986 1.5513613 4.5688996 -1.8452327 0.5753807 1.2314347 -0.13144809 1.4637357 -0.1906189 -1.5913053 -2.5889812 2.0948193 -2.3142836 -0.44042727 -3.1665726 2.6097713 -0.6096701
129 -3.145759 1.2220035 5.6067057 -2.6933923 0.15580767 -5.0339117 -0.34696883 0.1411313 2.021923 0.062053096 2.532186 0.08876252 -0.79097676 0.38364044 1.0672052 0.19420008 -1.567124 5.5514565 5.8621163 3.7236876 5.003836 -3.5716746 -0.28870952 0.90637016 -1.3891944 -6.748654 1.245992 -5.6930804 2.1518824 -2.562755 3.0588605 -3.2059844 2.4054492 -4.002034 -2.8664446 1.411775 -2.7083051 4.324263 -8.745856 2.2498646 -4.5809507 0.97211295 0.98674184 2.327583 -4.8629575 -1.600938 -4.0968995 1.298958 1.8831928 -0.23762144 -0.5332781 -4.238444 2.9481034 2.2676005 0.11624942 0.12375743 8.219994 -6.0228834 4.578746 -4.359311 -0.37341312 -0.43893033 0.40812236 3.1482491
193 -1.2773409 -1.9660847 0.504756 -0.23622517 1.0763626 0.94978464 3.9105837 -3.249961 0.6352249 -3.1100132 7.237745 -1.6738855 -4.803696 -1.958189 -0.015786733 -0.019480465 3.4774513 3.1265328 -4.188229 1.2875642 -2.8978443 -0.6328867 1.0860757 1.8179467 -2.214148 -1.278058 0.051885083 2.774624 5.1182284 3.3287196 -2.1820002 2.8632464 0.70544606 2.0996096 1.0993757 1.1237046 -1.7421033 3.1213918 5.7341933 -3.3728154 -1.9313513 -2.666937 -2.71165 0.04285384 -5.5840874 -6.906455 1.541866 2.4236546 0.022898152 5.0466285 -4.475088 -1.9369326 1.5328325 -0.76644325 2.4048493 4.866162 -1.1237417 2.6129937 1.7082603 0.24117649 -1.3171558 -5.3862476 -5.2195635 -4.409012
287 0.07996759 -0.32932702 -1.9760872 -0.6684132 -4.868634 0.50443244 -2.22702 -3.4839857 -2.8775563 1.5080193 -1.9742321 0.5192091 4.159665 -2.384952 3.805746 2.1570144 0.55602676 2.0100565 0.21294436 -0.23507297 2.0581377 0.658631 -1.0596856 3.3892415 1.3441268 1.8406531 -2.1617904 2.8303676 3.1478946 1.8911428 -1.428772 1.0995109 -0.67501855 5.9417286 -1.939886 3.2658668 -0.81889224 7.3236213 5.062491 2.8290288 1.3360169 0.8385165 9.24527 1.6836363 0.12226367 4.2828226 -5.523491 9.612213 2.7438061 0.84966594 -6.31148 6.303604 -0.65801936 4.3415427 2.697397 -2.8423707 -4.116017 2.689627 -0.3231475 -3.5464652 1.3937329 -3.557731 2.781389 -6.6390576
300 -2.1528327 3.2099369 0.3494833 -3.0364654 -5.2230453 -1.605953 -7.6052732 -1.7572566 -4.392286 -0.2747344 2.5972211 0.8133912 2.0751197 7.5257177 1.4312989 2.076163 0.736968 4.9046206 -5.865524 1.5081437 5.6722646 3.6010568 -4.1404634 0.3548892 -0.100162536 -0.9165309 -0.8715438 -0.6192368 -4.2452917 -0.85409147 -3.586181 -1.1609304 -3.2987041 1.6985309 -7.75112 1.4687436 5.117991 1.2646648 2.64225 -3.9000907 6.0799823 2.9608862 7.9621625 1.0556284 3.2264087 -3.9293144 -0.54019135 -0.8425864 -3.8676724 1.9894838 5.790802 0.012592658 2.3212948 -0.3470832 0.9881541 1.1486777 -5.2457347 -7.255596 2.321697 0.5450869 5.550199 -2.869577 0.046587203 -3.7418368
591 3.1963556 0.19604628 2.0988493 0.8092779 -1.6619059 4.1265264 -5.1956162 1.7362641 -1.1006105 1.3538109 0.51696944 5.904091 0.9956825 0.6524953 2.7325366 5.052494 0.24893655 -0.21569927 3.2646608 -0.21869178 1.0263543 -4.6253085 1.3533068 -4.3759336 4.9685745 -2.549342 2.545958 -0.9345352 -1.5685298 3.3957329 -1.5711834 5.800981 -5.5066895 -0.37970135 6.7013235 -4.606832 2.5397315 1.7971148 5.252275 -2.0868886 -5.6861014 -3.7439096 -6.714363 6.107717 5.9935565 3.7288656 -1.1572785 0.4587394 -0.19474645 -3.162886 -3.0839064 -0.0047035925 -2.4301279 -1.1815401 1.5785211 3.4204686 1.5887426 -0.29717883 3.8811557 2.955574 4.1278205 1.4137701 -1.928622 -0.04551079
172 1.7592033 -0.8735725 -0.6250727 1.0767074 -6.7343493 -6.7774525 0.4013591 0.14171125 3.118913 1.8045428 -0.21710353 5.5500326 -2.8706799 -1.8437606 1.4046339 -3.0789542 1.7350036 0.43018314 -0.46131483 1.4480369 1.379671 7.053863 3.4760518 -5.4026027 2.256943 1.0231519 1.0754105 -1.6951181 2.768324 -0.69520175 0.407707 2.2005494 -3.34787 0.31818599 0.3522609 -0.9333308 -5.5534463 -3.8397224 -2.0549169 0.5539608 0.3750556 4.6648707 0.80263084 -3.5678177 0.8131082 2.007952 3.9392505 6.952352 1.399023 0.80693436 -4.468991 -1.1059434 -4.3303027 3.010029 -3.253088 -2.6596055 2.5472748 -6.745877 -3.9009051 -6.534625 -3.48867 -2.0595217 7.5375686 3.9724004
177 0.69296414 1.1698161 -0.74689555 0.44104487 -3.1057653 0.8732169 2.200048 -8.804043 0.23144665 2.0638566 -0.061493102 6.3705044 -5.202476 -0.342445 2.8116126 1.5485886 0.49492908 0.21198452 0.7929599 0.38776344 -0.45740396 2.7372718 -3.7305226 1.5568966 -2.3331428 -1.7006708 4.114213 3.5025733 0.17068833 0.0038705254 -2.0615714 -1.1180437 3.3434575 -1.5741853 -4.5232916 -1.3278104 -0.26746684 5.4659657 -1.3145001 0.7052871 -1.7653247 -2.9748247 -5.0994816 6.68374 -7.1931233 -2.1724932 -1.4919068 -1.9806912 -2.3714883 2.1672518 -3.5613062 0.6548006 -4.1029468 3.081117 0.75912744 3.824443 1.912486 3.8800418 1.1537424 3.2559636 -5.9801693 -0.87560385 -3.4706383 -1.9932171
483 5.731709 -2.8059433 0.92153674 -5.2455416 -4.555223 3.944616 0.9200203 -1.1101118 4.2534 5.0433226 -1.2696561 0.7667553 0.4532425 -0.98157364 -2.5399883 3.48971 8.153561 -0.20286371 3.7717311 -0.56402266 -3.1164863 2.2400963 0.65315276 0.7006942 -7.326926 0.29259744 -0.17793445 -0.9397445 -3.0659657 -4.4050455 -1.1789166 -0.6800723 1.511645 -3.1685557 -2.6081133 2.8983564 2.544839 2.870556 -0.80554414 1.1227866 -0.15194097 0.6434713 -2.551354 0.2947323 0.30826548 -0.8021679 2.5970426 1.3798949 -0.370161 -0.60074085 5.670565 -4.2117743 5.279247 1.8747673 -2.3944185 -0.9244226 -0.47934505 -0.8014826 0.40836075 2.0481443 -1.3653307 -0.25520387 1.2391031 1.8035432
845 -1.3478088 8.325204 2.3250587 1.3073014 -0.72911423 -3.9165382 -4.221535 -2.2399814 0.9532828 3.8391364 -3.0179665 -0.71689963 3.6278872 0.9855177 1.4581857 1.0624729 1.0971645 -1.4759239 -1.5672129 -3.7206087 0.03905859 -6.9560356 -5.7047887 -2.6527638 5.9058905 -0.11369774 -7.3790174 2.6557782 5.7286453 -0.26109388 -1.3515177 -1.6427281 3.8140283 -2.4394307 -2.0363986 -0.12114354 6.782198 -5.3530617 3.1122463 -5.272816 3.4138026 -8.371788 1.370095 4.3544025 0.33178154 -2.2837968 -2.1377878 -3.795547 -1.1339569 -2.8562026 2.858315 1.7318473 -5.312093 -1.0213238 -4.711548 -5.0980835 -1.2938217 1.7800891 -5.5514164 -1.978335 -1.9472567 2.0559568 -0.09932682 -4.6613393
167 -3.1405096 3.9337013 -4.6552672 1.331348 -1.7859358 -8.398121 0.7634377 -1.2055398 -3.051245 2.4017334 -0.10511721 2.7023046 -2.6651814 2.892809 -1.3461791 0.8505306 3.065565 2.7357802 3.022864 0.06562966 1.9738886 8.82778 1.5678866 0.4764033 -0.7684644 2.9092798 2.277781 3.352112 -2.2080057 1.6804249 3.7157867 -0.53925526 -0.53516823 -2.1003804 5.6779284 -3.8157885 -4.2096777 -1.8254726 4.1464167 0.8145761 -4.2440248 3.132663 -0.4627939 6.094768 -4.1589 -1.8579723 1.5890456 5.1491075 0.4074541 2.2124598 -7.0177107 -2.4136317 2.6164007 -1.4507219 -4.777049 3.2804193 -0.62964696 0.7018001 1.520688 -3.142503 -6.2500935 1.10364 5.046771 -2.4390197
404 0.28484407 -3.7878907 -4.8616257 -0.9156276 -2.088067 5.2604012 -0.8083211 3.5636752 -4.14176 -1.1235551 0.9857117 -1.291967 -2.0537899 -1.2023636 0.90268695 -0.8671491 2.8049693 4.5454407 -2.6525965 8.028345 0.3174409 -3.8499215 -3.7783306 -2.5499763 2.0063329 0.568487 -1.7659651 -0.022187345 -1.4970871 -0.19839084 -2.3705776 -5.989544 -0.027043259 -0.9075845 3.6020813 -1.1847574 5.157709 0.52073973 -5.8144417 0.8565632 0.06620764 -2.8459878 -3.8811033 -5.368559 2.1503873 1.1547846 1.2422417 -1.2420013 6.675128 1.6786898 8.978278 -1.233068 4.786762 -0.032952234 2.7882898 -2.8840318 -2.9539998 -0.2631877 -2.3256967 0.61451846 -3.1637814 3.8411927 -1.1783943 -4.9003744
746 -1.1746514 -6.558646 -2.0278769 1.3135967 -0.16338873 0.43746188 4.185095 1.5659891 0.42683896 4.862288 6.726092 -1.8125565 5.996829 3.1675112 -3.7355566 -2.0487142 0.08799606 -0.049236786 -2.008179 3.0332348 -0.58694637 -3.3552535 10.694316 -4.3113146 0.014887042 1.186504 -0.25654885 2.9624748 -3.17859 1.9823631 -0.9959099 0.7890008 -2.172546 5.8157525 -3.033351 -1.0914186 -1.0251178 -0.060610004 3.0703616 -0.8253931 -1.3593014 5.882917 5.9964886 -1.4420654 2.8425543 0.20029616 0.32894623 -2.3804455 -6.1075478 -3.7179022 1.3525542 4.078714 2.6299212 -2.8175006 -2.699928 -0.15455563 -0.11342902 -1.6743037 0.13658342 -0.36023566 1.3829247 3.2897666 -3.3473094 3.6453958
94 1.377559 4.2957726 -0.5551184 0.8680305 -1.9931167 6.616382 -5.310028 -1.7804624 0.11599073 -1.1906198 2.006949 -4.3709044 -3.1389258 3.281673 1.9115325 -4.1514487 3.7530005 0.19829695 -1.0786813 4.326817 0.9006382 -1.3025268 -3.5692673 -4.7569895 -1.8229276 -1.6609396 -3.6903813 0.43704975 3.7980616 2.9563675 10.068005 -0.0776272 -2.9622934 -2.1352441 2.5995235 -2.541422 -4.0183992 1.816184 0.49249366 1.3059692 2.5568805 1.6442331 -4.782667 4.2306623 -2.2280319 1.8460641 -1.7438481 1.1140021 5.160121 1.8611649 1.4954684 -0.2985629 -3.2288435 0.36266923 1.1456932 -0.8809146 0.08415067 4.442833 -2.687024 5.2926893 -6.7223215 2.9533327 -4.03224 4.3462944
175 -2.289535 -1.814639 -7.1403866 6.31111 -2.9916534 -1.0182652 6.610848 -0.84155977 0.6355829 1.6248039 -2.9788072 0.44281203 5.4797654 2.555427 0.9974014 0.4864366 3.6256618 -1.3565376 -0.8090149 2.1124177 -0.33068326 7.108948 -1.2338971 1.0517308 -3.293689 4.9663544 3.724084 -1.1053174 -0.61158806 2.897396 -0.08361763 -0.3892546 -5.1821237 2.2041879 3.913366 0.8261198 -2.8296502 -1.4465474 -0.40280432 2.8857708 -1.7030263 4.396537 -4.8522487 1.1739923 -6.617534 1.7919878 1.8866214 9.103898 -0.9108119 -2.0807924 2.60568 1.5294182 0.07990188 -0.38339648 6.739629 2.767119 -5.457723 0.3644115 -4.881364 0.087614566 -2.1437478 0.9751767 0.41788372 2.5807123
95 -2.8158705 4.1743355 0.3133157 4.24863 -0.093308024 0.21332473 4.334965 4.010511 2.7821097 3.602477 -0.35804692 0.91152567 -3.7808425 0.58107424 3.0063133 2.0701582 -0.84677064 -5.320212 -2.4566855 -1.7499291 0.9682317 4.163196 0.9813172 -4.0970287 -0.29752907 2.2946196 5.3116198 5.507883 1.1369796 -3.8071141 1.5419438 -1.3642863 -1.8879813 -1.3087126 -0.94415605 1.8133589 -2.202018 -2.4274385 3.8776474 1.3701665 -2.8776453 -2.1840086 0.36307812 -1.8239111 -1.4371909 -0.26454547 5.484925 5.8748183 2.9270675 1.0546919 1.7966591 0.3636273 1.9594862 -2.5785568 -2.8021352 -1.2498751 0.9402012 3.4098592 -3.9135547 -0.18175018 -7.579496 -0.46714416 0.04339215 6.6958394
236 -0.8966887 -2.4471781 -4.3538604 1.4107883 4.0295515 0.5639534 3.5524876 -1.42671 2.7285414 -1.2451649 2.9347246 -3.5331588 -0.47380617 -0.9225655 -3.855806 -0.9924316 -2.1093655 -3.2077358 -3.021567 3.4141796 -0.8055974 3.1563232 -0.23318331 -5.710066 -3.8619928 2.8964345 0.55329525 0.64791965 -8.513711 -1.3274536 2.2373624 1.267381 -2.9887888 0.86415684 1.899151 6.636028 5.306022 -3.32995 -1.1496308 2.2039998 3.0406115 -4.1106358 2.299898 -0.01013407 3.7984397 -0.2277972 -0.060311355 -3.2870605 3.909849 -1.6518064 -0.6371831 2.1767902 3.7583065 0.3492875 5.3973694 6.4031587 -1.2722126 -3.5876276 3.082373 -4.1226325 3.2862272 5.9305706 -3.4091585 -0.07399443
267 0.9592858 4.3336854 -0.62220985 -0.6457351 -0.97838557 -0.50010675 3.1972787 -1.0259156 4.188255 -0.1707002 -0.5667658 1.4023376 -1.6962225 0.13218845 3.233948 5.2260046 0.09377003 0.5350943 -0.3769338 4.1529107 4.3862433 2.4619246 1.3879497 7.3249116 3.586621 2.2384446 0.46226364 -1.7582606 0.9567213 1.6120585 6.7991757 8.663166 -3.4840832 4.047048 -1.8535836 2.3282518 4.6083302 0.12973745 1.700999 4.718916 2.2442284 -0.1543941 4.445875 3.7975342 3.585827 -3.5629704 4.5767283 -2.3034465 3.096246 0.46177524 1.6591247 -1.8711196 -3.724037 -0.025523055 -1.046026 -4.361177 -0.32926458 -3.4676402 6.110526 -5.8439417 3.5930507 -5.4520745 -1.2154031 0.9200098
526 3.769467 7.3380165 2.00049 -3.1969197 -1.8783824 -3.1393225 -3.3486693 -1.1515296 0.7274061 5.122807 3.96736 5.248011 -2.4206493 -5.350621 -0.1271881 3.6312823 -1.9739952 1.3613662 -3.3380694 0.90058476 -3.1753366 -4.4341493 -0.5657422 3.5641472 2.1314845 1.7192038 1.1218143 -1.3309195 4.700434 0.7976278 -3.1879365 4.387516 1.5781465 -3.0212831 2.973732 0.05694237 -3.3866436 0.8255827 -1.7656562 -7.664849 4.85579 0.97335553 -3.935459 1.7028955 -4.5034933 3.1686473 -5.8809032 -1.8035355 -1.0256476 -0.48606464 -1.3434995 2.9616623 1.45187 -1.6419241 -5.1359243 -0.7510944 -5.0417337 -2.3261743 -2.9523518 -3.241566 -7.554303 2.3732407 3.4432344 3.8030925
478 1.1314363 4.996559 5.784052 -7.722778 3.5438275 0.0099263815 3.5754457 -2.7412088 2.1329753 -2.2710965 2.5505614 4.224234 -0.43131852 0.03667278 -2.9297318 -3.5134504 2.3719184 5.0856395 -2.1384342 -1.2890627 -5.6834364 -1.3152047 -2.2364118 -2.1683693 -4.086471 0.56147414 -0.73781276 1.0787789 1.9561515 1.3259125 0.3674984 4.1879067 -2.5844843 2.9955182 0.9867225 2.311919 -4.624739 7.0857143 -3.5531268 0.2948604 -1.2563932 0.084138244 0.9647533 3.7000952 2.4160318 -1.3836364 -4.3674207 0.88528603 0.7289877 0.7123198 -0.586713 0.78388524 3.010167 0.018336909 -3.5025725 -2.7869933 1.8209264 -3.5123615 1.4033667 -2.0101833 -4.434674 -1.5519174 0.6263067 -1.1826152
297 0.7525371 3.528784 -4.868034 3.4548109 4.8959475 0.087519325 1.1369369 0.7883103 -4.239014 3.4798512 -2.8324115 4.0277596 3.383542 0.0639919 5.0600247 -0.52565086 1.5412 3.255811 -7.903121 0.69940436 1.8847975 -2.6913707 1.5960512 1.1853892 0.3430902 -2.3656943 1.7736366 -2.5849342 -0.82633066 -2.808146 4.3085427 -1.7721479 -2.1790798 4.2024446 -0.1925833 -6.5670176 2.2705705 -2.342908 -1.055174 1.3304985 8.497621 3.8483567 3.0200617 2.6812115 1.6555271 0.59180534 0.8944564 1.2252192 2.3027098 -2.6397913 -1.6240467 1.4003752 1.5619656 -5.160303 0.5676626 2.2636924 0.56844825 -1.8581125 0.16633724 3.3918686 3.3492308 1.4158592 -6.360857 -3.1941638
471 -11.924054 7.066807 8.925015 3.8546877 3.7258465 0.8903045 -6.7032175 -2.6701014 -1.1025765 -0.4996378 -2.4892097 0.8713192 -0.25775892 4.326875 -1.9026624 -6.1717625 -0.16283154 -1.6539359 -0.00537991 0.50487775 -3.7334514 1.4022629 -1.0667065 2.5786228 -5.6225567 3.0715942 3.3904471 -0.83114904 1.8258165 1.2207602 -1.6920776 -4.7019167 3.587147 1.2755972 2.7515726 7.0207105 2.389951 -2.9581487 -0.39193112 -2.014326 -1.3681008 1.6201779 3.6527047 -0.24838775 1.7868364 0.2791248 -1.2449069 0.55939597 -6.6091003 2.3324022 2.2227674 -0.794091 -0.22622082 -0.64990366 -3.5215445 -1.6441612 -0.7747328 -0.7496159 0.9244608 2.1053348 0.5857276 -1.1317408 -0.707082 -1.7512972
68 1.9534116 2.2666705 -3.7005534 1.3878065 4.0850663 4.707367 0.8892867 -1.5575272 3.1964726 -4.716781 3.9881413 0.6336107 -3.6594622 0.75546235 -10.683515 0.6850419 3.1401985 -5.900615 5.9174113 -0.44893858 -2.5269322 1.9871234 1.2242132 -0.6434077 3.6449695 -3.068935 -0.9672502 -3.1517408 -1.8528471 -0.563414 5.7143745 3.2090285 -1.1206356 -3.5020995 -1.6177319 -3.1827219 3.8706102 -1.5477335 4.918419 2.8042307 1.7186853 -8.109173 -3.9785914 -6.958505 -2.7656016 -1.1366421 -1.1258034 5.14376 0.55206484 5.6279397 -0.43716332 -1.7205815 1.0369283 4.5025306 3.1436822 0.13169412 5.8257456 2.8162916 -1.8958538 -0.6510697 -3.8451505 3.1437268 1.1022629 4.326922
86 -3.637175 3.4146013 -1.8250935 -0.108229846 0.8731525 -0.4947318 -2.9649463 3.0070748 2.1002908 -0.9631162 1.1542273 -1.1444613 -3.325728 2.9817865 0.2904924 -2.4847472 6.3699636 4.8853536 -1.4484278 1.246028 3.404531 -3.5348377 0.31130606 -0.88160086 -3.7971334 -4.6445637 2.3221858 5.3235335 0.22731948 3.5501208 4.3014026 5.244405 -3.2776182 -1.8012617 -2.9920518 -1.4859004 3.6973965 1.9525213 4.6298895 -4.67962 0.25397483 0.60225004 -0.5912875 3.2336776 7.9131756 -1.1535302 2.5747335 2.939206 -1.9187032 -0.94968754 -1.2424669 -2.0693338 -0.4621231 1.5306263 7.3303447 -0.7113521 -3.4370785 7.700841 -2.3195717 -0.44973528 -3.6573083 1.6432315 -3.9086356 1.901348
587 -0.052550413 -0.88204235 0.79805404 4.0876756 0.5057885 2.3491912 -1.8057543 -0.39503345 -0.16328427 4.2775035 -0.33759314 -3.3288703 -2.9292297 -0.46337402 -2.7073727 -2.1058996 1.0208701 -5.390687 1.8626871 0.15445484 0.49567905 0.53568 -1.907654 -6.515293 -3.4951437 -0.38161147 -3.8975337 -3.0358272 5.4531307 -4.4572954 -2.1723342 1.9826052 -1.5557125 3.6780524 -2.7302053 0.38961813 2.0585358 5.318494 0.9300166 -0.8204016 3.529272 1.3067745 0.6630408 3.219304 -5.7243943 -6.369234 6.27463 4.225611 2.5068462 -1.6668615 -2.2425222 -2.7461982 1.1626849 0.084895864 -2.8598146 2.1404636 1.7582175 -1.4430485 1.5049367 -4.2711587 -6.059677 -5.4337306 -2.554915 -2.0505075
293 -0.058069885 0.04869021 1.9502923 4.57199 -2.7665207 -0.82606703 -4.6664004 1.5822176 5.319165 -0.71182084 -1.3944349 -6.239235 -4.0593066 0.73138195 -5.9889483 -4.2829123 -3.7449894 2.7410603 -11.340422 0.5461249 1.8927268 3.7354946 -2.2504473 -0.31778303 -0.97659844 5.861674 -3.1698847 -2.719966 1.1125114 -1.3690791 5.02919 -0.33796543 -1.1746448 1.4015734 2.7012484 -3.1148603 -3.4580855 5.091129 0.72071093 -2.4529653 2.2843893 -4.658625 1.6914827 0.5021135 4.81386 1.2021278 -3.0252938 -0.24359594 -0.26506042 5.1504354 -3.4100878 4.588042 0.8956522 0.5509304 0.7008525 5.2578325 -3.2029288 -3.1125655 -0.2934431 -2.7124882 4.3021865 0.16355698 -2.4299483 0.64054376
256 0.53079104 -1.2575039 -10.690458 3.0504262 6.1886067 0.109822534 5.1693006 1.5200101 3.3499694 1.3281685 -2.27405 -6.5881658 -1.0592268 -2.8532825 0.36392784 -0.5704167 -4.576711 -1.6431706 3.238354 0.24049616 1.7095792 0.6653823 -5.663823 2.5102315 -0.734065 0.3379863 -5.0285845 -1.7298056 -5.6486187 4.8734202 1.3024838 0.5303867 0.21981312 -0.9783263 6.6762347 1.2853352 -2.6491928 -0.89842093 -5.476897 -4.027978 -2.297656 2.843096 0.21255304 -3.1958306 0.7522864 8.390182 1.5295247 4.150422 2.541142 2.6665092 -1.4406357 -2.6995757 1.0223491 -1.1090274 -6.919235 -3.284748 1.186981 8.686983 2.3789704 -0.30127606 0.6728358 -1.1350415 2.8778477 -1.2210801
513 3.571386 1.7662632 1.8797058 -0.10948672 -2.0852485 -1.45122 6.8893576 -4.028132 -5.36766 -3.1490278 -0.5109247 -1.077385 1.3448969 -6.1736116 8.840637 1.2748976 -1.9509844 -2.1601062 -0.2906353 -2.6362376 -0.7883822 -3.0920339 -0.21094054 -3.8477805 -2.2203774 -4.46288 -6.1032944 -3.2016387 1.1912026 2.239304 1.7873179 2.44974 2.7317321 -1.0229858 0.46208975 -2.148285 0.060153108 -4.379599 -0.43304878 -1.0434848 -6.645144 -5.830903 -1.2849346 -0.7471627 -2.6655626 -4.610226 -1.1329485 -3.1729414 1.8928633 0.37148145 4.114639 -7.0775228 -6.182693 4.146678 -0.05851774 -2.0053082 -2.0500836 2.990192 -5.3433185 -0.5303566 2.2388465 2.006537 -1.3911902 -1.5488529
384 0.03418629 -6.343859 -7.3711677 0.66521037 1.1650625 1.6413763 1.773564 5.8854427 1.5659755 0.4907974 3.6788301 -0.6795423 1.441247 -1.2862324 -4.074212 -0.21161103 -2.8124855 -8.330637 -2.3060172 -5.164915 -3.3369005 -5.081778 -1.0395508 -1.3734186 2.3322828 1.7749197 3.6681526 -1.4296622 2.945479 1.8499901 9.789472 1.111722 -2.4963725 -0.45416254 1.6675267 3.8110743 -9.275195 -0.45829922 5.1870546 3.677533 0.5400511 -1.9169182 -2.6284351 -0.2861556 -2.8412364 -1.6399654 -2.047523 -1.973 -0.11123575 2.7532718 -2.8660235 2.776257 -3.6933565 0.6759914 -1.6743342 -0.3838792 2.314947 -5.002851 -1.7208949 1.4351648 -0.15969321 -3.4775937 0.17229722 0.5252769
24 -3.4032683 -3.9897788 -3.354513 1.8275409 -0.31335485 6.897991 -0.6180197 -0.14003332 1.3109945 2.337829 6.742075 -3.2990005 -3.358505 0.009063387 -0.49023825 -1.7767777 -2.0614994 3.1723592 -7.214083 2.3021417 -1.9178581 0.4274627 -0.8034001 0.48727068 1.1264421 1.7435671 -0.97744113 8.805949 1.8454295 1.6011399 4.8736424 -0.51266646 -3.4647908 4.2990274 -1.3991889 4.864675 -2.6495495 -2.1090162 0.05922894 -2.6924012 6.087861 -1.9056045 -3.580021 -0.56699926 3.7521365 6.6393 2.6244671 1.3160772 4.3635497 0.28757092 -0.62970525 4.174563 0.9344931 -4.16898 7.7004457 -2.0064287 0.73006535 0.38737792 3.4465833 -0.77618986 3.8697386 1.3727379 -4.5027905 -1.8174498
757 -3.885686 0.33514246 4.4990926 2.797898 -0.24998893 2.2752104 -6.440449 1.4932059 -1.1907471 -1.4453342 -0.7766198 0.18280108 3.921884 -3.6350877 3.3255126 1.4614332 0.11151741 -3.3990862 1.622055 -1.2552506 3.7520053 -7.6863847 -3.4818683 1.7645144 -3.9972389 4.2220883 -3.455602 2.0720277 -0.725372 -3.1457632 -1.8643109 3.7314718 -4.4772606 0.40340725 6.4745684 -1.7945462 -0.09154287 2.6475377 3.2655492 -0.5374552 -3.1774192 -1.1395973 2.4094012 3.1747906 -1.9684727 -1.6286936 3.4760494 0.37416404 -3.5198145 0.6433647 -3.0704167 5.2608643 -5.3106923 1.4115083 -2.7677398 -1.3724618 -1.1743577 1.4279605 -0.14398322 3.208829 2.7843177 2.9648497 4.57797 4.2412186
184 0.16812088 -3.1291366 0.006976313 -2.615794 -2.876028 -3.8496802 3.3152657 -1.1774371 3.0267587 -3.4013133 2.398245 1.9202502 -4.6626906 -2.1750426 -0.58270544 1.9864515 -4.4436827 4.1565948 1.8442767 -5.337777 0.7911664 -0.08345237 6.7895665 0.041330617 0.9855315 2.9939914 5.012978 -1.6281239 4.2757916 -1.377936 4.7299733 0.8869679 4.8171334 -2.1872656 -2.9217932 6.9362597 5.376177 -1.6443396 -0.9523895 0.7442771 -3.447442 -2.6331558 -3.003194 1.9743756 1.8810242 -1.9754634 -0.27307585 -4.1157174 0.5430222 5.6657147 0.58957136 5.1905117 -2.6918705 -0.78925735 -0.76072794 3.4891295 -1.1106846 -4.2781935 6.3260336 0.56861085 -5.208655 0.2751355 1.7589223 -2.6548495
342 -3.4757109 -3.0682836 4.0566773 3.3915532 2.4755847 0.11276148 0.14758167 4.467108 -3.773035 5.4945493 0.44853267 5.4996877 -0.106389455 -3.9187744 4.7563148 -7.103764 -2.8585453 -4.1142864 -0.6602809 -3.3814914 0.61799693 -1.0721542 -1.4127061 -7.4624166 0.9796499 3.6441061 -0.5764995 2.5744588 2.7812603 -1.9874908 -2.5442095 -1.5662404 0.95739096 -5.845575 -1.446966 -5.139755 3.7461848 8.4067135 3.4445398 -0.23421034 0.61178803 -1.349756 2.2130601 -0.13218628 5.2802963 1.1230934 -1.693658 -1.431652 0.3018601 -3.0335877 4.1285105 2.22867 4.234188 1.4497647 -3.1224027 -3.5702558 -0.56476754 -3.3719225 -2.0986574 -1.9703963 0.01849904 -1.6272124 -2.6079378 -2.2687407
274 -0.87502307 -3.802594 3.4526238 0.51802874 3.4451826 -5.0455823 6.15036 -4.8062744 1.9901701 -3.240328 -1.0430747 0.28565845 2.7950313 1.3612372 -2.9021354 3.041078 -3.5292566 5.8232164 3.0934045 2.8127491 0.8413452 -2.9029953 -4.481432 4.283173 -8.722277 2.2808459 0.970259 4.078549 -4.0245733 -4.2243195 2.2023408 3.6924615 2.4063985 4.7620735 -3.9811513 1.6493831 4.3066344 -0.26376033 -0.22190394 -3.125789 -2.6513999 1.5925565 0.85019505 -1.0264809 2.2075076 -0.9455265 9.901038 -3.2673054 1.7189386 5.170624 3.5955112 -3.3771381 0.38114467 4.228243 2.6393826 4.674882 -0.12598324 3.0414464 -2.7984047 -0.95126784 -0.24594542 -3.2631505 -1.2500315 -0.990597
863 -0.5715351 -0.003726307 6.8421907 -3.591397 1.3752264 1.1722289 -2.1824195 1.4107844 0.7094729 -1.1782844 -3.479828 -8.162659 1.0346245 -3.4007049 1.5198473 -1.9202114 1.1918821 -1.4286404 -0.3211491 2.8935192 2.5502098 -1.7160838 -4.48148 4.538325 1.2494996 -0.57603705 -1.4632304 6.745866 7.6686187 1.002489 -7.191938 -2.9306178 7.191457 2.2727232 3.2251856 1.1181792 -2.246492 0.043716885 -4.5094266 1.6819069 2.1280293 2.7370853 4.192111 3.4715922 0.11601508 -1.9027951 0.026388807 2.4852753 -2.2078989 -5.1020994 1.8047454 -0.074930504 -1.2848215 -3.6831572 0.3302644 -0.072492905 0.026621275 -0.552889 -0.6995438 -0.26663172 1.8576952 -0.92691964 -6.834489 2.5750375
81 -0.2916247 -0.7957048 -2.9800973 0.69794554 -1.8866909 2.5363636 0.43205598 0.7040269 3.9068234 0.43164873 7.636181 -1.9682338 -4.8843474 -2.0899315 -1.3842336 -3.5086634 1.3847904 -3.0253003 1.1087112 2.7767355 0.039012782 3.0081754 1.3167762 -3.3397484 3.2319734 3.4308016 -0.8828549 -4.495439 0.6936852 2.1259806 4.7813396 -0.5029771 -3.1974847 8.447355 -2.4433389 -3.5786285 3.7890017 0.4142962 2.3128474 -2.736329 -2.7427266 0.02944126 0.67489856 0.7565293 -3.2343473 -1.392809 8.252146 7.1727147 0.30438396 -0.64003265 -2.7250965 1.1791365 -3.5945766 6.180829 -7.840522 -7.511265 -0.53380555 -1.2465712 -2.1858292 0.15518792 -1.0614367 0.31544217 -0.75862753 -2.4050364
747 -3.5250373 -4.3351827 -3.642921 -1.6749072 5.9271474 8.673083 -7.3245406 0.10421552 1.7955179 2.8739367 -6.4234104 -3.9766638 3.7079 1.625716 1.3355184 0.8871358 -2.660552 3.704453 -4.28192 5.335198 2.9389324 5.1172905 -0.80181473 1.960675 5.033475 1.0064577 -3.1570003 -1.462369 2.963636 -0.9732147 3.3973818 4.511385 -3.4460523 1.2540165 -2.0502112 -1.1366045 1.7781967 4.295567 0.95711994 0.45211604 4.6908474 -2.3219345 2.579264 -1.4017323 -0.4749691 -1.2132884 0.61153144 -7.380972 -0.03932896 2.5695357 -0.29763427 0.6353916 2.1848764 -0.6817946 0.72952044 1.2416415 -3.7121131 -2.3154142 0.89573866 4.743823 0.94112605 -1.3451881 -4.5324373 4.685965
131 1.4858739 1.8558993 1.3723587 -4.883859 -0.10824287 -4.951748 3.7762656 6.508664 -0.7281053 -5.5267944 -1.5463384 -1.3729057 -9.471191 -6.8005075 -6.907881 -1.9619937 0.6791644 1.5275658 4.0529675 -3.034986 -2.7253306 3.3736668 2.5987475 0.36901808 -0.12385736 2.483587 2.9663854 -0.42395315 -1.9171879 1.323581 0.20249717 3.713278 1.4687883 -5.390727 -5.0016527 2.2875748 -1.3391714 1.1794362 -0.9075931 5.806015 0.23086895 4.05109 1.9746547 0.53820866 -3.1081383 3.9485066 0.9082922 2.199569 3.2066255 5.5587125 -0.91109246 -2.1704664 3.0878017 -1.9094206 0.19811355 -1.6488078 2.0019057 -2.4528928 -2.9188666 -1.96549 -5.2571387 -0.15188327 -0.84892577 -0.19325976
269 -4.4421186 0.9391227 0.6031105 0.2012976 2.5177703 3.1720095 -0.97894794 -8.058019 4.1214137 -1.8245429 -5.1105757 -0.6659943 0.371692 -0.7186331 -2.5439768 -0.45139787 -0.07952066 2.7185688 0.7569773 6.055132 -3.7678015 -3.7269254 1.2742032 2.1223705 -4.236946 9.954672 -4.1947727 1.6353463 -1.7215583 0.17798221 0.6781363 -4.0655665 -1.283555 0.30938527 -1.4572963 2.7472036 2.506451 -2.1672058 -3.3132868 4.0893865 4.8260612 -5.246667 -0.88701516 0.68076336 -1.9086344 -5.491561 0.79071856 -0.4817188 1.4452628 -0.5927134 5.1266336 3.7736204 -0.41189826 -3.836487 -2.8401203 7.7120395 0.107813835 0.22599739 5.4621634 -2.0508096 0.6254055 -0.5500146 -1.1645998 5.5267625
333 3.1752722 -1.1025681 -1.7079381 0.6215894 -0.91163135 -3.2375886 -2.0511882 4.362071 -8.073173 4.419284 -1.1887633 1.4582341 0.2273229 -2.3759058 2.2338672 1.0497861 -3.5031898 -0.1698655 -2.1343195 -3.9824636 -0.5415668 -3.6737504 -6.4958205 0.18874422 -5.603866 2.1170285 0.73568183 -3.517149 -1.7250471 4.694408 -3.8585162 0.392572 1.0363266 -3.5318403 5.7005267 -1.3399918 5.553224 1.7669619 0.44991624 -2.9159787 -1.3445876 -4.837284 -4.4450564 -0.56088716 4.1270723 -1.9868462 -4.1856365 1.3868136 2.14051 -6.840896 -1.7693516 1.1811466 6.4384336 -4.4446416 -0.7651232 -6.9461794 -4.036949 -2.7378821 1.4413954 -0.19593556 -1.2663469 -2.7895906 0.8471504 -0.7239495
271 2.0572524 -4.713954 -1.7410549 3.7532496 -0.14544709 6.5936985 0.27700844 -1.5651469 0.44227746 -6.001279 4.9089184 3.0855916 0.25555345 0.5207444 2.0357354 0.27520087 1.1689092 -3.8467777 3.6975746 -2.8516986 -2.3052814 -3.2857406 -5.899548 1.6913778 -0.779513 5.3774385 -7.327922 0.5095567 1.619633 -6.629362 -2.8025172 1.2624156 -3.441666 1.7551836 -2.2323642 4.2007756 3.0324433 -3.6825964 -0.7257333 -3.4663937 -2.4662805 -3.0774488 0.20091549 3.4932868 0.59080046 -3.9122617 -6.7900558 0.9330213 0.9425474 0.320677 2.5099957 1.7722073 5.518899 4.336968 -0.6782588 -4.3182797 5.726944 0.52017546 0.01940004 -2.6331866 2.9239583 -0.31639186 -1.8943987 2.4274993
290 -3.2102349 4.4983177 -0.6787962 3.832793 -2.093071 -1.198605 1.9998859 4.0876603 -1.4108472 1.9187198 -0.7344204 2.3851647 1.3888323 2.2379088 2.6660857 -2.8239565 8.258462 -1.4555454 6.6220527 -4.566423 2.0886095 -1.1775278 -8.608588 7.919834 1.5439603 -5.093603 2.5087485 1.1182506 -2.6719372 4.164708 -2.3675923 -6.3599515 -0.181663 1.8300198 -4.0308323 4.8991513 -2.4574552 6.780432 -2.3385804 4.344618 -5.935493 -3.2788956 0.35538605 0.76357365 0.18625188 -1.7319764 5.1648936 -2.3418424 2.7668447 -2.3199534 0.5052904 -3.4439714 -2.1973348 4.4973474 -3.9238424 2.6422436 1.1129702 4.0668893 -2.3853667 1.1769918 -0.98840016 -0.63304603 1.5441048 -1.0472289
550 -0.8325188 -1.5584233 9.548931 -0.23837872 -4.2656913 0.59617084 -5.303109 5.7374163 5.501309 4.7705417 2.1773152 -1.7819612 3.7925963 -1.5135756 1.6173682 -0.4817847 1.8060577 0.97349983 1.3586149 6.822673 1.1168071 1.630473 -3.601013 -0.58918893 1.974136 -5.150474 4.459487 2.209757 -0.9812056 -0.98380405 2.0081844 -2.1575959 3.9551744 -3.1123908 0.33638784 0.5354376 2.9092765 1.2627916 2.3358727 -3.0646653 -1.8756812 -2.0823956 0.32356614 -0.70977837 -3.8716176 -4.610415 -2.5047543 -0.5686869 -2.7993553 -9.72438 1.4425262 3.2311769 2.5906157 -0.5132965 1.3210214 0.39397487 -0.54886186 -4.4023066 6.5264864 -0.62113255 3.6031842 0.0068185935 0.022261426 -0.44021872
182 3.7082627 1.6110448 -0.5543485 4.4508815 0.64612794 0.33197182 4.3228397 -0.90130097 7.377137 2.705362 1.0740384 3.301377 1.2720009 0.76570356 -6.59751 -0.5344827 3.1864293 5.2920647 -2.169696 -2.3296237 1.0353453 7.289247 -1.8366913 -5.029846 1.3909192 1.6787206 1.6564668 -7.6078563 -5.5588365 -1.5675147 -0.14462733 2.8667989 -2.64271 0.33834466 -2.045946 0.4992537 -3.3782063 3.3809414 0.7026768 -5.480519 2.0213375 7.319986 -2.219711 0.66141295 0.4865154 4.440513 -0.13652895 5.004073 2.7151117 -5.8559103 -7.136797 0.4922157 -3.9386642 0.12950695 5.0224514 -4.9609795 -5.8429346 -1.528358 -4.9147983 2.868612 -4.3374796 3.3121736 4.825554 -1.1183727
495 1.2668096 -1.0288149 -3.5825434 2.1025462 -0.8079277 -1.4635253 0.11076362 -1.2581962 3.6689646 -2.4677222 0.025493309 -3.7879896 -2.694545 2.4937766 -4.0864706 -2.286713 1.906674 -3.2773094 4.5055847 -2.0791957 -5.59599 -5.132581 1.3240864 3.0753088 -3.0722332 0.7202576 4.594307 -1.9536624 1.9559686 0.20279184 2.5879238 4.5797586 2.361586 -7.4991374 0.5167643 0.05545781 -1.0637311 -3.4150255 0.2193965 -2.2740903 1.9081933 3.819554 0.08022579 1.8046527 -2.221308 3.2872787 4.376867 5.5942874 0.61418647 3.1058452 0.9608775 -2.0178475 1.2806042 -0.8268859 -3.7244835 2.5997236 2.4944296 3.6247985 -1.5453708 -1.1039933 -1.2905287 1.5518103 -1.7120318 -6.651214
301 6.930663 -0.12581581 -1.8436139 2.4719038 -8.358339 0.86333394 -1.271938 -0.5832851 0.9216789 -1.900447 -4.51586 -2.9196937 7.820794 -0.6174889 5.1745124 0.2129029 -0.6642928 2.4545152 -0.1774455 -8.222849 1.2231927 -2.8266466 -0.23380096 3.412378 -1.8878846 4.0755043 -4.420166 2.4765933 -3.883657 3.600078 -1.7224146 6.138966 0.029906247 3.1331027 -5.6662507 -2.0330338 -4.797538 3.1644936 -1.7838107 -0.40586165 -1.932156 -0.38230786 1.5058002 3.2293553 2.8733144 0.7741948 -1.0702184 -0.76069087 3.9348068 -0.63267154 2.6549292 0.4927934 -1.2382553 0.6876207 4.9914174 2.5320292 -5.701944 -2.817202 3.1699674 0.9290378 -2.219684 5.913064 -2.4527094 -3.33511
377 -1.6615155 2.8738174 -4.322772 -1.8705641 -1.1607647 1.6925341 -4.293941 1.2339367 0.34995085 -0.8603639 -2.5612874 2.3510838 3.0194087 -5.707456 0.64598674 -0.84664273 4.1136537 -3.5725605 -1.4916211 0.0026506584 -7.4643984 1.5237616 5.0023828 1.1512473 -2.0459728 1.4434234 -0.62902296 2.1847842 0.52779055 1.1978438 -3.6105802 1.8485295 3.4375377 -1.0931008 0.77505744 6.3082395 0.0309779 -1.6605976 -5.2303476 -8.495711 -4.9033136 3.1933439 -0.3878914 -2.961336 1.56794 3.0352328 -3.2451966 -0.8634609 -1.5641742 -1.591835 -2.221921 0.668062 0.7781146 5.2641907 0.09701968 -4.1083117 5.579108 -0.12213452 -5.660285 -0.521982 -3.0080686 -0.13287424 -3.4438071 -0.07769857
428 -3.0845993 -5.8927355 3.7805822 -0.15535635 1.365629 1.7142906 3.0258408 -0.7305345 -4.1856995 2.4868112 0.57348293 1.7346047 2.3577678 -0.68824613 2.4061983 -1.8676305 5.4705424 2.8774016 -2.7712276 3.2127872 3.4017072 -2.1263087 -0.6066113 0.4287436 4.732355 -6.0722404 -1.8683323 2.092418 -5.631896 1.6621677 -3.3077707 1.3663383 4.777386 0.6103989 2.3511677 -1.2271628 -5.3816023 0.6476628 -2.396748 -0.99297523 -1.8828588 3.081368 3.971337 1.2352566 -2.8659263 -1.2152169 2.3659894 3.891989 2.8479354 1.8368864 1.6385701 1.3779143 2.5150108 4.9557595 2.292108 -6.621683 0.93821704 2.8754542 -6.550468 -0.0034146649 1.899762 -1.6311423 3.897678 -6.306697
658 -0.3083129 0.027346214 3.314786 -2.0515773 -0.85498106 2.7003276 2.4524586 0.6850642 6.116315 0.8142608 2.4827213 0.024532046 -2.2440999 3.110297 7.404569 -0.19708782 -2.7876215 -1.9813629 -8.615235 -3.468553 -2.6747336 -3.4695091 2.729153 -0.14586544 -6.0770373 -0.76108027 -1.5277337 2.173103 0.5250009 -3.8325257 -4.7790785 0.44532928 -0.018624816 -0.90067923 0.48230234 -2.1370225 5.6930923 -0.20286565 -1.9004476 3.1241224 2.1404953 -5.934756 1.520341 1.6150018 -2.5207803 -1.0433525 1.2748053 0.8831584 -0.8715646 1.7052817 3.6915603 -1.7543656 -1.2712859 -0.9627744 -4.8268223 1.5400007 -3.4076781 0.057134 4.3315697 5.87469 -2.840614 -0.7486369 -1.1078353 4.618109
14 -10.035219 -0.46203485 -3.702624 -1.3618734 -5.3776217 1.3348008 0.020105734 -3.1680813 -1.3585588 -3.1179626 -4.535549 -1.4446319 -2.5259697 -3.122503 -3.1650574 -1.7934753 -6.5096 1.4213161 3.3647714 -4.1709447 -0.26322934 -0.057998344 -2.6465719 -0.57628435 1.0087113 -3.732499 2.3272052 8.631625 -1.3332523 0.30960238 -7.464681 -0.8981016 4.4547486 4.3766727 0.109643795 1.8272612 -3.1478746 1.0257897 4.4771986 -2.2888691 -2.5220795 -5.6243033 1.7209036 -1.4846003 0.5601924 1.2950343 4.551925 5.294184 2.9953463 0.66348743 5.683856 -6.769974 -3.6250744 1.3065318 -2.1017532 -2.6730459 0.8663137 -3.4043534 -0.6376008 -0.9667894 -0.78559136 -2.9697924 -1.4075481 -0.42010108
171 2.1183448 3.6770115 -8.156929 -0.7185105 1.0536233 -2.389456 -1.6336906 -1.8937936 -0.54253715 -0.67370534 -2.7106023 -3.8936362 -1.363875 -3.8553398 1.9060923 -2.7099478 3.3526053 -2.8191326 0.34804982 -6.481906 -2.1863933 7.8142323 2.6238055 1.0210719 3.6028216 0.44056353 -1.5789746 -3.0619955 -8.332272 -2.459386 -4.211942 1.2746533 3.3993738 -2.4424956 -2.9879954 -1.5528743 -0.6030723 -2.5612001 0.934137 -1.9105803 1.1422733 4.044527 4.039486 -5.93252 0.39767268 4.663408 3.2393758 -2.0254703 -3.089296 -1.6869735 -5.926467 2.121269 1.2085103 -2.5802042 -3.4422374 2.8332388 -7.547517 0.39946282 -3.6583736 -7.0672274 -5.6951246 -2.4274926 -2.6800487 -0.63877743
602 1.3046535 -1.1657643 4.8662887 -2.3701572 -4.3869324 0.9372407 1.36727 3.5662286 5.0373325 -4.875606 -2.6504188 -0.58667415 -6.093446 0.43939793 -1.5585313 -4.4440026 3.7953713 4.2484674 -1.9900194 -1.5565985 -1.5021932 1.5530905 -3.7010808 6.192922 -0.40225342 -0.4187515 2.1422195 -1.5494401 -3.3964648 5.098813 2.39691 2.159881 6.2855988 2.4367394 1.8792666 -1.0594316 2.1425824 -1.403637 0.42225203 2.3725982 -1.9624059 -2.7454486 -4.6983356 0.76042247 -3.8860865 4.6865544 -1.856774 1.9805692 -5.312514 -0.6548825 -3.6071227 0.22727327 4.3300385 0.51002985 -5.2989554 2.9114618 -2.2260842 0.5961712 1.050419 1.4855452 -7.511035 -1.2023149 2.0343192 -0.7689806
96 3.3188837 5.169414 0.012095497 -6.205832 3.8365614 3.0831876 -2.0135503 2.1838195 -2.6484127 -5.3497233 1.9939044 2.9749222 -1.569418 1.6468463 -2.2949126 3.0782666 2.578091 -2.8006012 -4.0687175 -1.1123013 -1.2470504 3.5043018 2.4660463 -1.9728198 -0.8299712 2.212714 -1.9193361 -0.9884607 -1.9120452 -5.253586 -0.14840512 -2.172292 0.19373596 -2.3115127 -1.2191101 -2.5640028 8.010051 1.6928202 4.353824 0.98187566 -1.1364758 -3.1076589 -1.9955114 -2.73113 2.9438596 3.915229 -2.069352 -4.7070866 -3.7688065 0.83752376 -1.7032765 -4.6377664 0.919121 -0.19117539 0.6465935 1.4326828 4.2190347 -2.6427586 -4.0219936 1.5659486 -3.3302617 -4.1382637 0.40976146 3.9232304
69 -3.7981393 -1.2588525 -6.1414275 -8.119763 -6.9959383 -2.5572212 -0.8537165 -0.9223749 5.8417263 1.1967524 -1.0696996 -3.5680013 -0.6752455 0.84730065 -0.4489358 -1.7537576 1.5104872 3.2136505 -0.5790984 -3.2226534 3.134516 -1.3839844 1.4637067 2.5625088 -3.0107775 -4.6342688 0.56342334 1.4992924 -2.9936616 -2.6460967 -2.0123248 5.744795 -0.8360897 1.1476494 2.8742785 5.272902 2.4935904 -4.0771046 -1.3507129 -1.6796252 -2.1535144 -1.4202386 -0.6335252 2.1659117 1.5680847 0.2242215 2.1603465 -0.69307053 -1.0254719 1.5443658 4.2588267 -1.5912786 -4.377096 2.0337713 6.867597 -0.96872205 -3.2653546 1.9082179 -7.2575765 -0.38045284 -0.2615195 2.1010053 -1.6705292 0.6000638
278 1.8847138 -1.6589592 -0.32629535 -4.1498303 -1.5784241 -7.632951 -8.624425 0.4235748 -4.1919074 4.0504975 0.033778127 5.001283 3.1811397 -2.7062545 4.314467 5.5114756 2.438221 -1.3582416 1.0907813 0.97156364 -1.8467791 0.38669023 -8.355622 1.1065611 0.3794837 -0.34151417 -1.4594139 2.6782594 2.5575497 -1.3738465 -0.16103974 0.29940736 0.6419554 -7.7151628 0.7803201 1.4030203 -2.0566802 3.4056456 -0.6896944 2.8842585 -5.0991435 -3.9191482 1.982847 -3.5437436 1.1483464 -1.768175 1.6489917 1.4580301 -1.4425156 3.6955705 5.83554 3.0551796 -1.4591837 -0.82155216 1.182172 -0.02924486 1.32798 -5.1891108 0.46382114 3.4782088 -2.1531434 3.089873 -6.2260847 0.93225425
331 -2.9476504 -1.3771256 -0.5827701 -6.220886 -3.2075336 4.599204 -9.019628 0.9458683 -2.3436177 -7.7916336 2.6560504 -1.3627334 3.361601 2.2365367 1.5399994 -0.5565944 -4.415004 2.1823807 0.22824875 -3.2346866 3.7492964 2.422916 -1.9615259 2.2063615 -0.9266414 4.263526 -2.076386 -5.4262757 -0.36084405 2.812664 5.081971 -3.2902725 3.4298646 -1.7580453 -3.5141108 5.2095976 4.4130487 5.021657 -2.8215075 -1.5751411 -1.3424803 -2.2875266 0.97579294 0.5437141 -3.000365 -3.7586846 4.423813 -0.93016475 -4.223739 -0.6306525 3.0330856 1.1118205 -2.200559 0.42827973 0.4865946 2.1674836 1.7228658 4.5845127 3.2160776 5.306432 2.136681 1.702519 -5.848111 1.7042881
422 -2.8706207 -0.7351239 1.9019911 3.267378 -0.91647166 -0.9789427 4.6158223 -0.94033813 8.143295 -0.9787621 -2.727675 -1.8360416 -2.4319246 1.0848655 -8.03707 -3.0510578 0.037810344 0.288536 6.1357 -3.6494927 3.0746057 -0.60149175 6.0267963 -4.949455 0.94907945 3.0330143 6.1198454 -0.99131674 3.9324632 -0.20303237 0.78002095 5.0056357 2.4390762 -1.4000134 -4.0737424 2.8348014 -2.2754695 -1.1433781 -2.5270061 -1.2699617 -0.83259076 2.073816 -1.649142 -2.1702926 1.9080056 -2.125758 9.459739 -1.5845011 -1.2214651 2.4802368 0.1466658 -4.974033 -3.0313668 -3.3774068 2.4151905 -3.9527988 -2.3394566 -2.069028 2.2030106 1.9555314 -0.16487941 -2.5669863 -1.4327542 -1.5878618
292 2.039645 -4.8321614 2.4630506 1.5287828 5.0736885 6.764603 1.0194534 -0.64658576 -1.4135573 1.340441 -3.1352763 -6.5037346 10.12181 5.327668 -1.2148254 0.3657368 -3.0296676 1.0569779 -1.9188745 0.046079807 -2.7392704 -6.4991484 0.54502666 3.004472 4.888894 2.9701457 0.91770166 3.0197399 -2.175318 -4.2513766 -3.0987434 -0.2872154 -2.5586984 3.4557943 1.9583902 -5.234916 -1.8743266 -3.332038 -2.0297244 0.8610768 1.8034185 2.1813078 0.86516935 3.0498435 1.6190498 -0.42025897 -0.17576861 4.209701 4.660339 3.278403 1.6342243 2.723107 -1.3478899 -2.530309 -5.617782 -1.8132946 2.1068025 -3.1420016 -0.8952165 0.694943 1.1383444 -3.04385 -4.3509088 -3.2481987
311 -4.922433 -0.56197524 -1.695349 0.043903023 2.8416767 4.0173893 2.0129433 -10.852124 -1.1619035 2.1799865 2.9892507 -2.889845 0.45503432 0.4709184 -1.968606 1.5536991 -0.28549275 6.3426147 -0.42991915 0.81318146 -0.64456975 0.39425316 2.4573739 0.6312677 3.4483519 -1.3232163 -3.9313238 7.6364455 7.8357077 1.2806777 -2.7524238 3.6411474 1.7571478 -0.33175662 3.1645327 0.62154305 -2.6017482 -5.12485 -2.4460678 5.967758 -5.3247676 3.423854 6.7410283 1.8320668 1.7168881 -0.81132114 -0.5460519 -2.042413 -2.0840178 7.2344303 -0.6615991 3.0666528 1.8158537 -0.3870591 3.8566854 -2.3416126 -6.8920035 -6.604239 -3.9181545 0.54708266 -0.5550675 -0.14650278 0.28802422 2.3558064
456 -2.673601 -4.332459 -1.6026783 2.2022393 -6.114506 4.212937 0.25091544 -1.5695215 -5.382388 -1.4573455 -1.2016445 0.7529753 2.6855044 -0.98955643 1.4294237 -1.6465299 6.5222096 0.7329363 -5.3632145 1.1780952 -0.20451461 0.8443239 -6.3696885 -3.6149333 1.4999924 -2.9599657 -0.587075 2.1827781 1.5130986 -5.529438 -3.3602161 2.2785559 2.7204437 -2.5260792 -5.0443087 2.8819144 1.9072127 -1.4420327 -0.7321904 1.7181438 -3.3859737 0.21654223 4.5516715 1.5062783 5.5405116 -1.3388193 1.6599321 -0.23227 1.9408747 -3.4026341 5.182137 4.2614584 -0.26882672 -3.7182937 -6.44992 6.8852963 1.4555097 -0.310499 -4.24072 2.7324376 2.5886133 -4.8134775 2.708415 1.3968414
41 -1.7110742 3.4173071 -0.92590994 1.357551 -5.2021236 -4.335683 2.6581795 -1.811463 -3.1116574 6.019335 0.5377122 -3.3057597 1.9736992 -0.06791038 2.9524372 -4.988727 3.5729825 -1.1112313 -1.9332228 2.847321 6.8074107 0.34405848 -0.8034381 4.2300243 -2.8824375 1.5364285 -1.9287803 2.9640982 1.384051 -3.317715 5.2248745 1.0964012 0.49652874 -0.80945766 -3.4145048 0.5936539 -0.39390224 2.8523095 4.6585846 -4.3177395 1.9746263 -0.27930328 1.0770267 0.76776266 -0.61575574 0.45627233 -0.25666595 4.86015 -7.3452716 1.532941 1.8721272 0.093758464 -1.848057 -2.9420235 0.22198206 6.2672195 -3.0196483 -2.3576977 -2.6575456 -1.1736734 -1.2690487 -1.469341 5.4193068 -5.2419143
91 -1.7365288 -2.3962595 2.3371446 -1.5644997 -0.654837 -1.9306408 -2.9675543 -3.2464437 -7.5007787 0.9980637 -3.000615 -5.8119116 5.6711025 -0.928917 0.72787875 -0.68496805 3.3600686 1.1648366 -0.5296792 3.5051463 4.915364 -2.3536327 2.881917 -2.0014052 9.199044 -1.754518 -5.804596 6.7488933 0.5209939 -2.5596037 1.600716 1.1601822 2.0188782 -3.4700515 -0.5088568 -0.3192598 -0.2584875 0.59949815 2.4693916 -0.7567705 0.69614494 0.39009804 1.4040986 1.5135605 1.9526231 1.4474597 -4.75954 0.6561896 -2.6195464 3.3213134 -3.52046 2.5777788 3.1591513 -3.3771229 -5.556083 -0.1882295 2.914484 -4.848861 -4.599745 -0.41711766 -0.19846188 -0.7209013 3.0860953 4.035239
505 6.2508802 5.9211135 4.6285477 0.71314055 -0.45182064 -2.5055687 -1.392316 -5.1408334 -0.7006708 1.7273889 4.3717184 -3.1001682 4.91442 3.423567 3.5070395 1.2177463 0.07833478 4.489209 -5.3103566 -1.1802166 1.9276291 -3.9736512 -0.41437835 2.086562 -1.3025951 -5.8092823 -2.1340966 -3.7030702 0.1742438 -1.3566934 6.0596094 1.8607893 5.4024324 -0.027614212 -1.8010086 2.707065 3.5912936 0.044078805 4.1955123 -4.6729593 -0.320785 4.2798824 0.56039476 -0.38808945 -2.3935287 -3.2320302 -0.025831016 -2.1522737 0.35944027 4.459812 6.4102826 2.4563112 1.3123263 1.9056735 -1.3922083 -5.139353 3.1700296 -0.8841262 1.3995574 -1.68472 0.70249575 5.184672 -0.21782571 -0.44605365
22 -0.77353287 2.102942 1.4667284 -3.7340543 -2.165261 -3.754771 6.692701 -0.5611977 -0.50287336 -3.2895057 2.7083044 7.0099773 -0.31525385 1.7047833 -4.063375 0.34763402 -1.8354706 2.8426538 3.954671 -4.2578287 2.449338 -2.0401394 2.5924275 3.2958038 0.95936257 1.1377087 3.5645294 0.75958484 1.3420477 -2.4643118 7.1945577 1.4135268 -3.2710369 0.47400123 3.383504 5.138502 -3.2148771 -2.950613 -2.114682 -3.7734509 -0.15071541 -0.88389707 -0.00795396 5.2289486 -5.197806 -0.19043684 -4.535393 -0.17652819 -0.70683527 0.6632788 1.2926652 -6.5249157 -2.7146933 -3.3149946 -1.2081791 -1.3092067 -1.6584185 -5.7772818 -1.2445034 -3.0192828 2.6712818 -4.011532 -4.5716066 -0.3022214
185 -2.2305017 -2.6436694 -3.5203872 -0.3703092 0.91800874 -0.92129713 0.05791492 -1.4051319 1.1634748 -6.095221 -1.5969591 3.416348 -2.3058124 -2.2233295 1.1117728 -2.247779 -4.4463196 -4.4537954 6.769879 0.10523607 -1.352772 -2.6191576 2.0079043 4.030474 -0.9740592 -3.417731 5.164583 -3.4477096 -3.7031286 -3.6455715 7.8675976 -0.6909142 0.11646792 0.8380205 2.8302166 3.235841 -8.207534 -0.08940407 -1.3041728 -6.451263 3.697921 -1.5851506 1.1155595 2.5274177 -2.070503 -2.8313124 -0.23462021 -0.17200118 -2.1706617 0.5821252 4.4882684 -2.2194614 -5.5055823 3.4514503 3.9436123 -2.8179436 0.84326977 -3.1627584 -3.0922823 -5.3771095 -8.750696 3.6336746 3.70824 -4.151867
238 -2.4902349 -3.6929712 5.036887 0.14971583 -1.3139277 1.9785838 6.728485 -1.4247956 -3.3879623 6.1951866 9.229994 1.7213213 -1.3241535 -0.15312362 -6.8914366 -2.8669093 2.2270956 -3.5942354 0.2893496 2.384579 -2.3569791 3.157838 3.9381123 -1.3306915 1.3457439 -0.797672 4.128039 -4.5431457 1.5341538 0.9123398 -0.94133717 1.2250223 -7.376426 -3.9253895 4.162401 -2.1284633 1.6958743 -3.7970026 -2.228934 1.4099112 -0.9748397 1.2515291 2.1456833 -0.6732339 -0.2158018 0.8457371 0.7502911 6.290894 1.4449078 5.042588 0.7103236 0.5804977 2.6841202 -0.8110873 1.5216607 -4.796124 5.091036 0.02508681 -2.9811907 4.604248 3.7399073 2.1549232 -0.3987961 1.1825657
879 -3.275699 4.505882 6.8913875 -0.6378658 4.9568377 1.3177174 -2.5949636 -1.9914159 0.40331188 1.883509 -3.5352347 1.7896354 -1.9246496 -2.4298382 0.54229754 2.1297524 0.20606583 -0.90249 1.2020489 -2.01827 2.6926844 1.5546982 1.433057 -2.723723 3.5997138 -2.8389838 1.4682319 3.0389264 6.8346996 -2.3779268 0.7500844 -6.22091 4.920059 3.6370735 -3.2279937 -0.89438564 -3.96072 -2.0076115 -4.5889096 0.17913888 -5.3651457 -8.203957 2.6822236 2.722496 -6.865239 -0.6522687 -2.90136 2.2850704 -3.3397427 -1.4108666 -3.5597167 -1.8765367 2.3546684 5.5906167 1.9786717 -0.092349574 -4.6020317 2.6801238 2.5729206 -4.999091 4.672519 0.38884926 -3.578649 6.3868165
59 1.6357459 3.048004 -2.9000874 -2.983545 -0.22568443 2.4482114 1.4721426 -3.776618 5.045013 3.889714 1.3581077 -1.2962083 3.3536823 0.7440397 -0.48680335 1.422744 -0.7134699 4.817224 -3.9641788 2.7254617 3.2011738 -5.463447 3.130261 -4.5160527 1.0815396 4.5735087 2.3044512 -1.5312216 5.488534 -6.2653036 5.434736 -1.4764044 3.2239892 1.2709869 3.9435158 2.9963214 1.826176 -3.4231455 7.619894 0.7484761 -1.1287254 5.336463 3.0325472 2.739475 -1.0861284 2.293316 -0.114675656 -4.0365357 -1.0056809 -0.958762 -1.9875258 -0.75931334 3.267229 -6.277536 1.5560395 -5.2792144 -1.5817544 -0.21194687 4.902521 5.326901 0.4515034 -2.3227727 2.3194976 2.8965771
310 -4.1884823 -1.4806459 2.7672212 -7.0314655 -2.908528 0.35367402 1.3072474 0.1281302 -6.0263205 -0.17118058 -1.9117973 0.47669908 5.2596054 0.94332916 2.6216722 -2.2422318 3.2124794 1.0931455 -2.4511113 6.4261584 -1.4297566 -0.48322338 -0.87610763 0.20879091 3.824006 0.36279643 4.520488 -2.4268591 -1.1620007 -6.1402774 -0.85654026 0.84729874 -2.1486714 0.9301882 1.4471625 3.4229507 -0.90786886 -3.6071415 2.9826977 0.34613326 -0.3344163 2.3516915 3.746067 -5.02624 0.5650794 5.087768 -1.000668 -3.8502185 4.233436 -1.634886 -3.0289936 -2.1962476 -0.42370695 3.049611 -1.9094696 0.65716684 4.4713273 -3.6590874 -2.2389839 4.4620004 5.757759 -7.993915 -3.1053562 -3.9398077
196 2.757348 -2.3750496 -2.2135513 -4.57028 -1.003646 -2.0326064 3.2249978 1.593799 3.0498278 -0.13209532 -3.0765374 -0.52250147 -1.8107709 -2.2755208 1.9487948 -2.3615923 -0.3896256 2.8186114 4.4112897 -4.3988976 -0.36055535 8.384235 5.387256 -1.7681141 -3.604006 -1.8031789 4.9665384 -4.553154 1.3366811 -1.8599166 4.859951 -0.2845314 -1.9319991 -3.6051466 0.7676475 5.398568 1.4703313 1.783384 -0.10579969 -6.154356 -1.9740232 0.28981632 5.374042 1.8773701 -0.10307503 0.2692924 0.98292834 -3.4797158 -0.22541751 1.7141361 0.24205159 -0.43363997 0.6734028 -4.555245 -3.7191916 -1.565627 -5.340498 -0.19117898 2.2097447 3.779316 -1.32785 1.5331213 2.9364862 -2.5567613
9 -3.8006878 -3.8907285 -1.1348523 -2.1751032 -1.5541366 -0.49065006 -1.4929798 -4.3086305 -0.6164361 3.9126565 0.40984243 -3.6835291 4.246407 -1.1079634 -3.1707706 -0.40268272 2.8340657 -7.232235 -2.742355 -1.3834318 -8.922935 3.0136752 -2.4028895 2.0576894 1.434019 0.6546824 2.419033 -3.5008209 -0.8092045 2.4726727 -3.860595 3.0298514 -3.5958073 -1.1474487 2.8220856 0.65616184 4.6742597 -0.54027534 7.6107965 6.2494774 0.9150014 1.2848122 -0.46426216 4.1060514 0.21935026 0.7251101 -4.5837626 -3.3932216 2.2379081 1.5503501 1.7168986 6.955849 -1.2367932 -0.099717796 -3.608086 1.1177891 1.5422897 1.9220349 3.4339757 -2.804501 2.816385 2.5270305 -6.552481 5.6322927
13 2.254085 -3.2384028 3.9926078 -2.848305 -0.53405774 -0.5091516 0.8317203 -4.5352983 -2.3577492 -5.3110037 -4.104129 -2.6969995 -6.3093734 -0.050088428 0.088514924 0.74776995 -1.7939063 10.744878 3.8536284 2.3829176 -0.52411264 -0.86309767 2.5878425 0.60178447 -2.3534832 1.690001 -0.26379257 1.6173702 -1.2595453 -0.50318074 -0.6944282 -5.205389 2.9250908 1.367097 1.1978697 1.1492963 7.0775003 -4.608284 3.8843536 -3.650642 -6.7567 1.5315821 -0.8484971 6.0409193 1.9773926 -3.125807 3.9152918 -2.944099 -2.6009064 0.24020234 6.326757 1.490326 2.112007 4.1843796 0.035248347 3.900597 -0.37481168 -3.4206133 -0.09792184 -1.9167887 6.1824355 -1.5562596 -1.5410544 -1.0665454
294 -1.8114338 0.5755265 -0.9925283 3.3388312 0.906967 -1.0690414 -1.861147 -6.5022907 -2.870645 0.4569458 -1.7780662 -6.716617 3.1669607 -1.4088136 4.8911805 -1.5439892 -1.4974463 4.165899 -2.835306 2.220848 0.40743887 -2.3936465 -2.548943 -0.51553375 -2.1790295 -3.4386148 -6.332037 5.7910986 1.1465973 -4.9777884 3.6705394 1.1803312 4.885412 -5.7660694 -0.94734347 -0.43759346 -2.2168627 -2.906327 0.80700225 -1.4095943 5.883429 -3.5153813 0.56713265 -5.2255287 -2.155049 1.4374814 -1.0373644 0.6518912 5.927158 -0.83614796 6.6743526 3.5838068 -5.336078 2.2013216 1.6945515 -1.7710907 -4.103151 -1.852666 -2.0649433 5.492443 0.3029373 -2.4439201 -2.9678872 3.9514618
57 5.323227 1.8676404 6.7028465 -1.1920702 3.6533034 1.6935463 3.6650696 2.5092368 3.971741 -2.1477761 0.49614462 -2.1560762 4.695226 2.6257694 1.8810515 0.67778605 1.5461944 -3.9615705 -3.185897 -6.9397426 -0.21841714 0.2788004 0.24271108 2.127644 -2.390901 -2.305326 -2.3322775 -4.1163197 -3.6613727 -2.0873148 6.9614873 0.62110645 0.2475726 2.309389 -2.1150496 1.7769272 4.1104226 -0.21273208 -1.2266437 -0.3380507 0.76563936 2.3949015 -2.857546 5.962949 0.96279436 0.2115567 0.69312775 -0.11301837 -2.1328769 0.6167161 -0.372283 0.73769367 -4.482454 1.4195704 -1.9741796 1.2798432 -0.0103679625 8.486354 -7.029621 -2.045171 0.41704956 1.8393533 -0.32246172 5.612287
117 0.5306989 -1.1803323 -3.5274065 1.9129567 5.232348 8.705352 1.125405 3.639442 5.0613523 -0.677525 -7.8881865 -2.8957183 0.25639704 -0.2464998 -2.6476066 -1.2103412 -2.592677 -2.1433418 -0.72950155 -1.778639 -1.1772894 -1.3402746 -3.9069118 3.3410506 0.3065583 -1.9725991 -3.22341 -3.883536 -2.9226701 3.2335014 -4.4585905 -5.9579105 -1.5204767 0.5900577 4.3232336 -2.8307378 1.3397768 -1.1932977 -1.6838956 -3.7793567 5.0031257 -0.48432177 5.10911 -6.4712424 -5.5648565 9.38764 -1.2674996 4.7882533 3.0030997 -1.1681613 -1.855372 -3.441839 -0.8673642 -0.4651939 -2.0769215 -2.9318337 1.4965597 7.9068923 -3.2822442 -1.6449171 3.9192874 -1.4663814 -6.1139545 -0.26255265
503 7.4395475 -1.7096618 3.1267958 -1.7742659 -4.2711873 6.593188 -2.6472216 3.042462 -0.16272837 1.9741837 1.0725434 3.0571702 3.5547724 2.8894336 -0.14143667 -6.0169125 1.5728167 -1.2808561 -0.18400161 0.60758007 1.3291783 -2.9485447 1.7642207 0.27774736 -3.123781 -0.9075704 -1.4067628 1.8385192 -1.8731071 -5.3926883 9.920566 3.2128568 1.8276229 -4.809868 -2.4776683 1.092765 -3.5535574 3.8347833 -2.4244332 4.0970397 2.2227535 -0.009971358 -1.2470556 5.1034937 -6.3507757 -0.5110332 -4.919586 -4.0041943 -2.1305285 1.6485062 -3.453059 -2.9688497 -5.4198003 -1.403717 4.5604773 -0.7999645 2.1864579 4.6891932 -4.115114 3.8872707 2.513117 -2.1723876 1.3459886 -0.60123086
641 0.9615427 -5.70811 -0.4485559 -3.5747538 -2.3904827 -9.437808 0.50195926 -2.1974432 -4.4492445 -1.13853 -6.2213845 -1.6124486 -5.7948594 2.905279 3.2073858 -2.5091338 7.801657 4.6450624 -0.56757957 7.665368 -2.6963863 -0.9788588 1.0339143 -3.8154147 -1.8320419 -0.020923993 -3.923994 -0.9957172 -10.409357 -2.9768326 -1.8335629 -4.0457377 -1.3444366 -1.5492872 -3.398753 4.4227514 -0.6805412 1.893782 3.0787091 0.75189036 -2.3209577 5.54861 -0.5899519 0.40520623 0.74483955 0.76833165 -0.7981755 4.638916 0.60056823 -0.8314836 -0.5067087 -2.823385 -2.194073 2.1380157 -0.9180416 2.7445264 -1.0425256 -1.5831314 -1.2585213 1.7617371 0.11784975 1.1545813 -1.768582 -3.3532565
605 -1.8805027 4.0007024 2.8542717 -2.8840904 0.3252949 -1.6986489 -0.8483369 -3.7597623 3.3592317 3.4779167 -3.1729653 3.012196 -0.4619015 3.5847232 0.23506387 0.55048174 2.1493723 -0.0807068 -4.654137 0.147042 0.5863359 -1.1401141 -1.6421809 -5.036111 -4.6292915 1.5063769 -1.5510478 -3.9491181 -2.7655737 3.0645516 -5.9452043 -0.09315054 0.7759179 -2.1857033 -0.75673515 -3.5221398 -5.9656596 4.164424 -1.9804426 4.696269 0.7481297 -4.734171 2.1167195 0.43371317 -2.179528 0.31591624 -2.138436 -4.8342233 -0.79551476 -6.302422 4.5447197 0.53186125 2.3755307 -3.5351837 -1.5376961 2.9136682 4.72274 3.6768084 1.9821792 7.224649 -2.7042189 1.30289 0.5888995 1.1399754
326 0.7046498 -3.3466005 -1.757832 -3.7972348 0.26960182 5.313248 0.191334 5.380809 0.8677158 4.375243 -1.7085075 -1.8634675 -1.3129628 0.4749034 -1.1443323 -1.357792 1.3597127 2.431236 1.6320598 -4.249606 10.529407 -2.0492718 -2.526538 1.7711797 -1.8258502 1.5765713 -4.8699036 2.232283 2.0539455 -4.842523 -4.437101 6.461457 -0.9039269 3.4716184 -0.27803263 -4.758619 2.3965147 0.4379294 -2.043005 7.6442776 3.6774175 1.8144652 1.7704272 -4.3025403 1.7124822 -2.0791147 -0.31737816 -0.9237218 -0.60361016 0.42831683 1.7752779 3.120972 1.242146 -0.36681 -3.552483 0.7545652 -2.6009994 2.00718 -6.4999523 -3.0627177 0.89443994 1.7006623 -4.0474734 -2.9411407
188 10.687997 -4.8819613 1.406173 -2.8702424 2.44678 7.594805 -1.5456727 -1.1933709 6.543934 4.519768 -1.8996378 2.331277 -3.23033 3.7730138 0.9217514 -1.7993486 2.2299192 0.20050901 -2.5771232 -0.48957443 2.49808 -0.13596812 -2.1246445 -7.677067 1.4966835 0.41721326 6.11219 3.6517391 6.7325234 2.2691557 -0.55481637 3.3301601 -4.884379 -3.686198 5.3008175 -0.52048147 -0.8060789 1.498966 -3.4124904 0.4484376 -0.6339217 0.95289075 -5.15086 1.2798835 4.0855002 1.9462826 -0.5156835 1.3564552 -0.028145323 -0.14782152 1.4648958 2.4688113 -2.2270331 -0.46516934 3.8159616 0.3796721 -1.9510005 -0.12492155 -0.17317328 5.6558547 -0.7407828 1.1264272 0.48790798 -4.0437617
523 2.8024187 -1.3941429 0.77774966 -2.6066031 -4.0989423 1.0698254 3.1873767 -0.63436645 3.221023 3.1977007 -1.4777372 4.1949487 0.9849369 -1.3939157 2.883324 2.743997 -4.05299 -5.398651 2.2016602 -2.9450343 -4.027595 -0.26745775 0.9697551 -2.06737 -7.0062776 -1.2841454 -0.917679 2.9900944 0.30446145 1.0397867 0.20753135 -0.51319146 -1.3026597 -3.0486374 2.938037 4.160155 2.2999303 -1.4006834 -1.180556 0.54729164 5.892699 -1.3802582 2.8183923 -0.13216944 -4.741259 -0.29509982 1.8406699 -3.0847714 5.994241 -2.1719332 0.34006333 -4.2597294 1.8090805 1.0722958 1.6102246 -7.116282 0.43198833 -5.0745 -5.4680934 5.277895 0.59445536 6.9250946 3.5755546 0.9164694
426 -4.2604795 1.2144678 -2.8519788 -4.689549 0.5992153 -1.6145921 7.1632705 3.7088897 -0.14156777 -2.0981133 0.62411296 1.0838157 -6.547067 1.2896832 0.033815 -1.4428446 -3.3840556 -1.5119051 -0.64354557 0.30360174 0.1405818 -1.5701773 7.0758495 -1.5356293 -2.6385033 0.8935831 1.7610347 -3.3907351 1.817346 -0.19302249 -3.000237 2.0007002 8.469502 -1.8704376 -0.2417035 5.6823425 2.2430897 -0.58462214 -0.73123354 -4.4614515 -4.0887733 -1.8698974 1.4838195 1.9929341 0.15046833 1.4458989 0.16459347 1.7877774 3.678917 -2.0017374 0.18546009 1.5977575 -3.2565045 -4.2771177 -2.131488 -2.6562803 0.70013255 1.8940741 6.327983 -8.460197 -8.101047 -0.46865577 5.612089 -1.42751
531 5.159349 -1.852883 -1.9646888 0.13264677 4.3322167 -1.4405625 0.087115414 -2.8697 -4.965785 -4.5060887 -6.5088143 5.5738893 -1.3650826 5.356244 -4.1125574 -6.965439 5.6230254 5.0847445 -1.750275 4.9977365 -4.4370236 -2.220039 0.69436413 -0.22928634 1.5470538 -3.0401664 0.6015211 -2.4561396 4.087739 3.912742 -2.8189237 -3.4268541 7.1198215 -1.0157963 -0.7083083 -3.437304 -3.217472 1.0772973 -3.958723 -0.40897828 4.4889913 4.2397084 4.396397 -4.0556574 1.8871 2.6781778 -0.2882439 -0.8705006 1.2149521 -3.8263931 0.31593665 0.4610349 -2.4483504 1.1363136 -1.8586146 -0.14279898 -1.3739383 -2.6185477 -0.6251226 0.6301244 -1.1205446 2.8556728 -1.8974808 1.9815133
482 8.925787 3.737504 -0.052433457 -1.3310313 2.5417116 -2.7701616 1.3211392 4.585119 -1.1667019 -1.6425378 -0.8776676 2.7959952 0.3384576 2.4521875 -2.518963 -2.2737494 6.7723746 5.7967434 -1.0137895 -2.2099864 -1.0437413 7.09377 -0.2996231 2.8916461 -1.3500985 -3.172096 -0.07012847 -5.477641 -2.0230715 -0.65347683 -2.4417686 3.75104 -1.319865 3.1338308 -7.2603016 3.5092745 -0.06882527 -5.736077 1.3472619 -1.7671452 -4.9911184 0.63068426 -1.8804147 0.2832725 0.27891332 -0.8226105 -6.657823 1.5539652 -1.8325261 2.7863634 0.36830512 -7.1434517 3.271726 -6.4730964 1.7292463 6.454808 3.2288554 -4.195125 2.2078457 0.078866914 -4.6486297 3.8939776 2.307548 5.188999
134 -3.5968478 7.286247 2.7762733 -0.23824762 0.73868114 -5.220012 4.2559285 3.2361891 3.42889 -4.6111712 4.0267935 2.1505213 -5.974502 -3.1601126 -0.111793675 1.3910879 1.7571952 -4.170365 2.8615017 -1.8024507 -3.136715 -3.7493541 -1.3451473 2.9836392 2.270113 2.33883 0.40385 -0.6443755 -1.2397815 -3.006383 -0.5586499 -1.329007 -2.4400854 -8.588812 2.553602 -1.1940391 3.4786928 -3.4131348 -2.2994647 -4.0639873 -4.655116 1.0717676 1.4785333 2.0505142 -0.8266685 1.6043066 -1.7751385 2.3111057 -3.4431655 2.8558247 -2.376109 3.374532 -5.449277 -1.0545169 -6.762188 0.29896507 -6.6359577 -0.35340422 -7.2393417 -0.65445346 -0.70894474 1.1005948 5.426959 0.18338549
190 3.892925 3.683111 -2.0775993 5.2959266 2.1196575 -1.6747909 5.781418 -0.973739 -0.6436826 -4.7693896 0.03687854 1.3485379 -4.1478286 -0.39333886 -1.2600256 -0.5712556 1.7024585 -1.2371486 2.6965215 -1.9224399 0.50381434 2.7938569 -1.2696549 -5.967493 -0.6268214 -2.5485034 5.865202 -2.2620697 2.137245 5.0026293 -3.5354629 -0.30651158 -2.2145905 -1.0345106 -0.85850304 -2.2396069 2.022604 -3.418783 2.7228777 0.6987677 -1.3700899 -3.4217536 2.970732 -2.0559287 4.4514823 -0.1347607 0.3514623 -1.3416154 -2.0461702 0.272039 -3.01806 0.67249197 -3.1032763 -2.6901202 0.46779865 -6.4472775 -2.9448512 -0.13555436 5.4591846 -0.7560366 -9.429257 -0.7363347 3.8936636 6.2066126
110 -4.401011 2.7604952 -1.3071243 1.3557887 3.6679983 2.8176231 -0.4448446 -1.037403 6.641237 -0.09428216 -1.5804985 -3.8087423 -1.5534499 -0.18186973 -0.91073346 -4.530641 -5.101084 -6.377916 -1.2005689 3.964296 -3.416838 0.44610077 0.17227079 -2.4794207 1.9627538 0.8898022 -3.4495525 3.0905735 -1.9486904 1.2643155 0.53667545 -1.8832136 1.8088646 3.6048272 -3.8472567 -4.431815 -6.649348 -4.8619328 -4.008487 -4.042584 -1.6444439 1.7580427 4.6331153 2.6979182 3.1632535 0.5052934 -4.012033 -4.6031666 -4.5992155 4.2304516 3.0360363 4.073408 0.23068918 -3.8836465 3.9929492 -3.2564178 3.4478989 0.6210681 -1.0851444 -7.319571 3.329383 -2.1963923 -4.853789 1.3227988
650 1.0316534 1.2209438 -2.811892 -1.7278432 2.5526285 -2.070331 -0.047236823 5.258508 4.3236017 -3.0620368 -1.0764974 0.1397981 -3.8297303 -1.6992571 2.6139896 -0.48879144 1.593948 -5.3087945 1.0843431 -3.2988486 2.8749 -1.3230602 6.0866365 2.6339319 0.7513328 2.9582186 3.6666043 -8.69675 -5.3889728 2.4477186 -0.27973023 -0.7256828 2.4531648 -8.639654 0.36455837 -0.07828487 -0.4215284 -0.7088312 2.936209 0.5262508 2.7252047 0.7501117 -0.71600354 3.3146272 -1.0804754 3.0761542 0.10778791 -2.5467262 0.9269128 -0.10479168 -0.8546331 0.43718585 -1.4377767 1.7778039 -1.8860408 2.950229 5.413083 -3.2579923 -3.1910214 -4.778695 -8.430343 5.156638 3.958724 2.4674575
338 3.6710417 -7.787768 3.365733 -2.9850926 -4.555899 -0.18718879 1.0196624 0.40753612 -7.331919 0.95499885 -2.4642506 1.2544621 2.4403892 4.452931 0.7407792 -1.8626156 -1.6289597 6.1204495 -1.2828315 1.5308166 0.38281208 0.46606126 -6.772253 -1.8230724 5.7135296 -3.5636957 1.6655265 -1.0379188 2.9748912 -2.8418047 -10.646874 2.8905644 3.2031043 -3.678643 1.2532052 2.142901 -1.9544123 2.4280221 -1.6224732 4.353587 4.6113796 1.3843952 -2.8623388 -0.6070552 0.9086858 -3.076591 -2.3737729 -0.4151218 8.773256 -1.4755353 -3.588521 -1.8174798 -0.20092742 2.1856472 -0.66115475 -3.0874481 2.2260056 1.1357673 1.3467994 6.161795 -0.17322488 -0.6644205 5.3103356 0.018595265
82 -1.5770074 -4.3997583 0.59525734 -6.566569 2.3069894 -7.130534 1.0765843 -6.3273897 1.667441 -4.8079886 0.16291565 1.6194172 1.0131563 2.3178327 1.0545889 0.59786284 3.680031 1.9751989 4.339407 2.2020686 2.0988364 5.1474876 -0.18141846 -1.3850424 -2.9539995 0.49320704 2.182209 1.7111533 -3.6311908 -1.7312771 -0.11301328 -4.16223 2.74503 -4.1834154 -0.0018099141 -1.1061494 2.8913727 -0.35283974 -2.299955 4.8650913 -2.5525777 2.8637493 3.527995 -0.47398448 1.442686 4.130163 1.9563962 -0.46875635 -7.2339644 1.8420782 3.070318 -2.0670757 -5.4376154 -3.614581 3.9569688 -5.939058 1.3193362 1.3923682 2.0188766 -0.2527501 1.4393739 -5.0406785 -1.7639723 -4.304391
795 -3.8158605 0.44361144 1.4826151 0.2196483 7.346671 3.498589 4.2758465 -1.5941982 1.5213919 -3.2185135 2.9701645 -3.3942409 -1.6917533 4.027104 1.662921 -0.75289756 -5.981754 0.27763242 1.7763546 4.09093 -4.4502206 -2.2202437 -6.6238003 5.634434 2.9090343 -0.8458223 0.3139354 0.23627669 0.4744695 -5.0529027 4.736471 -2.988544 8.065484 -2.3560543 -3.3614497 0.81712025 -5.1950736 0.01913585 1.6355578 1.552928 -1.5725522 -2.8839173 1.0164996 1.0679708 -2.9097085 -0.40208846 1.035386 -3.398412 -2.1704907 -0.922322 -0.8141602 -3.8976421 -8.184924 3.5768626 -1.911335 -5.784609 -4.5642443 -1.5875648 -0.9884269 1.0781608 2.1958728 -0.5966743 -2.5962303 -0.6013546
750 -1.1805564 -0.0022647465 -0.7743145 3.3162096 -4.199014 -4.904939 0.10962529 -1.3007432 2.835611 0.011309878 2.4311087 2.0374897 0.0005981653 0.26875445 8.173388 -3.6732702 1.4130602 4.3843713 -3.3498974 2.923841 0.87183887 5.211637 -1.521601 -2.2757914 3.0605836 0.7714743 -6.1063967 5.3754587 -2.3994539 -3.156591 -5.372245 -0.85459083 -2.5467155 0.062382273 4.3817196 -4.5428495 -0.49006492 0.9958638 -5.728117 3.6871588 -4.3700786 5.7987914 -2.2949743 -4.755136 -3.3362112 2.2009137 1.905893 -3.6809742 7.365341 -4.948551 3.2045 -0.38291305 -0.7693759 0.49956694 -0.0994595 5.7695804 -0.6662011 -3.2781615 -2.2128923 2.0339875 0.087334275 -0.8418215 2.385746 -0.37069458
200 -1.038793 -4.2008963 2.1879075 1.0335102 -2.0464838 3.3038976 -0.5795669 2.9873936 -0.31517008 -2.7784426 0.08652942 0.063406 3.5976841 -1.5878309 2.6699095 1.9226778 -2.4342585 4.0489974 0.868892 -5.535899 4.100095 2.4118042 4.8575473 1.6320771 0.32434794 4.4753985 1.8489825 1.0664597 -1.1214017 4.439285 -0.32151452 -3.1983654 1.935084 -0.29623756 -1.0470189 -6.4882984 1.5737983 -1.7851263 -0.9020268 9.654834 3.015785 1.12498 -4.1724844 -0.659509 -5.9744997 2.5394073 -2.4563508 4.257735 0.4992677 -0.87905985 0.41771364 1.1383382 5.281505 -1.03372 1.5358229 -4.932062 0.50040627 -2.2638152 -4.4045606 -4.536963 2.214166 -0.35503438 -2.4827502 1.8767595
803 5.695531 0.51254207 1.1008188 3.227734 -3.883347 0.6490785 -3.3189588 0.11927915 1.7584164 2.282839 3.9488478 -0.7666002 0.3993416 4.352862 3.6730864 3.618778 1.5356055 4.625465 -0.19880646 3.2117758 5.4171658 -6.746047 -1.265486 -2.6138973 2.2432444 -3.9210052 -3.4643352 2.900096 4.650518 -1.0348712 0.15736938 -2.3572056 1.5003122 -1.5531943 -0.6343628 4.1904607 6.8266068 -0.009344035 -1.1879619 -0.2595154 -3.603462 -4.608717 7.450458 3.0769055 -0.7106217 -0.18144491 -0.78655726 -2.6844838 2.6714745 -2.0670125 -5.2083583 0.8566655 -0.28457943 11.421963 -2.964838 1.8337286 1.952083 -4.4283504 -0.82238674 1.9462578 -2.3403506 4.657963 0.44048417 -2.9476075
715 5.9175587 -0.41249683 -2.18163 -2.3593264 -3.1539786 -2.8667815 -2.398743 -2.881052 -3.7440457 4.088599 -1.964021 -4.638507 5.125187 -2.1753654 1.4431257 -4.9132733 -0.2136044 -0.4415862 -3.8369606 -1.3065867 -4.142084 2.2337654 1.6707296 -2.9499993 -3.0193713 -3.5390763 -1.6198493 -1.5723773 -2.5192487 0.7268525 -0.0031396116 -2.6604483 -0.9353011 3.539368 -0.47637123 -8.12634 0.55681497 -2.3839815 -1.1620771 5.155354 -3.121167 -2.6390882 -0.18880798 0.8358715 0.7092415 -2.0283585 -6.283557 0.8517288 0.5562086 -5.2128196 1.3337435 -1.0520514 -6.275261 3.8975065 -1.7993202 -3.390021 3.1578841 -0.86863923 -0.46353358 3.3595371 1.9495071 -3.7555344 4.8378606 -0.6060069
479 6.0419984 5.60489 1.9050217 -2.6011465 -1.4164888 0.9825917 -0.10393445 -2.5167775 2.4570582 -6.5632505 1.2479419 -2.7552283 -5.9616165 5.469515 1.2374109 1.8914864 3.1189055 1.8165447 1.4437308 -5.9657893 -1.072818 1.6518573 -3.5772703 4.125274 -1.108929 1.8945343 -2.3944657 -2.5117235 3.6574378 0.08766225 1.4889789 -1.6540314 1.1757432 -2.2430265 -3.118311 3.772934 5.154567 -1.6991352 -0.97512645 5.767891 -2.0087624 -4.240078 -0.86551857 0.59059227 0.008266662 10.195694 0.45649123 -1.4142218 0.10236901 -2.0024981 1.7708191 0.98419017 2.0162652 0.099953085 -3.0401244 1.0925945 2.4098315 -2.7465823 3.8281722 0.18988797 -7.0244904 -1.8570384 1.017409 5.087383
212 -1.8075498 -0.3303711 5.720312 -3.1282332 1.2788285 -5.750225 -0.24702099 -5.22918 1.322831 3.5932026 -0.68026304 3.6012824 1.8442584 3.1759717 0.57432353 -2.520051 -0.7157095 1.8782368 -3.92122 -3.3663373 -5.7068777 3.9059424 -2.7287621 -4.512619 1.938522 1.9159571 0.29413855 -5.9470663 -1.2227273 -2.546087 2.1309526 -3.4191482 0.8781979 -1.98151 -2.2465317 5.551538 3.478888 -1.8504587 4.395011 5.590455 4.0970783 -0.09832231 -1.7166178 -4.4773703 1.8517125 -2.4946454 4.662694 -0.8975621 -2.271462 -1.9805267 1.8854421 0.39363286 4.037415 -0.44673324 -1.4023998 4.249742 2.800228 2.698862 6.624448 -3.5950222 3.282127 2.1863425 2.9251359 -0.7081181
179 7.052209 -1.3630075 -0.7681456 -2.667223 4.1386924 3.682441 -0.8879344 0.2101594 1.3631455 -2.5402083 2.4461677 -1.4645098 1.5542084 0.63479894 1.3140944 1.8119096 1.9288459 -1.139359 4.893321 -3.2093928 -0.15893579 4.0324993 3.7679782 5.5821867 -5.5208607 1.6682477 2.0587459 2.099525 -1.4673288 -1.7244903 5.400804 2.5950055 0.95192647 -6.096229 0.55164635 -3.1259403 -0.3377339 -3.072131 2.5939488 -0.34962285 -0.5852895 -4.535609 1.5971795 -2.75638 2.1206734 1.2229034 2.002658 -1.0824108 -3.279235 -0.334901 3.630712 -2.8081524 7.912383 -3.114349 2.4219558 6.9826956 -3.2449806 3.178458 0.83886564 -6.1262975 0.19830546 7.96167 4.1363463 1.025714
27 -1.5661947 1.4480296 -0.62796384 0.21197467 -2.2578616 -2.8596072 0.13112004 0.043266863 4.3937497 -3.282247 5.333929 -3.3763742 4.296589 1.2960489 -0.88123405 2.4067562 4.344615 -7.111726 -3.9588203 -2.2374926 -1.2617348 2.6845243 1.5894027 0.41467628 -4.689089 -0.38383007 7.090105 -2.810655 -2.8883696 -4.528871 4.148285 2.6265821 -0.88031423 3.5786986 -1.594051 4.381889 3.2516732 0.3831735 0.64912426 2.2941353 -4.354041 2.815849 1.2147014 2.9162276 2.681936 -1.5535004 5.755313 2.9628496 0.18897134 -1.7071918 -4.9475975 0.08488726 -4.2245784 -0.9318854 4.8034406 -1.6029077 2.2484782 0.64179754 2.1663275 1.7711921 -0.1349801 5.1134315 -2.6519182 1.5982032
183 3.8738735 -6.4273767 -4.619024 4.9529533 -1.148143 -1.6148261 1.6414573 3.537656 -3.786445 2.7082927 2.6331189 -1.0515035 -3.2612858 -1.7120763 -0.02930764 3.379866 -1.8638126 4.688045 0.9978894 -2.1857398 -1.0912834 0.29733402 1.3192829 -6.828397 0.4815808 -1.5042672 1.4890802 -1.5044711 2.608629 -1.9266896 -2.4872992 -4.502116 -4.6968236 -6.950051 -4.2629013 -7.270702 0.21209705 -4.0551033 3.690238 1.3397133 -0.46828166 -0.093799025 -1.3467294 -1.2822691 -1.7248504 0.4261968 0.15233235 -3.5507336 7.7503576 0.32741526 -1.3025492 4.7751493 4.9735756 -1.0257607 3.8428648 -3.0969522 3.5199075 -0.3839074 0.8564774 1.3864832 -0.9757835 -3.8774862 3.0747962 4.808676
8 3.2236738 -2.8429644 1.3483751 5.897656 -2.0778146 -1.8008125 1.8454908 -0.062958136 -4.001565 -2.37496 2.1035182 -3.7496657 0.799301 0.22756542 -6.2779975 -1.9146602 0.8470508 0.21299012 -3.4130044 -1.624535 -1.5334269 3.5555398 -2.1366215 6.0125504 -5.513083 2.9134896 -1.5422609 -4.0472064 -0.043340787 3.95213 -2.15972 -2.0671651 2.0909588 1.8965195 0.5376966 4.1509004 3.520103 5.9821086 2.1302168 -0.8684563 -3.9239104 -0.23792699 -1.8249578 -2.9612734 1.3795638 0.45466176 0.14683038 4.044332 4.1505246 -0.53783745 2.7117648 -0.124902524 -4.2983785 -10.529356 7.140663 0.55571353 -2.186284 1.3345081 1.4082066 -0.73594755 3.0645134 0.45250383 -1.2706002 -0.38002273
