2625 50
278 0.120914735 -0.024365952 -0.015706481 0.2522066 0.027313933 0.04603387 0.40913367 0.6278712 0.073920324 0.11836456 0.51180315 -0.51574665 0.049182575 -0.40842354 -0.0974712 -0.32682657 0.70913905 0.27275005 -0.3012704 0.872304 -0.10066162 -0.22585355 0.023446444 -0.43112814 -0.18301506 0.0020954288 -0.013881923 0.0962346 0.08413013 -0.5476527 -0.30661798 -0.5196586 -0.14147976 -0.3766932 -0.2943385 0.14278588 -0.6128971 -0.3367253 -0.24032182 0.37247357 0.24628663 -0.46515173 0.15341355 1.0061848 -0.61427563 -0.11885408 -0.862856 0.60317576 0.19154547 0.07529371
992 -0.067350626 -0.14804614 -0.05148914 -0.0010629599 -0.22756721 -0.0713613 0.004327857 -0.26163846 0.1689781 -0.19529602 0.18369006 -0.26002988 -0.0015606354 -0.063224845 -0.13178904 -0.1404616 0.114503376 -0.031326264 0.0840357 0.040079854 -0.1753399 0.16053651 0.10954704 -0.393984 0.06200461 -0.32921135 -0.07345587 0.10447349 0.10955802 -0.24982385 -0.29136136 0.120392285 -0.20727782 0.11322581 -0.5256219 -0.01534188 -0.22501838 -0.1945321 -0.05496006 0.14755762 0.10299059 0.40095875 0.049068578 -0.20720899 0.07343886 -0.108313404 0.3073996 0.2610099 0.28568324 0.13490869
449 -0.023441138 0.0576988 -0.43690962 0.5032105 0.1833027 0.2579932 -0.22915296 -0.20889954 0.32839873 0.24248265 0.4428198 -0.48626652 -0.26987112 -0.078289 -0.1543006 0.23400858 -0.21350479 -0.26928705 0.44825894 -0.055271115 -0.114324674 0.17296246 0.12705325 0.1252292 -0.22317606 -0.10176663 0.5871356 0.09844911 0.26557222 -0.061915573 -0.17318597 -0.15442652 0.14073835 -0.102278635 -0.034355532 0.31026652 0.061959922 0.026402446 0.5884337 0.0979948 -0.26621366 0.14087696 0.021115812 0.71140075 0.059395585 -0.16131897 -0.16724029 -0.021584272 0.3212862 0.4216733
1042 0.33108422 -0.34436792 0.2126685 0.045001898 -0.50877625 0.028314276 0.19501533 -0.38247028 0.093801215 -0.051132344 -0.027188707 -0.24866556 0.18068193 -0.07714778 0.14400734 -0.2934219 -0.12298358 0.33927423 0.112212025 -0.066365205 -0.09517992 0.35420418 -0.11688289 0.026059302 0.18272628 -0.16414115 0.024112703 0.043130323 -0.35240564 -0.07788308 -0.100714974 0.015438576 -0.25158203 0.4047345 -0.36502522 -0.026877858 -0.057079546 -0.40490395 0.04940223 0.12538223 -0.05503888 0.14339314 -0.04313375 -0.041298173 -0.1226536 -0.0269166 0.16718355 0.48345405 -0.08920989 0.10873178
1200 0.009727753 -0.102966495 0.043746028 -0.009307699 -0.25957644 -0.23512113 -0.47904775 0.1386568 -0.08928512 0.21472569 0.30313045 0.14601107 0.20659629 0.030767499 -0.34818843 0.053173225 -0.30071694 0.0037589627 0.1919508 -0.20570907 -0.36788267 0.347986 0.51078093 -0.2138355 0.0936828 -0.5421883 -0.48725057 0.091526456 -0.02491316 -0.31592456 -0.21684185 0.38350144 -0.21241848 0.088612795 -0.5638616 -0.3027227 -0.43343392 -0.29407525 0.015098261 0.08251422 -0.2393945 0.06221481 -0.15804249 0.018268062 -0.06810876 -0.1570471 0.1315648 0.3851316 -0.4060587 0.12752792
1069 -0.051442467 -0.37312606 -0.156064 0.1020716 -0.2481938 -0.06043047 -0.05291179 -0.3253689 -0.0072338963 0.06202987 0.035039533 -0.2723147 0.104390964 0.007639025 0.2024799 -0.13379285 -0.27542332 -0.06648598 0.13333623 -0.08046914 -0.3522049 -0.17825381 -0.38571793 -0.18279561 0.12752533 -0.11847336 -0.1265374 -0.11174033 -0.25785267 -0.03953871 0.005761261 -0.35941014 -0.35278872 0.38705602 -0.5392541 -0.1243762 -0.23874499 -0.5013701 0.10435762 0.24379587 -0.015049458 0.27773637 -0.20677935 0.03203673 -0.23242387 -0.13686785 0.18641539 0.4746635 -0.043344546 0.20228991
415 -0.027685536 -0.5465143 0.013181898 -0.17736287 0.093358465 0.1264566 0.1998468 -0.16164386 0.0014849899 -0.6449065 0.29176897 -0.3453683 0.03898823 -0.22159165 -0.16518506 0.32468888 0.042081155 -0.13975827 0.35375938 0.3460408 0.1984155 -0.26407614 0.0757323 -0.29545808 0.3011429 -0.08207381 -0.04400417 -0.34364423 -0.029951995 -0.05365216 0.06718763 0.2047956 0.32220507 -0.121196195 -0.026984964 0.2557078 -0.29476807 -0.075074315 0.3932266 0.077640265 -0.5409473 -0.023180546 -0.17139567 0.9290802 -0.07831262 -0.46641874 0.34132096 -0.23967628 0.0011319988 0.14094235
1228 -0.06365797 -0.7414471 -0.016863937 0.20047693 -0.1798726 0.07500919 -0.3971163 0.067734286 0.14244832 0.4343631 -0.20501082 -0.38220757 -0.10986377 -0.24705419 0.35235593 0.26304883 0.15337329 0.13791147 -0.01511349 -0.24618672 -0.28816983 -0.030382812 0.33626935 0.15625368 0.55621785 -0.53170675 0.026906168 -0.13697919 0.060523145 -0.17295103 0.10364558 0.11567456 -0.118440896 0.3825661 -0.16414027 0.48877147 -0.09582594 -0.42544258 -0.33296868 -0.1703239 -0.195817 0.6523938 -0.10575245 -0.17391682 -0.5436226 -0.021865794 0.24601239 0.028472573 -0.27304453 0.17506965
1123 0.01327159 -0.003735228 -0.09862473 -0.004799474 -0.30264074 0.07528665 -0.24541295 -0.37430203 0.23358686 -0.1834551 0.29577532 -0.1844389 0.09391865 -0.1585794 -0.17471333 0.19838063 0.0154676 -0.009221467 0.031227343 0.16372995 -0.31745255 0.25050902 0.07743966 -0.4487234 -0.0011761419 -0.40118548 0.118307434 0.31428382 0.1238605 -0.09514717 -0.27778885 0.17287453 -0.1379558 0.2267894 -0.5843645 -0.16982432 -0.11791249 -0.22935532 -0.16159235 0.12512894 0.1798711 0.33505526 0.08439776 -0.077258 -0.045817357 -0.1465957 0.37839702 0.44581595 0.39130047 0.06660377
129 -0.37753597 -0.7825582 0.022301676 0.29849067 0.22092986 0.13679716 -0.043117322 0.16823456 0.2326433 -0.09046268 0.3406053 -0.3809801 0.27211612 -0.29908156 0.09880135 0.20710222 0.17487687 0.14566997 -0.26016605 -0.22299546 0.058583096 -0.19402719 -0.103358686 -0.30802298 0.14662202 0.40401888 -0.07235184 0.2919766 0.4804744 -0.08068342 0.20189327 0.42548582 0.10880462 -0.00019760715 -0.18110359 0.008798764 -0.58341354 -0.53026783 0.09253722 -0.0124372635 -0.2506826 -0.7429936 -0.6530541 0.48333585 0.43676698 0.05006085 0.14923733 -0.2776199 -0.20532311 0.3623696
12 -0.47182903 0.102376506 0.30685183 -0.09444569 -0.27783468 0.20608352 -0.16470349 0.03647444 0.1803914 0.078863084 -0.22070199 -0.3375437 0.5865715 -0.019444501 0.11712484 -0.034542795 0.25462914 0.10670916 0.4532805 0.064994045 -0.40842712 0.5138003 0.49686697 0.18872346 0.0036575901 0.2371647 0.18877205 0.17244463 -0.3540282 -0.2371089 -0.30871186 -0.6382203 -0.110928275 -0.21025777 0.31311476 0.36975986 -0.68078417 -0.31222796 0.68946415 -0.5708553 0.014729344 -0.5261537 0.13700338 0.43221948 -0.09735755 0.03329698 0.30020216 0.59862363 0.35284516 -0.06285471
1255 -0.1769364 -0.44183153 -0.27150416 0.07130064 -0.30762836 0.2042523 -0.22439755 0.3133903 0.029004628 0.11374544 -0.439086 -0.29077676 0.08208135 -0.31588158 -0.11490684 -0.03857327 -0.3013201 0.0148564605 0.46887007 0.24956621 -0.6234976 0.109569944 0.476551 -0.41999266 0.024931166 -0.4078469 -0.16804004 0.09848231 0.14382024 0.16402863 0.34841055 0.010363555 0.5447741 0.1661374 -0.17983834 -0.28630316 -0.22892633 -0.46710077 -0.11185394 -0.08509112 -0.4941576 0.09019336 -0.10381551 -0.2810644 -0.027010819 -0.08012556 -0.08216804 0.24377586 -0.17695455 0.27577686
6 -0.09056349 -0.49635443 0.2091113 0.100656085 -0.29614884 -0.39933798 -0.30842113 0.1777875 0.1926105 0.6854757 0.374477 -0.25919622 0.32931387 0.29486048 -0.4797797 0.20962745 0.28313315 0.18647517 0.030476894 -0.03926831 0.2920294 0.32558832 -0.41562763 -0.19003297 0.6437238 0.01150739 0.23991527 0.21718886 -0.104884386 -0.10665236 -0.27908155 -0.022124657 -0.10192254 0.03548712 0.059757046 0.29330128 -0.110493004 -0.36067408 0.120534495 -0.52951634 -0.7655079 -0.08638195 0.07388533 0.37949112 -0.18005235 -0.14609921 -0.50391304 0.35479262 0.45367104 0.20946462
1040 -0.07382437 0.06237276 0.23415275 -0.10950717 -0.24765399 -0.04442306 -0.31366283 -0.044868834 0.22478984 -0.06083675 -0.033183143 -0.36174142 -0.17607844 0.22546738 -0.33921084 -0.19397977 0.02194283 -0.06634778 0.2667012 -0.14655952 -0.25825417 -0.095401116 0.011291101 -0.36543718 0.27187634 -0.00737537 -0.19536045 0.018030638 0.093530804 0.04440855 -0.0012036999 -0.30794922 -0.256417 0.033843126 -0.46395546 0.077971764 0.2424826 -0.27697924 0.009046614 0.057822853 0.23762175 0.1112259 -0.23039132 -0.032395363 0.10719519 -0.24716671 0.24996062 0.33737776 0.009302145 0.31457192
1116 -0.08048181 0.0026537627 0.06924818 0.10072763 -0.031888966 -0.305844 -0.34776974 -0.045896556 0.35792518 -0.0915713 0.06903292 -0.46135202 -0.21702716 -0.08856553 -0.22975391 -0.2212265 0.27176544 0.026988732 0.13375805 0.015704524 -0.12123645 -0.06075218 -0.029591003 -0.14182122 0.30977786 -0.2850841 -0.10298689 0.11804777 0.05712745 0.112022474 -0.20073229 -0.08743679 -0.032504708 0.20467556 -0.22704944 -0.16633248 0.095696434 -0.23509882 -0.19613463 0.0137847215 0.1617482 -0.03306533 -0.004795641 0.058245208 -0.05988908 -0.085082784 0.41019532 0.42354834 0.2891954 -0.022100737
943 0.032199915 -0.2645584 0.16522872 0.22712414 -0.17122304 -0.022612741 0.4005851 0.21408257 0.35056132 -0.088376544 -0.09193592 -0.00653211 0.057062298 -0.20962076 0.08140944 -0.46779153 -0.15509264 0.04392341 -0.09361046 0.12401909 -0.020429304 0.367642 0.0019074683 -0.5931295 0.20526753 -0.1855693 0.1925499 0.14900067 -0.015806552 -0.15102237 -0.3210762 0.3443273 0.06497281 0.4989864 -0.45950887 0.17849436 0.20404178 -0.07716579 -0.094343774 0.16610292 0.08691364 0.1487969 -0.35130274 -0.25453442 -0.113241635 -0.26566243 0.29283237 0.35080585 0.10089178 0.34362012
1230 -0.06138787 -0.28227237 -0.28444552 -0.011533311 -0.31993052 0.6806833 -0.034415238 0.06434297 0.32212937 0.3721213 -0.1274229 0.05574848 -0.23859707 -0.019917527 -0.3200326 -0.26405 -0.1444796 -0.03034367 0.09889328 0.048628215 0.004504069 0.28770983 -0.054457396 -0.61906874 -0.08178533 -0.03172925 -0.04140081 0.63123196 0.16944735 -0.10629883 0.1658989 -0.053717133 -0.14887169 0.03734694 -0.26950464 0.04126531 -0.3684584 -0.5295247 -0.415005 -0.5361087 -0.2432068 0.08776885 -0.47994426 0.1739374 -0.23782079 0.28425935 0.62311715 0.09600605 -0.48787042 0.5553765
1242 0.4212627 -0.42987227 -0.1442462 0.09717917 -0.116914615 0.17156982 -0.10662382 -0.2943544 0.17594802 0.07919821 -0.47189665 -0.31468716 -0.10847111 0.2916239 -0.114917 0.16795146 -0.1199418 0.3953312 -0.32980427 0.24082631 -0.31551385 0.23180057 0.2191646 -0.49793 0.26086098 -0.588113 0.10877942 0.68154335 -0.09980462 0.09336009 -0.1411387 0.37130195 -0.15027845 -0.13913038 -0.41595712 -0.005960539 -0.66207606 -0.18498726 0.26255846 -0.17400554 -0.546139 0.12964533 -0.5984457 -0.13285668 -0.1813262 0.19910504 -0.08929074 0.2411242 0.32770494 0.07959535
641 -0.42761043 -0.005123229 -0.09733558 0.21277578 -0.2904513 0.16407366 0.05891886 -0.07557625 -0.17932197 0.24946135 0.5959275 -0.12665656 0.4400645 -0.9203513 -0.70962995 0.24246404 0.57056445 -0.06727807 0.057070695 0.7341556 0.03977983 0.36772555 0.46478024 0.2108043 -0.06410503 0.043813728 0.13033128 0.9061398 0.5133589 0.28013355 0.59563637 0.100633696 0.018094765 0.043957528 -0.19346268 0.48971438 -0.34974465 -0.4154777 0.5242411 0.13136826 -0.118083924 -0.20051236 0.017349169 0.09991736 0.5589255 -0.5487974 0.070893206 0.6779771 0.44926196 0.12646183
392 -0.07049676 -0.25107977 -0.5206991 0.16160046 0.3201189 -0.024156408 0.6384737 0.5412849 0.22073509 -0.19331472 0.26614308 -0.5333376 -0.12231682 -0.36643302 -0.24850893 0.717894 0.3610601 -0.42933783 0.2739884 0.51615876 -0.3597346 0.26181328 0.032589853 -0.5499532 0.029305447 0.11984096 -0.034885027 -0.034888554 -0.03288571 0.12634885 0.432034 0.15562819 -0.5010298 0.3224417 0.058441952 0.7383004 -0.5175018 -0.04560736 0.060613178 0.28144035 -0.6307656 0.26780155 0.18256228 0.6574061 0.09467627 0.27386642 0.09173211 0.04215376 0.35451502 -0.09999756
275 -0.096984215 -0.18697216 -0.5547856 -0.0052168504 -0.35541236 0.029839125 -0.055953734 0.47070298 0.21601765 -0.35005152 -0.13041756 -0.44120154 -0.08985474 0.1794483 0.19547375 0.024007522 -0.045393005 0.15643954 0.3313433 -0.1793262 0.28592387 -0.11959267 0.47358888 -0.1303613 0.30740735 0.28743908 -0.017765282 -0.12423211 0.2791764 0.29964817 -0.29485267 0.3024763 -0.09145224 0.052780863 -0.10832195 0.08482098 -0.1315484 -0.21288195 0.12080541 -0.22923808 -0.2350951 -0.56960505 0.44981447 0.43368173 -0.04362191 -0.14427844 -0.18738066 0.12586272 -0.12791362 -0.03880368
313 -0.32821518 -0.18874218 0.17370054 0.16595086 0.10090452 0.1981427 0.43668416 -0.25797364 0.4748887 -0.28361037 0.62296367 -0.3455208 0.37684166 -0.79406583 -0.3673567 -0.21046261 0.1698679 -0.35921404 -0.29848874 -0.038365576 0.0877489 0.6763672 0.6975519 -0.49716175 0.10489815 0.34647328 0.58113754 0.27351105 0.5805843 0.8846565 0.20893927 -0.0010771198 -0.61575687 -0.52672315 -0.26210317 0.5506328 -0.24969353 -0.031634904 0.30335745 -0.7406082 0.15191576 0.25400913 -0.34448427 0.5812879 0.032385048 -0.5216019 -0.08705794 0.11808672 -0.14770466 0.22506222
654 0.50598454 -0.7549639 0.6705883 1.04371 -0.069064304 0.046941545 -0.66061354 0.2647016 -0.6694273 -0.32763302 0.25645307 -0.24523728 -0.36021057 0.3206395 0.39720377 -0.8174082 -0.09144257 -0.71425754 0.37764433 -0.37611833 0.17039382 0.08151444 -0.26481766 0.3772693 0.10126904 -0.2661892 -0.28709117 0.0011353643 -0.061012514 0.12607878 0.65794456 -0.5833449 0.45741165 -0.07871349 -0.645997 0.8452142 -0.7652728 -0.5910476 0.11683257 0.24649641 -0.08934757 -0.30177775 0.6260363 0.25141662 -0.20085925 0.20474635 0.44121012 0.03948129 0.6170108 0.8257197
1179 0.34008306 -0.3688601 0.09336219 0.19514236 0.002924504 0.076428026 0.35374957 -0.04470608 0.024153212 -0.0017983139 0.119238 -0.51691234 0.15767257 0.16162913 -0.09791897 -0.103635915 0.34920567 -0.13364485 0.40918392 -0.3922078 -0.04041635 0.7431082 0.0076628025 -0.72130275 -0.20364049 -0.123500094 0.31483245 0.2504942 -0.016737029 0.13796467 0.14326005 0.1462296 -0.18186879 -0.10175127 -0.20366335 -0.07928858 -0.31667405 -0.31954196 -0.36045146 0.27371278 -0.0029368512 0.18864818 -0.4599164 -0.047804363 -0.07486753 -0.15013842 0.035422843 0.35386518 -0.22814912 0.22841732
471 -0.5506325 -0.39478332 -0.46401104 0.04805548 0.5760821 0.389885 0.042920277 0.3488271 0.1829081 0.33285242 0.03935073 -0.30006412 0.2527644 -0.3573024 -0.2248371 -0.36011592 -0.039281957 -0.31359708 -0.06332548 0.1037339 0.018907242 0.09726287 0.6111356 -0.27396074 -0.011731059 0.02568142 0.32197905 -0.07367659 0.77960676 -0.49480557 -0.041173864 0.51415086 -0.52808625 0.29098347 -0.22539411 -0.04655004 0.059547894 -0.21423852 0.35765433 -0.4230679 -0.11225149 -0.5252071 0.1836364 0.3056024 -0.11956608 -0.44473898 0.3788601 0.17615908 0.18030477 0.45341274
591 -0.18488659 -0.2940166 0.025965573 0.1626764 -0.39361763 0.32000792 -0.11990147 0.25201356 0.20416248 -0.40338024 0.19776124 -0.25605854 0.16612744 0.3139598 0.36274576 -0.23889303 -0.5972367 0.18027775 0.27780512 0.004269474 -0.14189456 0.16480224 0.28187704 0.049719255 -0.04171908 0.029706895 -0.169381 -0.15452945 0.22525029 0.09561373 0.06854627 0.17512026 0.1772208 -0.10402281 0.04606361 0.52124834 -0.40684286 -0.21086484 -0.34736168 -0.22168197 0.08837592 -0.4288315 -0.033705316 0.37119064 -0.3976877 -0.40970582 0.2425929 0.09690065 0.13628478 -0.18933578
757 -0.43063077 -0.08025948 0.070566654 0.3342871 -0.31899333 0.44124314 -0.24529068 0.20826542 0.5489158 -0.089236125 -0.02777072 0.07301343 -0.09902077 -0.4545737 -0.24599813 -0.01606337 -0.69355804 0.7162776 0.3467873 -0.27823204 -0.12288258 -0.29757652 0.23929846 -0.035554625 0.44338658 0.27164313 0.16353257 0.056838036 0.3099421 -0.0767689 0.21131863 -0.087806225 -0.11224777 -0.13526133 -0.061741922 0.24162601 -0.37333536 -0.0039031801 -0.045387827 0.2817261 0.03020277 -0.70548904 0.3058817 0.42240658 -0.061562892 0.13447413 0.09010035 0.38897452 0.20452724 -0.35405374
58 0.020639038 -0.14392094 -0.14963336 0.26860496 -0.039917704 0.15755522 -0.39173338 0.11221008 0.29430225 0.33734956 -0.23472317 -0.101805985 0.20125175 0.26577976 0.0059734546 -0.07313582 -0.025156999 0.26277453 0.0437186 0.07406783 0.1700971 0.4460358 0.015255395 -0.40945423 0.37034032 0.60808545 -0.3217722 -0.29181233 0.25893486 -0.23903713 0.045923192 0.08588381 -0.15864438 -0.023904292 -0.16335799 0.33055297 0.037423775 0.116999365 0.49109128 0.27316183 -0.24873555 -0.019422252 -0.015597804 0.42378289 -0.3288854 -0.10917931 0.12424253 0.17761907 0.20779024 0.390579
307 0.26478657 -0.11616128 -0.02604569 0.3805758 -0.16906916 -0.021982064 -0.14976393 0.706367 0.5376154 0.18082994 -0.016312934 -0.076379314 0.20009646 -0.23523504 -0.1459087 0.2807791 0.17391278 0.13016118 0.35816264 0.02172719 0.54004514 0.17699271 -0.2072814 0.07269472 -0.06946011 0.36027572 -0.26901346 0.27756026 -0.33749676 -0.20689017 -0.16779798 -0.118449256 -0.19386366 0.0291727 0.17202272 0.20166762 -0.06789295 -0.17007335 0.07180556 -0.409287 -0.22487067 -0.14806508 0.38822788 0.5090859 -0.3789516 -0.6164601 0.3199622 0.45991424 -0.19126634 0.116639756
1211 -0.057196107 -0.059515942 0.12258396 -0.15664437 -0.16301325 0.4971059 -0.085052684 0.17271698 0.05851842 0.25635242 0.062087193 -0.08709843 -0.2878761 -0.48583645 0.43662798 -0.51623935 -0.098296106 0.12172144 -0.5082131 -0.48967978 -0.42501548 -0.026979359 0.42921245 -0.034332052 0.31829724 -0.33890238 0.024004351 0.09872652 0.18873043 -0.41754368 -0.24312706 0.04172353 0.10588594 0.065106176 0.051122833 0.04391823 -0.6463145 -0.627221 0.46701682 0.34976012 -0.38141546 0.46116334 0.13469128 0.11536389 -0.48040348 -0.26751202 0.022970365 0.5068037 -0.45643586 0.175628
531 -0.1473825 -0.37862214 -0.38559902 -0.101456 -0.12505107 0.27233753 -0.15194277 -0.49086353 0.14544922 -0.982485 -0.013448589 -0.09602225 -0.15065786 -0.39445785 0.21008642 0.2795124 0.02583543 -0.33015412 0.00043361733 -0.087427795 0.18040913 0.42357904 -0.15738438 -0.53858036 0.30321717 -0.08638641 0.035916153 -0.22363831 -0.17324086 -0.100004226 -0.03592439 -0.24699017 0.5046501 0.07100793 -0.2787686 -0.09918974 -0.19201154 -0.43535584 0.8806553 -0.21119307 -0.12060748 -0.42820847 0.11917109 0.9411752 0.10702768 -0.2977427 -0.14940341 0.111199625 -0.029394448 0.2907523
998 0.12539443 -0.008184915 0.109191775 -0.05433422 -0.1849477 -0.14238188 0.09956169 -0.038114466 0.23217188 -0.008413882 0.08262582 -0.47399467 0.052511785 0.19387816 -0.13193817 -0.3671608 0.14537331 0.011443578 0.2113528 0.10805042 -0.111443415 0.007593112 0.089093775 -0.033646353 0.060789656 0.07521918 -0.32185933 0.025231494 0.19704026 -0.12376863 -0.32324764 -0.29464343 -0.03236475 0.31058764 -0.3066914 -0.084836155 0.2538492 -0.37927288 -0.2391575 -0.011568671 0.15312484 0.21890324 -0.1200125 0.2920153 0.115642704 0.056013037 0.40793717 0.48058292 -0.029351149 0.066076785
1114 -0.011553802 0.058704566 0.017155007 0.059622698 0.027557569 -0.1469425 -0.31054583 0.12214193 0.23697084 -0.12096843 0.168891 -0.5119268 -0.17611562 -0.06810353 -0.20140083 -0.29035255 0.35997888 -0.14664406 0.02022714 0.10834664 -0.06886639 -0.06669165 0.08341157 -0.26183033 0.08552493 -0.24634112 -0.14654969 0.055041704 0.0817134 -0.11644502 -0.09038388 -0.18218651 0.050327208 0.32050204 -0.38236704 -0.12690586 -0.026484273 -0.344523 -0.15564612 0.15480196 0.27634898 0.058339175 -0.0028496897 0.048976388 0.34051934 -0.09182261 0.45393068 0.35694745 0.44897273 0.089260474
1244 0.39051014 -0.64281875 0.06683045 0.11437574 -0.19744833 0.36232883 -0.1226867 0.22059621 -0.119929455 0.13258892 0.5185394 0.120096095 -0.32351002 -0.12678853 0.05492768 -0.11042225 -0.13710316 0.21962953 0.09734524 0.09721395 -0.36787805 -0.039315484 0.5840357 -0.16479051 0.23868191 -0.08183536 -0.19978781 -0.26951724 -0.028281124 0.09302419 -0.22127858 0.08932561 0.56302404 0.26978925 -0.1559773 -0.09963867 -0.7273776 -0.57911384 0.51288706 -0.37417075 -0.027398828 0.68279994 -0.04024269 0.083825655 0.09094631 0.07799912 0.054142207 0.64795893 -0.17730382 0.006496083
89 0.06114007 -0.19552594 0.07676367 0.6873666 -0.30269888 -0.013073381 -0.2585747 -0.2130506 0.44795674 0.26944497 -0.18973154 -0.27355182 -0.06569283 0.50189173 -0.34974307 -0.4159272 -0.5304299 -0.37634316 0.2303437 0.03722877 -0.05875421 -0.30873987 0.39489242 0.5237444 -0.13570517 0.20093684 0.25351107 -0.18723701 -0.086729944 -0.14389208 0.096694455 -0.2260623 0.4036909 -0.09772804 -0.08880703 0.23838408 -0.22379209 -0.3153905 -0.009541585 0.34725216 -0.3883943 0.14956501 0.051039904 0.4879071 -0.050995514 -0.4213856 -0.31558278 0.28853628 0.060758132 0.15447824
845 -0.08921587 -0.20146942 -0.2347889 0.24890111 0.25429872 0.28021315 -0.23495983 0.38351557 0.37476996 0.3903992 0.08393403 -0.47421074 0.12016605 0.14452903 -0.20172727 -0.042161696 0.51455027 -0.4013309 -0.3449232 0.06798772 0.026246946 -0.30186814 0.18554272 -0.04571114 0.2361542 0.23949407 -0.043248165 -0.10868194 0.4012454 0.20862198 -0.258943 -0.20549984 -0.28288183 -0.3427389 -0.19433944 0.17343697 0.0003417882 -0.1208879 0.5742551 -0.06496823 -0.4589685 0.17929104 0.49827188 0.38741708 -0.18157747 -0.27816242 0.10630787 0.30513966 0.10744432 0.06394978
1260 0.29444966 -0.027213322 0.2601804 0.14294577 -0.1128841 -0.26831886 -0.163826 0.12379454 0.16976771 0.007878063 -0.041229982 -0.6478123 -0.07026146 -0.18750839 -0.102040805 -0.29032502 0.052681506 0.04429932 0.26620454 -0.111108996 0.05139042 -0.12575953 0.0309313 -0.10600878 0.32734394 0.02373606 0.10000468 0.060029328 0.3773084 0.17098993 0.2735869 -0.2940192 0.19457403 0.1577191 -0.22556487 -0.040708147 -0.0057196775 -0.2781166 -0.054709844 -0.0062479703 0.28159514 0.34037966 -0.19703367 -0.008221981 -0.03645321 -0.34176663 0.4857151 0.09874979 -0.028403642 0.16597354
949 -0.124725625 -0.1793406 0.01887021 0.0007792234 -0.30958045 -0.23821613 0.3717836 -0.053392846 0.25734663 -0.09436393 -0.114877746 -0.19154185 -0.19297267 0.20374346 -0.08921717 -0.3745509 -0.03885 -0.12589885 -0.01957036 0.17829624 0.05185881 0.6282955 0.026648628 -0.25427014 0.024778306 -0.16713007 -0.07030827 -0.24232955 -0.026891131 -0.168728 -0.1421683 0.2947871 -0.3187476 0.053212352 -0.34611076 0.068558395 0.21030912 -0.25323668 -0.52988756 -0.08246022 -0.027272865 0.21969482 0.07256577 0.4982454 0.22451991 0.18915574 0.1912733 0.64396983 -0.17526607 0.22312717
1059 0.14239347 -0.3102693 -0.10025873 0.32418206 -0.08470476 -0.09660804 0.4710506 0.048944123 0.29198092 -0.26832688 -0.2459886 -0.5028468 -0.2502899 -0.34485993 0.19380791 -0.09186338 -0.11670395 -0.2670159 0.15371266 0.25835592 -0.024952807 0.2966042 0.038444668 -0.24312973 0.09893338 -0.07828647 0.058557257 0.33154875 0.23114732 -0.19782826 -0.069270514 0.17687888 -0.24264131 -0.25714794 -0.6030262 -0.36918798 0.016773421 -0.1597011 -0.32093212 0.37643966 0.20268527 0.015836688 -0.11173174 -0.15489295 -0.0017397664 -0.009846434 0.10027794 0.47139922 0.08081386 0.30071375
550 0.3741276 -0.67211074 -0.101077676 0.2884551 -0.18786328 -0.12654644 0.28508654 -0.1621701 0.2908694 -0.085496224 0.15779965 -0.15247981 0.20674825 0.14409973 0.28041652 0.01910615 -0.36880955 0.115550086 0.4732248 0.032495677 0.1022049 -0.122340366 0.36787236 -0.1652984 0.312498 0.12627259 -0.011387752 0.26681837 0.8370737 0.17870587 0.33420983 -0.019268362 -0.23219487 -0.24474196 -0.16927245 -0.18100302 0.16212417 -0.20951763 0.30252606 -0.047915988 -0.4062543 -0.44327483 0.030011179 0.67358387 0.04661101 -0.014866282 -0.300607 -0.08500088 0.1917086 0.084735826
1236 0.5849059 -0.33220854 -0.33882332 -0.08680895 -0.4233041 0.11531707 0.22813074 0.58990693 0.4379684 0.123863555 -0.22619973 -0.13292652 -0.2138025 -0.26426023 -0.3100404 -0.14848578 -0.051334396 -0.38466018 -0.21982864 0.014532615 -0.10450442 0.066804335 0.16389859 -0.6084462 -0.060725722 -0.6081975 0.0922745 0.7328793 -0.049114745 0.013851394 0.5730641 0.69967407 -0.024235567 0.07717562 -0.39550087 0.22179356 -0.3013642 -0.2634598 0.13493432 -0.023700153 -0.26069504 -0.08138376 -0.079305306 -0.0741825 -0.32128802 -0.25867757 -0.079133675 0.2391279 -0.16013625 -0.27036133
1063 -0.2802433 -0.19759499 0.13357899 0.35546267 -0.02420636 -0.0033291995 0.11187913 -0.04815133 0.2848451 -0.2021964 -0.28705937 -0.18388788 0.23580676 -0.2768542 -0.15343831 -0.3178187 0.1422803 -0.3414272 0.18554333 0.0560113 -0.2541995 0.5836128 -0.021683153 -0.44805637 -0.20880121 -0.38803726 0.043412674 0.20653856 -0.087583214 -0.12080955 0.11408815 0.22521244 -0.38769415 -0.027059896 -0.6272845 -0.3675387 -0.010247033 0.05097056 -0.17312033 0.14306146 -0.08220074 -0.25424707 -0.17297743 0.026170628 -0.16174816 -0.09692586 0.009927217 0.62158567 0.15544006 0.16600788
285 -0.24757408 -0.34688765 0.23840453 -0.08261974 0.57358813 -0.07395144 0.49760675 0.06370152 0.46669897 -0.057504267 0.83949304 -0.09293261 -0.64046603 0.27063182 -0.34999022 -0.24717277 0.3523974 0.2733806 0.1598874 0.6366238 0.23513466 0.13447662 0.6813928 -0.3035177 0.49075148 -0.11251863 -0.50832236 -0.07504506 -0.43327168 0.009490697 -0.057539094 -0.19142315 0.15730172 0.19320041 0.14831582 0.15125121 -0.04191203 -0.5616746 0.5014686 0.2897861 -0.7084311 -0.48861086 0.15068887 0.039195433 -0.39091367 0.008181868 -0.1922187 0.006909471 -0.3569708 0.4004371
1217 0.06780776 -0.13082446 0.4175119 0.45688587 -0.15932623 0.09314993 0.048491757 -0.34193406 0.18650259 -0.04271592 0.2353574 -0.47010905 0.16774142 0.19471978 -0.3391716 0.025687953 0.187082 0.1295 -0.069370516 0.19772846 -0.21137413 0.29926646 0.33844373 -0.2669916 -0.18882637 -0.37610495 0.5828994 -0.1925728 -0.40420574 -0.17253242 -0.011633597 0.08149259 -0.35689887 0.24939352 -0.05347602 0.01719556 -0.05827282 -0.47500074 -0.016406186 0.24472024 -0.5492559 0.59075147 -0.26382038 -0.19709395 -0.50123 -0.075706266 0.4096677 0.056128222 -0.24462025 -0.045429047
1006 -0.017291788 -0.0647476 0.1350893 -0.046276808 -0.23231404 -0.43301237 -0.27028975 0.056072567 0.08433797 -0.30983225 0.14815192 -0.6988184 0.24930184 -0.110772684 -0.19564354 -0.28826112 0.15159906 -0.13447925 0.23285918 -0.2612547 -0.22726731 -0.08306806 0.0050167893 -0.1386361 0.096251614 -0.0061110505 -0.08655436 -0.06175435 0.19816554 0.016707966 0.04040137 -0.2350289 -0.10592037 0.09424074 -0.34001076 -0.11050069 -0.113332845 -0.08893458 -0.13372393 -0.053696845 0.28406146 0.2335184 -0.30616897 0.30639133 -0.11752434 -0.27622843 0.15112066 0.27741513 0.03926747 0.10707362
893 0.09484813 -0.49619314 0.4542279 1.2197644 -0.52449614 0.2257744 0.2144364 0.3678497 0.11744504 -0.06591424 0.36018893 -0.2963046 -0.5080206 0.27641913 -0.34764814 -0.09811297 -0.5378421 0.16049856 -0.50282246 0.110816345 0.03827833 0.5543843 0.44417295 0.5562117 0.6132616 -0.36009347 -0.3617626 0.22243652 -0.13339292 0.03271078 -0.14846112 -0.33421993 0.32646692 -0.9604347 -0.04005095 0.13849351 -0.1215664 -0.22254443 0.072789855 0.3339552 -0.44011685 0.63174963 0.103156604 0.22038224 -0.08469442 0.021680802 0.35677725 -0.21745814 -0.36193722 0.064930856
1021 0.13079658 -0.02794061 0.15690474 0.16461061 0.060160525 -0.09443387 -0.02432707 0.24163204 0.3673118 -0.30207685 -0.0022790283 -0.34245402 -0.027109265 0.09002731 -0.10388847 -0.12720354 0.03000515 -0.27724946 0.11441453 0.13844994 -0.266048 -0.155316 0.18659902 -0.24893144 0.16002084 -0.22466694 -0.08015187 -0.044513043 0.17766772 0.084423006 -0.12500821 -0.04386383 -0.20635697 0.30906856 -0.21751979 -0.3353009 0.16301706 -0.101439685 0.1357325 0.073667124 -0.007982191 0.12097988 -0.21403956 0.10598587 0.084901184 -0.21040434 0.47516042 0.4253502 0.22996053 -0.0873809
150 0.24383713 -0.08148042 0.21869102 0.14289725 -0.117635205 0.17485222 -0.22946227 0.525907 0.8654287 -0.084933296 -0.36509302 -0.5710121 0.4890926 0.23088613 -0.30126983 0.26567397 -0.054351572 0.12134785 0.2423248 0.37458682 0.02313668 0.2933293 0.0014373236 0.007941967 -0.09977981 0.14507417 0.16157874 -0.35517517 -0.36034983 0.016643532 -0.17152068 -0.1574005 0.22606541 0.18266326 -0.09317082 0.37334818 0.20102449 0.12514152 0.019678399 0.4785828 -0.13454075 -0.12416708 0.055766225 0.41477016 -0.4986148 -0.49354628 -0.17576942 0.16673924 -0.21862157 0.3074481
302 0.14693563 -0.20250654 -0.25271142 0.39380616 -0.1685212 0.3105243 -0.02050479 0.18417434 0.45769554 -0.025584623 0.38903478 0.13681017 0.61175644 0.28996015 -0.24170555 0.18527158 -0.036381308 0.26056772 0.434817 -0.1572237 0.45127347 -0.13499402 0.11194417 -0.18803024 0.2255527 0.13064855 0.03542007 -0.135823 0.1927294 -0.0070819748 -0.104204535 0.02769412 0.13648127 0.18240416 -0.15139055 0.6562528 -0.19029121 -0.33759078 -0.1683048 -0.012071477 0.04818527 -0.19144636 -0.18199877 0.27723992 0.029423958 0.024763487 -0.024596794 0.3373166 0.08946416 0.065849505
93 0.0092429295 -0.3655357 -0.18996371 -0.00309746 -0.07291749 -0.0020867642 -0.19933566 0.38314718 -0.13992617 -0.17536646 0.25774354 -0.3028006 0.44186366 0.30963263 -0.052537266 0.26606432 -0.024378065 -0.0663556 0.17848766 0.12502187 0.48122296 0.43873304 0.07115037 0.17815737 0.07649636 -0.19071901 -0.38057855 -0.12150751 0.43179247 -0.040415015 -0.39139953 -0.18943931 -0.03401443 0.06521248 -0.2957606 0.40191662 0.16519567 -0.4450851 0.3995513 -0.005655916 -0.31018645 -0.25907734 0.10585408 0.2204354 -0.018546421 -0.23890525 -0.20988454 0.22812453 0.32243696 -0.028804686
951 -0.15205099 -0.5418691 0.43371502 0.31210852 -0.37808904 -0.06529646 0.37709528 0.032657884 -0.00099378 0.498944 -0.10700165 -0.4208121 0.034535784 0.17472386 0.023261808 0.24668299 0.05523754 0.015552455 -0.056311276 -0.10045742 0.01358156 0.26278645 -0.18991768 -0.28212744 0.3519988 0.029430857 -0.07411429 -0.17073958 0.076609984 0.2711378 0.20898812 0.015159801 -0.33714825 0.3877414 -0.19417116 0.021548254 -0.3968038 -0.129402 -0.31258348 0.290431 0.0021851645 0.4812376 -0.22340216 0.27456003 -0.39925063 -0.14601809 0.20516296 0.49115774 -0.41631535 -0.22679754
964 0.14714807 -0.008391027 0.026653823 -0.19052902 -0.101175725 -0.17892104 -0.29734364 -0.036846466 0.4218628 0.056971148 0.038098782 -0.5949631 0.064061314 -0.003563616 -0.08411413 -0.275569 0.28012747 -0.32398686 0.108567506 0.033361882 -0.2758766 0.19084068 0.21736535 -0.08758573 0.17977165 -0.21709953 -0.25890458 0.14187044 0.3046921 -0.061967123 0.379263 -0.020754699 -0.11142989 0.19519193 -0.0135958865 -0.17497677 0.045904197 -0.29235947 -0.09259877 -0.21666104 -0.029564498 0.23062037 -0.13782975 0.15831052 0.042404644 -0.38516313 0.33628654 0.2919295 0.3076734 -0.2005959
1110 0.026330162 0.20565835 0.22091305 -0.19395597 -0.16756701 -0.07809923 -0.063742824 0.3063706 0.43601686 -0.10137901 0.29721734 -0.43322635 -0.3529325 0.05446426 -0.18540363 -0.5096241 0.22865634 0.21657266 0.124922596 0.11518255 0.2685659 0.2258307 0.11760278 -0.2267838 0.09071874 -0.19273715 -0.22481103 0.29265213 0.0743431 -0.08831523 0.00913002 -0.3630624 0.046929136 0.3214488 -0.41252425 0.03685795 0.16533667 -0.08293302 0.06895105 0.06839914 0.024227101 0.2760858 -0.025558626 0.16987419 0.027043348 0.047520198 0.29907462 0.20798892 0.2618957 -0.016257102
931 -0.07849867 -0.8109622 0.35826033 0.48909688 0.058066472 -0.40292084 -0.04856951 0.070633866 0.8215372 0.13358112 -0.19843665 -0.5693162 -0.43609792 0.34537286 -0.4220329 0.019366035 -0.25744703 0.3758457 -0.07392454 -0.29664323 -0.078584075 0.32535663 -0.3497971 -0.13300133 -0.29428908 0.07591491 0.35115752 -0.35472384 -0.0753063 -0.7137069 -0.43565303 -0.006254092 -0.5376806 -0.12281482 0.065146916 0.22032227 -0.035868138 0.11256602 0.7737805 0.13190357 -0.09680669 -0.0033554398 0.42347556 0.14649563 0.3306959 -0.7179292 -0.09735928 0.13773893 0.25515407 -0.0019462261
473 0.06063745 -0.11522294 0.32593304 0.20871194 0.039457142 -0.19743378 -0.15554601 0.10610856 0.39734763 -0.0366589 -0.44890222 -0.3471152 0.194043 -0.079755835 -0.1472041 0.055954114 -0.34595847 0.04249096 0.32954964 -0.012001532 0.00024617856 0.02235706 0.054828636 0.3516795 -0.07158376 0.32408717 -0.2675794 -0.23947166 0.104204886 0.0856421 -0.21626224 0.014965131 -0.17076528 -0.49764243 -0.36496383 0.19721442 -0.1631531 -0.0020379378 0.04083249 0.089018084 -0.64599437 0.16569237 0.12859964 0.4328359 -0.1683697 -0.25121492 -0.07909144 0.37678623 0.35203835 0.11401565
1164 0.018450553 -0.2759835 0.2891975 0.19896421 0.13657513 -0.23692378 0.18506747 0.16151811 0.42559558 0.13549201 -0.2381361 -0.3036127 -0.06395321 0.17186536 -0.13309368 -0.06645569 -0.07753452 0.02114969 0.09113817 -0.009052636 -0.033126213 0.21953066 0.12053196 -0.48008725 -0.17924996 -0.5325361 0.419341 0.33044046 -0.15909965 -0.3227625 -0.32449764 0.33996347 -0.41833067 -0.07136508 -0.9174457 -0.33752757 0.24681078 -0.3045473 -0.07445328 0.25754538 0.13827543 0.16676861 0.005832157 0.053149402 0.2150047 0.14538306 0.19367312 0.26113102 0.080331676 0.10280928
1038 -0.021935713 -0.1527839 0.11809336 0.37125182 -0.15866506 -0.46700686 0.13005704 0.18649237 0.43985745 -0.35140994 0.045031656 -0.45883423 -0.23946042 -0.13288338 -0.109336175 -0.4448165 0.29911956 -0.11917302 0.030165961 0.20657635 -0.1972604 -0.19881949 -0.06705919 -0.17596173 0.24848495 0.22730255 -0.17017668 0.1494005 0.12234629 -0.09334313 -0.22534361 0.031137694 0.0031392993 0.018437147 -0.2949585 -0.32952505 0.19280882 -0.20617257 -0.16395637 -0.13686046 0.031739507 0.18126483 -0.11062961 0.24512964 0.2136736 0.034898795 0.29536498 0.2894021 0.12888415 -0.11298115
333 0.5412522 -0.29289025 0.26577199 0.02943973 -0.38057175 -0.19451834 -0.25735366 -0.060713083 0.37004974 -0.19759849 -0.011210435 -0.35617796 0.19789955 -0.31126383 0.011000941 0.64426535 0.147132 0.15431571 0.1564338 -0.1830121 0.496282 0.49365574 0.15428394 0.16859272 0.40602717 0.045478925 -0.17543554 0.051489357 -0.18552771 -0.205957 -0.5127391 -0.2751357 -0.115653746 -0.63949376 -0.15270476 0.4381834 0.0662631 -0.52978766 0.041333225 0.42009315 0.3107156 -0.14263293 0.5155013 0.4389688 -0.07767427 0.16712879 0.1018117 0.28436014 -0.35038283 0.30355126
1115 0.006661327 0.24606754 0.19365753 -0.15351489 -0.014027327 -0.39463785 -0.19338247 0.3213318 0.4601299 0.062068544 0.35403877 -0.32446808 -0.012616223 -0.00752514 -0.21702965 -0.25867346 0.2750665 -0.039393187 0.30065933 0.15601318 -0.014115528 0.03562316 0.03268828 -0.35994294 -0.101526156 -0.29962486 -0.067767315 0.028615957 0.1395895 -0.010383633 -0.14654763 0.2532645 0.146609 0.046123512 -0.22329657 0.14746514 0.10605778 -0.10570593 0.07614789 -0.0023232927 -0.06851787 -0.15132311 -0.25761166 0.121406026 -0.06602691 0.014155821 0.513436 0.5282173 0.019190079 -0.14209357
1152 0.112303875 0.078156285 -0.15543167 -0.013904947 0.028369408 -0.17911822 -0.15230986 0.17189658 0.1341366 -0.044841215 0.23977005 -0.37986583 -0.11176121 -0.22722585 -0.19469674 -0.41110733 0.30252653 0.22162502 0.095570974 0.03295544 -0.34394482 0.137902 -0.014889207 -0.36492497 0.0971342 -0.11960907 -0.25120875 0.32942596 0.18052568 -0.03341562 0.14236574 -0.011437658 -0.05963669 0.16911553 -0.23692894 -0.24727933 0.036350064 0.02272781 0.1824776 0.22333008 -0.18423788 -0.012929622 -0.019563591 0.25566855 0.20347819 -0.15139256 0.47189245 0.405061 0.30645043 0.090236194
290 -0.17133796 -0.41529867 -0.41032806 0.77357197 0.16960862 0.060168326 0.1596071 0.3329934 -0.16487955 0.20369735 0.2362086 -0.2755112 -0.038490176 0.20389216 -0.172754 -0.09939948 0.09815418 -0.008648516 0.018988738 -0.09583537 0.8940202 -0.211442 0.27616096 -0.39012098 0.3923046 0.22803082 0.36748007 0.25382987 0.20041248 0.22820008 -0.44125062 0.122922495 -0.27148658 0.0677811 0.06924704 0.34460056 -0.15254705 -0.1451157 -0.26812634 -0.45244056 -0.07037236 -0.08787888 -0.40185007 0.92253757 0.07849045 -0.16127048 0.08352141 0.60762644 0.01647121 -0.27286604
1133 -0.11699769 0.07153273 0.1929284 0.035990294 -0.26602918 -0.0022028254 -0.19371326 0.058208596 0.040493134 -0.39560995 -0.026213787 -0.651844 -0.32226577 -0.025331218 -0.20701744 -0.09577237 0.29698345 0.24672735 0.26255 -0.28424263 -0.0019613514 -0.21234785 -0.031134875 -0.0062943026 0.06781378 -0.15974239 0.0034089077 -0.14438224 0.18120655 -0.12639503 -0.07308624 -0.16520181 -0.08734394 0.41744262 -0.09931868 0.035545073 -0.0068720467 -0.27354613 0.18733785 0.24248733 0.07786071 0.23398282 -0.098143324 0.04996384 0.10964086 -0.3551463 0.28828084 0.2703432 0.053422555 -0.031212607
1125 0.14539704 -0.28583124 0.30613136 -0.15071434 -0.017133389 -0.21479225 -0.25456932 0.14904393 0.2637033 -0.14863782 0.36384293 -0.16696687 -0.41348898 0.3320459 -0.044394884 -0.45431873 0.271278 0.018952683 0.3987062 0.0556511 -0.2880083 -0.009298977 -0.129325 0.089901656 0.21170408 -0.005385053 0.0057937815 0.10508319 0.1647553 0.023831816 -0.26867348 0.0041407766 -0.32316315 0.11140475 -0.2983464 -0.027673254 0.15327862 -0.50233525 0.07101366 -0.09726494 -0.09202302 -0.16694933 -0.079241745 -0.13174686 0.2618891 -0.22144897 0.22698243 0.43811613 0.25681055 0.18111089
384 0.19856927 -0.79826313 -0.40707326 0.673297 -0.6240284 0.060819898 -0.3946578 0.2466403 0.9955079 0.1155158 -0.05723788 -0.2182566 0.4142441 0.23403075 0.1886354 -0.046564408 0.07537352 0.80175996 -0.07314474 0.2969463 -0.12209016 0.20687824 -0.26315874 0.42500478 -0.22011635 -0.4330879 0.08765051 -0.39964706 0.56307775 -0.003467599 0.22723733 -0.84908783 -0.20836401 0.2866489 -0.16425365 0.08235515 -0.5832377 -0.15706104 0.22082072 0.24254186 0.6918715 -0.51942486 0.90670264 0.008591764 0.14663552 -0.763667 -0.15182528 0.21661633 -0.3754753 0.23055989
1146 0.17413257 -0.08910639 0.20105071 0.09951936 0.14809114 -0.21908085 -0.08142344 0.12494293 0.31332174 -0.14610288 0.15850842 -0.45880282 -0.07636513 -0.18880679 -0.09161556 -0.31397578 0.36996654 0.24245873 0.31124344 -0.23592068 0.027391396 0.04811909 0.09558354 -0.15659276 0.04765534 -0.3140477 0.23412111 0.34801242 0.13870603 0.016003747 -0.12900846 -0.10369716 -0.06465066 0.396769 -0.06020559 0.002994104 0.037577827 0.16057922 -0.08906237 0.10626337 -0.12455971 -0.031647634 -0.115318835 0.32477608 0.10147818 -0.059730444 0.5599835 0.35431 0.2248126 -0.07072991
1210 0.16504903 -0.35090968 -0.36324304 -0.3866438 -0.26591715 0.2987607 -0.21899003 -0.04569077 0.47179973 0.15112695 0.14648531 -0.5651174 0.09634741 0.18307632 -0.070435405 -0.3526985 -0.38143623 -0.09560152 -0.14717133 0.14494692 0.09986609 0.35413358 0.4937439 -0.2990314 0.2087813 -0.6978697 0.1180365 -0.3018619 -0.11242188 0.20252737 0.2956072 -0.06742707 -0.0258003 -0.15320778 -0.14646862 0.5690533 -0.2536468 -0.88686895 0.0013976481 0.094576664 0.22088912 0.32817128 0.011091432 0.18229409 0.62464875 0.30449733 0.1407522 0.06806535 -0.5313589 -0.33737928
954 0.06378922 -0.12490193 -0.046294253 0.10042516 -0.012727032 -0.25117382 -0.06186088 0.25819823 0.11151461 -0.09331605 0.30141345 -0.41763094 -0.10131186 0.061859637 -0.22182575 -0.59955955 -0.08102627 0.058248855 0.20354356 -0.02021923 -0.3224448 0.13591647 -0.07772461 -0.31855258 0.25202692 0.2672186 -0.18785432 -0.120798945 0.020218115 0.15375952 -0.20599069 -0.110601686 0.10370407 0.020112552 -0.08056391 -0.13896985 0.0007037671 -0.49229157 -0.12627645 -0.30936167 0.12166551 0.21504253 -0.17552002 -0.08853277 0.053999197 -0.34560785 0.28488243 0.52063113 -0.19571109 -0.0071457326
879 0.018569222 -0.08285502 -0.53980523 -0.013316571 -0.0063555567 0.21936032 0.28817838 -0.03402237 0.17273538 -0.013614199 0.65881246 -0.62904364 0.27673995 -0.22574946 -0.017205277 -0.17334364 -0.21328916 0.47349322 -0.102274664 -0.1066465 -0.07885804 -0.31177932 0.19443569 -0.020480553 0.2854257 0.25995153 -0.27850014 0.31858814 0.037504297 0.1416638 -0.42421553 -0.28979337 -0.3393104 -0.29666644 -0.5226026 0.062223393 -0.4379178 -0.050649114 0.25136855 -0.2146052 0.15720618 -0.3720002 -0.6214661 0.7090407 -0.11751548 -0.20677517 0.37430394 -0.32129842 0.07050525 0.51008993
1199 -0.046515815 -0.2660503 0.004266235 0.27021843 -0.018438451 0.27536923 0.13276826 0.008645445 0.20032929 -0.13946694 0.1506512 -0.58577204 0.32937092 -0.52934813 -0.26415852 -0.25845218 -0.07769488 0.16575201 -0.12271284 -0.31364658 -0.28406787 0.458448 0.35207352 -0.33465677 0.090956025 -0.46991432 0.094547585 0.18568023 -0.10510906 -0.33856243 -0.33998722 0.18350552 -0.20083842 0.036984354 -0.8937751 0.1363703 0.1238689 0.23213093 -0.27330506 0.35616046 0.098383956 -0.08593808 -0.19165306 -0.1539278 -0.081525825 0.14548834 -0.13550313 0.2047027 0.21580246 -0.066036716
1425 0.1380881 -0.03461739 0.22729139 -0.101228215 -0.47850746 -0.28082108 -0.21963972 -0.15981226 0.4923109 -0.22328842 0.07269912 -0.70360863 -0.052604895 -0.09045024 -0.025506996 -0.33302593 0.122022495 -0.094776645 0.10615467 0.1868573 -0.08280255 -0.022193762 -0.15257339 0.136865 0.13111147 -0.055999193 0.17075936 -0.20855913 0.0064140605 0.088572435 -0.04787985 -0.19067836 -0.16320597 0.4445737 0.12005556 -0.031361565 -0.20172253 -0.2964961 0.21501951 0.09487476 0.05182729 0.08032642 0.25873968 -0.061529323 -0.01272657 -0.18045652 0.30845377 0.37154192 0.15892002 0.36063784
1218 -0.0016858992 -0.32690072 0.45230913 0.21952613 -0.5160796 -0.048486784 0.6628189 -0.05526424 0.076603316 0.31335887 -0.1339431 -0.48329467 0.17063707 0.048078787 0.5234238 -0.26710454 -0.003052886 0.096858025 0.009670302 -0.14149603 0.2391102 0.42051044 -0.12216324 -0.27345747 0.2730262 -0.10492873 -0.15950735 -0.21486966 -0.030378662 -0.13465919 0.018400079 -0.004166275 -0.031112483 -0.10313519 -0.63738334 0.36916843 -0.15167312 -0.07740117 0.096834324 -0.03378896 -0.033128142 0.30494922 -0.1640074 -0.10532917 -0.33671117 0.351309 0.5377172 0.274607 -0.16244783 0.33386883
746 0.030146249 -0.59225005 0.09192052 0.14115655 -0.15346652 0.58150095 0.1835426 0.38803154 0.1905668 0.33909148 -0.054609872 -0.23868728 -0.1060025 0.20234747 -0.50782955 -0.0068324683 -0.042390045 0.50230294 0.2737483 -0.01761526 -0.27626422 0.32989177 -0.065922834 0.25671455 0.07317337 0.18655825 -0.0504918 -0.27775183 0.36647594 0.09792582 -0.21394196 -0.11680432 0.2773408 -0.031001424 -0.15741515 0.3911253 -0.17003624 0.13102928 -0.08076018 -0.16323651 -0.2649112 0.18435444 0.29406172 0.3002635 -0.21396527 -0.36877835 0.2569415 0.09411243 0.42278647 0.22091812
1011 0.095651396 -0.10264095 0.1713746 -0.14980815 0.04303584 -0.19018275 -0.033404674 0.05294378 0.27380425 -0.13893493 -0.25149393 -0.6181056 0.11471083 0.09125372 -0.16198781 -0.31280354 0.30265823 0.04267839 0.032482803 -0.28747216 -0.09667629 -0.16938996 0.2691107 -0.34585047 0.24361683 -0.15841147 0.22689919 0.11468169 0.37466314 0.17286897 0.021952324 -0.12256816 0.014632204 0.19352153 -0.035281625 -0.120649025 0.18668744 -0.19133587 -0.16607992 -0.033919238 0.00907979 0.16415463 -0.42477122 0.22697999 -0.2639742 -0.27619776 0.27973586 0.42973194 0.04466675 0.11522548
1031 0.04739765 -0.15631086 0.15056865 0.1672699 -0.32109317 -0.32837668 -0.37163064 0.19244258 0.21906829 -0.16279656 0.111304656 -0.33662117 -0.30261278 -0.080021024 0.07342664 -0.42132032 0.2934973 0.12916179 0.27985862 0.30785653 0.031548973 -0.07907572 -0.027518198 -0.03136179 0.4125906 -0.009612532 -0.35560983 0.308291 0.13520497 -0.23670334 -0.397663 -0.4145934 -0.2632064 0.22715443 -0.21751273 -0.21583538 0.18510608 -0.42139137 0.14562333 0.22250853 0.17904358 -0.08157631 0.16817175 -0.027457386 0.2495829 -0.046154696 0.2237428 0.15145507 0.22455913 0.18721204
233 0.13913184 -0.974338 -0.19529 -0.021309068 -0.34054902 -0.024133146 -0.13831162 0.12221021 0.48175555 -0.018895723 -0.625996 -0.5525136 0.36633688 0.16888648 -0.5230638 0.058473554 0.30104896 0.2963069 0.67266506 -0.1044171 -0.2966733 -0.01308379 -0.1386096 0.14693183 -0.4199644 0.6867657 0.16180387 0.068737805 -0.22312513 -0.6964868 -0.14611153 -0.19434139 0.14849265 0.1377859 -0.0824463 0.6218985 -0.40589112 -0.010088993 0.30917102 0.031139562 -0.1047663 0.13937998 0.12829824 -0.132737 0.17472872 -0.5780018 -0.11010607 0.33904374 0.33452448 0.34133697
1299 0.020924425 -0.094358064 0.31539997 -0.06832635 -0.27654597 -0.4036651 -0.17684431 -0.21151924 0.029320942 0.03667207 0.08733961 -0.51098657 -0.3332018 -0.027714187 -0.15772277 -0.34215268 0.13784969 0.09367602 0.056917153 -0.34003666 -0.034576353 -0.2610377 -0.06832599 -0.24373192 0.028570099 0.029333772 -0.19216867 0.037216663 -0.22410408 0.1249059 0.02545776 -0.3555651 -0.09650379 0.72170705 -0.21995537 0.01172102 -0.035664167 -0.32394692 0.12226253 -0.026388137 0.014424107 0.08808344 -0.1172182 0.2578548 -0.2235615 -0.26662356 0.30543408 0.4073035 0.12160286 0.3456645
795 -0.3967579 0.12678371 -0.17979126 0.5700096 0.13519157 -0.36959386 0.27255583 0.335536 0.5402464 0.064638615 -0.101035684 -0.19979015 0.03541798 -0.20628446 -0.10562027 0.16050974 0.063055776 -0.4170554 0.089843206 0.39119056 -0.50784314 -0.1307656 0.41635662 -0.19713522 0.19572365 0.26568797 0.06704566 0.06985663 -0.33870333 0.45407373 0.05924581 -0.18312152 -0.27839878 -0.18814081 -0.09494649 -0.07642774 -0.049865548 -0.512658 0.3771197 0.034942813 0.06658141 -0.1273992 -0.046805423 0.27657798 0.04108642 -0.28138906 0.2731531 -0.056328125 0.08453512 0.79924315
1093 -0.20310776 -0.039655242 0.16187482 -0.082249194 -0.39204818 0.14092498 0.29754815 0.107897595 0.60151184 -0.32059473 0.2981086 -0.43748486 0.14242226 -0.15683694 0.27273387 0.0077545717 -0.39645302 0.09784863 -0.07701764 0.033120587 0.112792045 0.15041095 0.080369405 -0.15587085 -0.07042292 -0.21142694 0.16818815 0.30792803 -0.3727367 0.13792245 -0.1307427 -0.010632246 -0.18154424 0.35771462 -0.7696573 -0.07479742 0.5684027 -0.18081836 0.056454293 0.23551261 0.010969452 0.058120355 -0.16722482 0.053092998 -0.03584674 -0.15541935 0.212446 0.3014481 -0.21889122 0.34112987
1369 0.11397822 -0.099168845 0.36146677 0.17411911 -0.16687508 -0.19953212 -0.5356572 0.077579156 0.34742963 -0.21870492 0.028871605 -0.35478625 -0.14722532 -0.07924512 -0.14844699 -0.21819986 -0.05346174 -0.02198566 0.2514825 -0.16544908 -0.010473674 0.120567314 -0.36071172 -0.037590206 0.10581122 -0.18567592 0.054645054 -0.17337635 -0.064905226 0.14673537 0.12268059 -0.16278175 0.0862613 0.5006681 -0.099940516 0.2807354 -0.050000582 -0.09499928 0.062498916 -0.01624422 0.29902548 0.16895443 -0.3661283 0.28214228 0.058558825 -0.4814148 0.24035606 0.30840605 -0.07019368 0.12091326
882 0.16227995 -0.59652704 0.3055173 0.87832004 0.33457354 -0.21290062 -0.12271347 0.32810542 0.23747371 0.35282862 0.05377332 -0.32946497 0.44509143 0.08593778 0.020433228 0.09637257 -0.19049238 0.35191056 -0.11580561 0.2874021 0.068147905 0.07882507 0.22531031 0.1962725 0.14157064 0.29845312 -0.15483604 0.116947584 -0.24946158 -0.55641735 -0.037434775 -0.5047766 0.52027524 0.29073808 -0.4720462 -0.17687903 -0.40035525 -0.24063203 0.35478103 0.08321978 -0.043764837 -0.28410763 0.35668075 0.2033172 -0.03647238 0.1667209 0.80805284 -0.010321913 -0.39069852 -0.15365772
59 0.03558109 -0.63668424 0.58028716 0.23498634 -0.079420455 0.041670885 -0.10728504 0.038178746 0.43831164 0.53749937 -0.12085254 -0.22641072 -0.10647998 0.25523442 -0.5535447 -0.019517245 0.034620363 -0.12008438 0.10189168 -0.12784319 -0.06361303 0.09694739 0.0031177069 -0.06471179 -0.25355417 0.7131084 0.5242388 0.120034784 0.16607717 -0.29058164 -0.19356345 0.120324895 0.22151075 0.29053476 -0.25643584 0.100673 0.019707687 -0.1699269 0.05426943 0.005578709 -0.40236303 -0.19416705 0.58290327 0.47475672 -0.3081406 -0.24349606 0.25373635 0.22776759 0.26589528 0.14393528
957 0.082472034 -0.28380227 0.41038424 0.063401684 0.022588477 0.08034499 0.103418835 0.076203756 -0.022846082 -0.084104925 0.08683455 -0.18709017 0.3738014 -0.13915683 0.0027419291 0.20036018 -0.2146059 0.07356477 0.32146683 0.4215254 -0.16706535 0.78203434 0.28559843 -0.57804453 0.26148972 -0.1458326 0.56068087 0.09376943 0.14744072 -0.1744788 0.1654285 0.0042592464 -0.2379396 0.30322272 -0.57796055 -0.11111139 -0.14665818 0.10909252 0.022463474 0.20038809 -0.12445755 -0.11863676 -0.32607841 -0.44636345 -0.46277973 -0.7569091 0.08502205 0.560279 0.14065036 -0.0002815202
1270 0.43675625 -0.5370891 -0.27238363 0.31315318 -0.16260913 -0.11509535 -0.2110709 -0.09244995 0.33317375 0.02636265 -0.24878556 -0.53358686 -0.19832765 -0.41598025 -0.49798766 0.080633834 -0.1642555 0.45463073 -0.3608844 -0.119682826 -0.12296017 0.09246007 0.4540882 -0.40132442 0.641078 -0.6881007 0.054609857 0.55397594 -0.10312951 0.2076426 0.4672147 0.32461232 -0.49225578 0.0047385036 -0.3254441 -0.14676888 -0.43902427 -0.05824613 0.4382225 -0.1889513 0.0634146 0.08021965 -0.3377266 0.02431447 0.012692704 -0.027306218 -0.26812345 -0.1749966 -0.24859667 -0.11148395
1158 0.23024538 0.007963165 0.47404802 0.35586905 0.050138637 -0.1408065 -0.06262393 0.015522644 0.26595554 -0.007931487 -0.09210163 -0.3336372 -0.0025763388 0.12053876 -0.09766765 -0.4701998 0.343041 0.17199838 0.6338112 -0.07812697 -0.06856854 -0.15076071 -0.07409467 -0.24980061 -0.04439523 -0.0764891 0.11684317 0.19121261 0.4792464 0.09191574 0.28837436 -0.057989508 0.18234262 0.107253134 -0.09853421 0.0106494 0.22833018 -0.1878056 0.24424897 0.30544057 -0.07025278 -0.07225978 -0.29402015 -0.034459777 -0.14510499 -0.07098562 0.46820748 0.3453784 -0.22366016 0.17677191
310 0.08993367 -0.39174792 0.040547922 -0.056877647 -0.095885664 -0.64128 -0.07833936 0.049934104 0.07091221 -0.0060330457 -0.13843936 -0.0935959 0.3757313 0.020646438 -0.32226974 0.10530008 0.013969937 -0.08905263 -0.0031385324 0.13914867 -0.076963134 -0.21721229 -0.25915915 0.20550005 0.11843236 -0.014194715 0.2530365 0.5771282 0.5196107 0.05137605 -0.06819954 -0.106681295 0.078002125 -0.2742637 -0.5342247 0.30657503 -0.12850703 -0.12862146 0.30305815 0.28565046 -0.40327492 0.0045444835 -0.043156102 0.71428645 -0.30056584 -0.07874378 0.08143561 0.061415933 0.19966003 0.5590325
1214 0.21209708 -0.40819672 0.058722347 -0.12418418 -0.48426542 -0.35977247 -0.06479678 -0.044621725 -0.0361776 -0.10805561 -0.19076033 -0.40569764 -0.09410805 -0.48852506 -0.24981092 -0.38720316 -0.14060612 0.26855066 0.409329 -0.093723826 -0.42272246 0.323103 0.8117545 -0.15923901 -0.18855958 0.00013867073 -0.25262874 0.054698933 0.078011766 0.1329525 -0.045917805 0.053293332 0.2828243 -0.1227997 -0.1429316 -0.46327055 -0.58629954 -0.1968271 0.05959702 0.012922114 -0.68504786 0.18751797 0.20464875 0.21547118 0.28201246 0.35031974 0.013871554 0.2275606 -0.5534893 0.5414761
803 0.035775665 0.14230415 -0.32642844 0.21919242 0.06258624 -0.19510785 -0.07936119 0.4328339 0.39872065 0.16168018 0.003839148 -0.076471485 -0.25059643 -0.05072085 -0.12026969 0.011305678 0.349931 0.24214067 0.37801373 -0.103117 0.02539568 0.13035275 -0.36583686 0.15416993 0.2580199 0.003111976 0.011710757 0.08355067 0.2808792 -0.14272387 0.18405347 0.46664414 -0.33618718 -0.15679574 -0.29649797 0.12898219 -0.1628398 -0.51657575 0.41262046 -0.19852977 0.22985597 -0.30033222 0.00074195396 0.61094123 0.03601718 -0.20377894 -0.22315468 -0.015277597 0.39307013 0.30037478
1118 0.17788891 -0.08951334 0.25903514 0.00075609866 -0.18160623 -0.17754637 -0.1268653 0.27230337 0.57891387 -0.1617964 0.25770172 -0.13482583 -0.45089 0.15243462 -0.083445124 -0.4051836 0.14962262 0.02447722 -0.057153564 0.25085655 -0.35897934 -0.23839608 -0.06705763 -0.024466962 0.26339322 0.10638009 -0.17617239 -0.06349098 0.08874687 -0.03604856 -0.15471822 0.3626389 -0.23346475 0.08856228 -0.2285435 -0.1163674 0.35576412 -0.50712574 0.075283974 -0.0007224163 -0.113821626 -0.17403182 -0.26724124 0.033318024 0.22298577 -0.11545942 0.2656355 0.43802357 0.15815285 0.019471044
1137 -0.13827564 -0.17990614 0.16057546 0.15605186 0.12750816 -0.2976018 -0.08304646 0.11954242 0.5674077 -0.31148285 0.12311376 -0.43960994 -0.35219017 -0.17388329 0.021423452 -0.5414571 0.29659986 -0.0014695241 0.3156027 0.046259437 -0.049759362 -0.18445298 -0.3243024 -0.21614598 0.13655363 0.014644306 -0.19883081 0.33277944 0.23030135 -0.16644391 -0.30989388 0.0004075606 -0.16704506 0.08753849 -0.15134618 -0.48921144 0.058969438 -0.1742829 -0.049463473 -0.01621034 -0.08548326 0.04185992 0.09477307 0.3620144 0.25798658 -0.19555138 0.18616652 0.30990916 0.016358728 0.02413591
1275 0.4829417 -0.12296601 -0.4336537 0.21992977 -0.2665407 0.18823504 -0.21048722 -0.002066566 0.68603694 0.011936924 -0.22667676 -0.5104922 -0.027149176 -0.10085159 0.18742855 0.31799722 -0.25163895 -0.13384636 0.14886914 -0.107359715 -0.24766363 0.25811163 0.52048814 -0.09838594 0.53448755 -0.6854919 -0.59872025 -0.24662697 0.08181796 -0.37390354 0.452852 0.38282672 -0.22652468 -0.0017281302 0.15973035 -0.06885866 -0.7963671 -0.24399415 -0.12584773 -0.34177053 -0.20794478 -0.0021996577 -0.3954256 0.042083275 0.25994644 0.13701668 -0.17399599 0.22410403 -0.20482786 0.12780079
1457 -0.31940648 -0.68823254 -0.061937805 0.12838082 -0.51865417 -0.4430915 -0.25473654 -0.21440779 0.027865697 0.15411043 -0.12969491 0.05119207 -0.20555124 -0.017277904 0.23426776 -0.13000542 -0.017338948 -0.18150675 0.03552438 -0.12113377 -0.10486375 0.18258846 -0.37137556 -0.26926693 0.259092 -0.33200455 0.36289954 -0.061469726 0.13656335 -0.3032107 -0.0590988 -0.2136489 -0.24441011 0.12786178 -0.22797489 -0.3785886 -0.31905496 -0.73441356 0.4913194 0.5114873 0.04584165 0.44634882 0.19007629 0.16827953 -0.56880826 0.085642435 0.20414838 0.39641246 -0.016313203 -0.31275877
294 -0.2094767 0.2467532 0.00075349305 0.038294345 0.027661737 0.030292368 0.19687599 0.22156382 0.4872357 0.23876187 -0.0033702792 -0.40011302 0.6178076 -0.036257736 -0.41016832 -0.17305158 0.13404231 -0.07016597 0.05099293 0.30278918 0.3839693 -0.45223606 0.3248368 0.0037252037 0.16430493 -0.10081404 0.61174464 0.07083873 0.3084684 -0.17112088 0.13589948 -0.26926893 0.057761714 -0.024581501 -0.48779753 -0.012737759 0.3417013 -0.6117395 0.2590324 0.22396074 -0.7933955 -0.084315725 0.34832507 0.0739222 -0.16932079 0.16576765 -0.06664084 0.3047233 0.24343029 0.6447172
970 -0.1797126 0.08802938 0.2734991 -0.050207626 -0.17745541 -0.042300325 -0.27129868 0.23788741 0.28282532 -0.22730215 -0.24212933 -0.71885794 0.0512852 -0.16249527 -0.19502193 -0.1688853 0.45778358 0.18859127 0.28262395 -0.032311365 -0.145596 -0.100845106 0.2757644 -0.32638472 0.09216798 -0.013757635 0.19480906 0.14895132 0.36875868 0.020479914 0.13162673 0.068600476 -0.07640073 0.10285548 -0.22602212 -0.03165872 -0.018502021 0.022197004 -0.30715948 0.047431104 0.14158139 0.26094452 -0.1975732 0.28811443 0.14920633 -0.2972902 0.2675552 0.16590889 0.22460413 -0.24093677
200 0.65719515 -0.50675696 -0.24179158 0.57761335 -0.783929 0.4351672 0.35691676 0.34552708 0.32420322 -0.25706702 -0.17355649 -0.025819924 -0.28334376 0.653041 -0.004347544 0.3806518 0.0959901 0.26432058 0.1890657 -0.23932205 0.20769003 -0.18412924 0.12773773 -0.8032681 0.112393945 0.29003626 -0.16393597 -0.31158298 0.41407296 0.18020576 0.25078678 -0.29992452 0.027430391 -0.12502457 0.33938143 0.07667869 0.17874779 -1.2254039 0.14339198 0.15555523 -0.21087131 -0.08621082 0.56940603 -0.100650996 0.025586283 0.29393885 0.3735856 0.24229978 0.49031535 -0.00336267
311 -0.09316292 -0.190815 0.78494686 0.32155335 -0.33747137 -0.2041978 -0.47913864 -0.10675484 0.8973168 0.07138794 0.017044175 -0.3035971 0.30469888 -0.054926366 -0.026540443 0.2780219 0.22216836 0.1001139 0.13153477 0.25230902 -0.026619378 -0.13956708 -0.5368564 0.015554329 0.19752601 0.2612262 0.47565615 -0.104351714 -0.01469576 -0.15001035 -0.46508524 0.012497819 0.2775417 -0.23134455 -0.19364282 0.38757652 -0.40558526 -0.25529218 0.23008147 0.008006979 -0.5034467 0.34112245 0.12776843 0.25258178 -0.22677821 -0.614073 -0.39952564 0.10956799 0.19590537 0.038639188
1417 0.09429828 -0.24741521 0.22864404 0.08119683 -0.7056497 0.32172078 0.06086463 0.102542415 -0.031119855 0.062771454 0.5721619 -0.4444482 -0.07862783 0.15978523 0.33231488 -0.092268854 -0.37349457 0.14910953 0.1808029 0.16657747 0.35893413 0.07453206 0.27777967 -0.20353274 -0.103308365 -0.08866353 -0.1761773 -0.2787265 0.008488694 -0.20543584 -0.26016042 0.3579172 -0.4032414 0.05801333 -0.37098426 0.004823741 -0.051749773 -0.4025664 -0.06640104 0.04566968 -0.028760968 0.113226235 0.1515996 -0.051855706 -0.25055102 0.1836803 0.3588544 0.5153041 -0.052860897 -0.00049292436
797 -0.11473978 0.08524389 0.36386186 0.70027953 0.1204646 0.47805262 -0.09893527 0.863854 0.18887928 -0.5304068 0.5186349 -0.22653852 0.09076224 -0.53733784 -0.6944624 -0.29058617 0.82255983 -0.11499496 -0.12562495 0.4973393 -0.4813833 0.19076723 1.0182279 -0.31194833 0.21131381 0.1347314 0.36635032 -0.06765756 -0.27037174 -0.4216518 0.17693496 0.12693605 -0.40166363 0.72768104 -0.65346855 0.46637842 -0.3225095 0.43813214 0.20347796 -0.29952475 -0.2931319 -0.1457434 -0.09909538 0.25018638 -0.1041308 -0.35324156 0.54869413 -0.84119457 0.70655817 0.5368945
144 0.073761016 -0.72789633 0.063128226 0.155134 -0.017115787 -0.22579187 -0.1188656 0.6952238 0.31640035 -0.40336543 0.30158138 0.27543902 -0.10505772 -0.032249756 0.12880129 0.34484676 0.13056989 -0.21097311 0.029489806 0.15417053 -0.15610775 -0.04871835 0.23830107 -0.37749425 -0.23853113 0.20608804 0.026417417 -0.104960255 0.4496095 0.2289559 0.18681473 -0.21718365 -0.4168236 -0.30490276 -0.77833575 0.3474452 0.109106116 -0.6072436 0.51113206 -0.19801648 0.18407936 -0.23798993 -0.40290204 0.37035897 -0.56609386 0.5314455 -0.0289909 -0.14544109 0.26423526 -0.0694005
456 -0.0044513266 0.1662726 -0.32334438 0.074703254 0.020748096 -0.3284349 0.05219808 0.19427407 -0.14108624 -0.18171567 0.08058958 -0.21926525 0.17345192 0.16707534 -0.13346297 0.23880017 -0.12041452 0.09725507 0.0679553 0.01813378 0.14621298 0.19924672 0.09428773 -0.146397 0.0740107 0.08698323 -0.014506279 -0.0961819 0.29918063 -0.2451465 0.15321028 0.23482032 0.024650132 0.26430485 -0.22565141 0.03752943 0.097182505 -0.33462924 0.35479078 0.46051478 -0.1864377 -0.21382925 0.1664915 0.7067847 -0.3661425 -0.28701568 0.12009524 0.3389129 0.28781757 0.31834543
523 0.34687385 -0.35883114 -0.36779746 0.6889563 0.2128048 0.25590107 -0.34307653 -0.18794689 0.45120066 0.463145 -0.24979755 -0.22621323 0.055085007 -0.25010225 0.16478923 -0.049932316 0.36451018 0.054497037 0.13918322 0.16651465 0.08259289 0.3177088 -0.20322214 0.27038485 0.13474944 0.37837443 -0.11822727 -0.2689793 0.029764904 -0.26096168 -0.35154796 0.10394462 0.48922402 -0.17985262 0.08671055 0.08432832 0.058790848 -0.49909505 0.21703292 -0.2315361 -0.56068134 0.07757263 0.15779851 0.19538641 -0.5522767 -0.18952304 0.32939973 0.32295266 0.029909851 0.11675742
255 0.046886854 -0.26603 -0.11524085 0.9444006 0.55872786 0.58787286 0.56769997 0.23073934 0.41100848 -0.29661882 -0.30802336 0.24357286 -0.019822368 -0.41886225 0.035749756 0.6040476 0.35321286 -0.46766156 0.37092507 0.47846493 0.043835 0.3890238 -0.13619547 -0.3095965 0.27090353 0.55521697 -0.13683492 0.5751839 0.44530147 0.028602308 -0.16682047 -0.20461889 -0.4875075 -0.07407965 -0.39750007 0.044471696 -0.13245896 -0.1838824 0.39468175 0.15745528 0.26935348 0.12916131 -0.28540093 0.41439018 0.0427159 -0.25780317 0.43341622 0.24652131 -0.24035013 0.32279912
1127 -0.008915777 -0.3456106 0.46898305 0.07893395 -0.13780592 0.04795885 -0.6943401 0.07653641 0.26930052 -0.043933615 0.22083043 -0.12153546 -0.42948088 0.098874 -0.17557631 -0.06363701 -0.025168838 0.074391566 0.29663536 0.02650425 -0.21132493 0.0010038064 0.005290902 -0.055374537 -0.12760705 0.17236349 -0.13311471 -0.26920664 0.38348466 0.29742 -0.048086118 -0.4218428 -0.46304932 0.34296125 -0.2430758 -0.13566683 0.18612847 -0.2260228 0.047321495 0.13067497 0.015223211 -0.36752853 -0.18480246 0.11063005 0.0857064 -0.26060367 0.19049376 0.4157543 -0.14694904 0.35823086
494 -0.019778293 -0.37932757 0.12000349 0.47894102 -0.3164772 -0.26684886 0.37116894 -0.050300024 0.19801474 0.36002892 0.04387252 0.22403269 0.14197245 -0.30338636 -0.32384124 0.2201044 0.0014018433 -0.03495031 -0.015627326 -0.10942156 0.1193607 -0.429495 0.13758971 -0.07306709 0.29200402 0.024122138 0.16074017 -0.045920517 0.27099138 -0.0022291734 -0.22293523 -0.11394505 -0.7787171 0.20449002 -0.33013713 0.287909 0.6429145 -0.5022591 0.44583517 -0.2613788 -0.060269315 -0.50602674 0.17140356 0.44784516 0.09388204 0.040952582 0.20836306 0.4087262 0.30978182 1.0583774
503 -0.051372338 0.040302042 -0.33720362 0.6983477 -0.011525718 0.11720293 0.018823996 -0.23104165 -0.21703754 0.41978943 -0.21998082 -0.64209336 -0.31822765 -0.33426332 -0.5449831 0.83277816 -0.0009028973 0.2871014 0.13916004 -0.0348685 0.010911588 -0.054504834 -0.13927124 -0.059123427 0.27510068 -0.057067547 -0.14286508 0.34004158 0.21038525 0.2021968 0.06599547 -0.48920593 0.03875556 -0.17293549 -0.19943544 -0.2613995 0.33147627 -0.15784729 0.088041544 -0.039524592 -0.52471435 -0.59450287 0.024082666 0.411177 -0.69016206 -0.3076062 0.09407231 0.42002106 0.070386276 0.32828584
748 -0.22608824 0.25124103 0.103164956 0.026023872 0.27750883 -0.06612694 0.46824038 0.3401674 0.53635824 0.31048882 -0.14347148 -0.2751439 -0.38073215 -0.40951046 -0.62859815 0.3008668 -0.09049031 -0.19527426 0.14550897 0.043641973 -0.31167457 -0.15233992 -0.14344232 0.049488388 0.3185467 0.0044283685 -0.12758183 0.04357582 0.519358 0.34025657 0.049635384 -0.031384196 -0.10655459 0.060968123 -0.36597827 0.4635246 0.12608396 -0.4919804 0.16483493 0.48565435 0.17965983 -0.22508262 -0.17671461 0.47371113 0.06365861 -0.20895389 -0.18263625 -0.12894748 0.36265668 0.55612886
199 -0.30189788 -0.3221496 0.2575096 0.16190846 0.09146773 0.200049 0.3132298 -0.026844027 0.01707105 0.39452147 -0.40213498 -0.49268773 -0.2261428 -0.26178253 -0.34347725 0.15710913 0.47004184 0.0073844916 -0.31584767 0.22266509 0.13290232 0.2883725 0.24919747 -0.16135299 0.06187891 0.13180247 0.52734137 0.219421 0.47688508 -0.20165403 0.07048708 0.15636298 -0.02572889 0.16619352 -0.16764407 -0.21052514 0.3335631 -0.940981 0.08536406 0.012949268 0.021270014 -0.50891405 0.09569164 0.5378152 0.22704583 -0.048017964 0.06577612 0.028612427 0.4498594 0.5317025
1139 0.12266802 -0.00941584 0.35305828 -0.05522239 -0.24246176 -0.111581266 -0.3074897 0.026592484 0.14496434 -0.10347064 -0.07356841 -0.4842967 0.043142084 0.055611998 -0.20673843 -0.11426302 0.2650509 0.30718124 0.0653409 -0.0687127 -0.101363204 -0.051379494 -0.3394313 -0.13644673 0.06906567 -0.08203134 -0.16178016 -0.29352978 0.29833466 0.23598748 0.06877584 -0.4702337 -0.05945446 0.34312537 -0.083608754 0.21303014 -0.149997 -0.37734962 0.18755935 0.26820296 -0.021418676 -0.09841716 -0.12019631 -0.13802232 -0.20566118 -0.20440346 0.3395261 0.5432251 -0.0799079 0.014448918
408 0.21152571 -0.63495654 0.8788374 0.4661342 -0.15864462 -0.49079692 -0.38198945 -0.48057264 0.22822382 0.08455635 -0.42127573 -0.73229563 -0.36922917 0.11485238 -0.29595792 -0.31343237 -0.40418193 0.3709975 0.12066454 0.2020274 0.1585518 0.20377097 -0.13098677 0.045390766 -0.2610468 0.15060222 -0.3487906 -0.14079547 -0.034891702 -0.86477935 -0.021020839 -0.01963503 -0.28560612 -0.2824744 0.049580213 0.7812673 0.021148704 -0.26291806 0.0026897034 -0.032078777 0.08219028 -0.21372932 0.64002454 0.4605967 0.08400062 -0.5187558 0.71130306 -0.14209706 0.13195482 -0.018486857
338 0.13486724 -0.3373364 -0.3063082 0.15892722 -0.25925156 -0.10919077 -0.11854751 0.42750326 0.42827314 0.14294747 -0.08910546 -0.03343456 -0.040370174 0.054419108 -0.36760166 -0.029427646 -0.31259418 -0.17781307 -0.048006866 -0.4686041 0.46447027 0.12659809 0.13922644 -0.13159278 -0.017680826 0.3170804 -0.4140433 0.058733877 0.03422827 0.048407074 -0.43596867 -0.14649983 -0.08881747 0.1918042 0.0018651362 0.48591998 0.23906244 -0.3282924 0.3493451 -0.10161406 -0.06639707 -0.0703711 0.31706592 0.21418624 -0.5068448 -0.46224606 -0.046656832 0.5380443 0.33718693 -0.14858636
711 -0.52618027 0.03735939 -0.034494407 0.22816059 0.110094495 -0.58076453 0.5196734 0.2146215 -0.04980085 -0.08580654 0.42279994 -0.4424876 0.33053002 -0.07499776 -0.90452546 0.08872805 0.44639793 -0.34318995 -0.028135452 0.8451764 0.02937052 -0.6551404 0.458165 -0.37823847 0.060232677 -0.5812334 -0.10938195 0.854554 0.46915933 -0.023767127 0.11421481 0.25650352 -0.08581436 0.10554319 0.075483486 0.62117946 -0.3425313 0.31851605 0.56390315 -0.11566384 -0.36992836 0.23821713 0.1356002 0.9263574 -0.10772556 -0.7525317 0.4835261 0.35111824 -0.2013402 0.41224116
1365 -0.047451653 -0.2071498 -0.07618151 0.005399881 -0.04335906 -0.17413735 -0.42513064 0.06038136 0.13785987 -0.011050923 -0.35941383 -0.5580886 0.16418938 -0.14397131 -0.50451624 -0.14516194 0.26084694 0.09807952 0.42602137 -0.0841081 0.020928215 -0.19788577 -0.11844706 -0.18037961 0.02510306 -0.17770602 0.4079332 0.11789858 0.31552532 0.026110457 -0.019831315 0.08259941 0.19864374 0.049986847 -0.010689935 0.06325361 -0.045224514 -0.2278613 -0.13697062 0.026734876 0.045313466 -0.0053999885 -0.39709356 -0.12509291 -0.04101028 -0.35104188 0.3717517 0.6172318 0.14743352 0.045818135
1545 0.4629073 -0.079084426 0.4063895 -0.008411383 -0.2444217 -0.17639546 -0.65551233 0.25629595 0.49970675 -0.09083483 0.16967484 -0.32271948 -0.13569608 -0.017950177 -0.1019293 -0.26732635 0.07030748 -0.21749172 0.18571374 0.031221632 0.00421758 -0.18235731 -0.19741876 0.0155256605 -0.26438585 0.036546122 -0.08071264 -0.2425674 -0.06392852 0.17985928 -0.27859834 -0.12282003 -0.21128689 0.2410956 -0.430464 0.22802798 -0.23859422 -0.054665796 0.34736982 -0.06558034 0.11325938 -0.012253246 -0.13390703 0.17287254 -0.07893509 -0.04585814 0.48308215 0.25475645 -0.050528537 0.31842163
1077 -0.020285688 -0.007416339 0.56999296 0.0031824042 -0.16484863 -0.07683173 -0.32871532 0.24069427 0.20983271 -0.09643245 -0.19016463 -0.36523694 -0.4642262 0.17010678 -0.08077613 -0.13757686 0.28826287 0.27284294 -0.038336992 -0.004026192 -0.0772706 -0.00853216 -0.02589801 0.013744003 0.2098536 -0.091220394 -0.2454181 -0.09111664 0.61206114 -0.052278668 -0.00823822 -0.21475784 -0.26877403 0.3815188 -0.38638237 0.15737496 0.1014699 -0.17455733 -0.045143653 0.32820326 0.18365228 0.13093795 0.03801726 0.015726678 0.048991546 -0.09991296 0.069702074 0.43194115 0.24028036 0.3161529
886 0.0906449 -0.41275978 0.005114231 0.44270805 -0.5186144 0.40241188 0.64568543 0.6060104 0.2953011 -0.19341753 0.3398351 -0.1104593 0.15315722 -0.21503395 -0.4591806 -0.17699789 0.50430584 0.57579756 -0.35971862 0.17818442 0.399603 0.5380738 0.0013820506 0.07879197 -0.3528775 -0.37741745 0.3172563 0.013623526 0.5242111 0.23091994 0.4302513 0.54098946 -0.15773243 0.55265343 -0.2127528 0.1590539 0.032831755 -0.19683039 -0.14142956 -0.27415216 -0.2586014 -0.17594339 -0.42427832 0.7243768 0.47275254 -0.6843969 0.08130865 -0.5132266 0.29091558 0.4623234
9 0.5198392 -0.10964404 0.048023753 0.6224746 -0.1732017 0.046263874 0.43034717 -0.19320862 0.712782 0.10187597 -0.14797212 -0.113851465 -0.2111535 0.21892238 -0.10235937 -0.06936664 0.39142948 0.2110535 0.44435552 -0.2517215 -0.046402186 -0.014625413 0.2742573 -0.010188776 -0.15536363 -0.009733977 0.15755445 -0.71649384 0.12017374 -0.057078592 -0.18179472 -0.16253775 0.124329776 -0.3159059 0.22163023 0.28203285 -0.020854488 -0.40399536 -0.01393529 -0.5142155 -0.35152435 0.2033322 0.32835975 0.27330127 -0.10344099 -0.36584976 0.20660126 0.24600966 0.20747823 -0.021181922
1249 0.08277479 -0.31038955 -0.633029 0.18073133 -0.5601743 0.22739573 -0.30573633 0.008195433 0.26414567 0.15950546 -0.08266108 -0.7248853 -0.56966895 -0.10080686 0.2153659 0.2200394 -0.08729692 -0.019094143 -0.08835724 -0.19047178 -0.48182857 0.17305282 0.6684451 -0.41423616 0.013943372 0.09461195 -0.41697335 0.057358246 -0.2026406 -0.052642178 0.2216533 0.27937433 -0.12045086 0.5115501 -0.3972295 -0.034796137 -0.24593659 -0.5811999 0.34861466 -0.48481053 -0.17783684 -0.050701387 -0.5033226 0.080386095 0.02783235 0.29232886 -0.64889646 -0.00039618733 -0.26129422 0.1763912
243 -0.052292243 -0.2792577 -0.10860592 -0.10706367 -0.16613686 -0.19237651 0.42035928 -0.00875406 0.2459881 0.08552605 0.010068123 -0.31344965 0.665556 0.10288469 0.08095511 0.20014988 0.14385697 0.08992091 0.11308697 -0.34985706 0.824563 -0.12040873 0.6411568 -0.3311276 -0.160759 0.1371966 -0.54395264 0.12013315 0.28574646 -0.2738588 0.19388865 -0.050026074 -0.21353471 0.3061368 -0.16595452 0.3389375 0.30321634 -0.62738717 0.611747 0.3991756 -0.048664358 -0.17804696 -0.010111432 0.40523985 0.07713568 -0.07601826 0.18546875 0.26216474 -0.3581378 0.072462164
1144 -0.050974533 -0.11682322 0.347382 -0.011153995 0.08762525 -0.44308978 0.19263583 0.307762 0.34802404 -0.13365903 0.31331232 -0.3477082 0.0955541 0.13171391 -0.07075982 -0.31172803 0.4788975 0.33463472 0.41821733 -0.08872446 -0.27331457 -0.3034172 0.05857583 -0.26732498 0.23664626 -0.32298312 -0.04125997 0.4514625 0.4380376 0.018120712 -0.043436583 -0.101565465 -0.009713162 0.1277787 -0.079336695 -0.0014964899 0.15952097 0.07690225 0.07838986 0.1728387 -0.28758055 -0.34549424 -0.17216708 0.15986289 -0.10486918 0.007401764 0.34168053 0.43484306 0.046881862 -0.0212389
863 -0.11057995 0.08054317 -0.041147977 0.46375942 0.32289225 -0.12014827 0.25704378 0.15581991 0.08246052 -0.09527883 -0.0026625285 -0.2894554 0.38985786 0.055026945 -0.20582595 0.18609613 0.068531655 0.031960845 -0.07595106 -0.1146088 -0.19274925 0.24442399 -0.031540122 -0.13043343 0.17937416 0.04229614 0.19544916 -0.017471889 0.13980956 -0.11491512 0.08656164 0.40365583 -0.0009453211 0.18375029 -0.23835304 0.21159238 0.44472837 -0.68919694 0.15761179 -0.2821064 -0.15150432 -0.38188237 0.045881413 0.49197608 -0.34785482 -0.0071394155 0.14266655 0.17623217 0.0084543135 -0.10412277
935 -0.43511832 -0.37488872 -0.29936883 1.1448288 -0.47342196 0.16264352 0.2438288 -0.8035062 -0.24783605 -0.41910413 -0.21280669 -0.5951746 -0.22286862 -0.15243246 0.71967274 -0.6061093 0.10364856 0.34695715 0.43630996 0.6180288 0.4072748 0.10453532 0.4576399 0.13777988 -0.48402056 -0.70663893 0.09948942 -0.058558434 0.29080483 -0.057136398 -0.33632782 0.08909508 0.13934815 0.083269194 -0.8459749 0.15855396 -0.521583 -0.18263218 -0.60764533 0.029126532 -0.21656026 0.033402417 0.7455161 0.45703855 -0.68365103 -0.15494078 -0.015417216 -0.09236196 -0.41759986 0.018332858
1074 0.031111613 0.060966887 0.24971609 -0.073552705 -0.40521795 -0.25951976 -0.30993757 0.0787921 0.5369347 -0.19533673 -0.03598048 -0.58791465 -0.09003831 -0.13178213 -0.24844755 -0.120102696 0.12611493 -0.0014098283 -0.0845783 -0.057394143 -0.017904289 -0.012227185 -0.07156316 -0.09495305 0.02033658 -0.22440527 0.35951927 -0.35209468 0.41216373 0.067780875 -0.062201846 -0.15765853 -0.0024076747 0.3946039 -0.08457156 -0.041801058 0.1693169 -0.015818382 -0.07691188 -0.123900235 -0.0983138 -0.09335705 -0.2901006 0.27523744 0.12118521 -0.31889173 0.26030818 0.1830371 0.13070995 0.48905706
1257 0.47069874 -0.29971814 -0.14675102 -0.12265422 -0.26759118 -0.021709023 -0.06908848 -0.054644518 -0.25879094 0.046956677 -0.323861 -0.30380863 -0.15223055 -0.46808058 -0.2094902 -0.38184127 -0.13509414 0.5728608 0.4087643 -0.05746309 -0.4027462 0.111852005 0.7775579 0.1277942 0.47468096 -0.18899758 -0.19627607 0.3965098 0.03411763 -0.17227978 0.19503641 0.009658251 0.49750027 -0.13800414 -0.3542783 0.02521483 -0.70706064 -0.21715274 0.28826317 -0.20011453 -0.33160993 0.2989629 0.121118255 0.22704566 0.29241547 0.4430393 0.03612166 0.5029662 -0.47406587 0.7562762
1690 -0.38302448 -0.41218144 -0.5349869 -0.38386074 0.08777888 -0.028883021 -0.11772009 -0.0074573 0.9139247 -0.14514461 0.043509755 -0.24061863 -0.2814859 0.12066161 -0.28399917 -0.1969097 -0.023119947 0.047283117 0.22222096 0.10669835 -0.017585034 0.5901224 0.3181465 0.07423434 0.13625155 -0.28013644 -0.26840967 0.85457194 -0.5462546 -0.5258187 -0.06268527 0.34849617 -0.38809618 0.121866025 -0.89199334 0.037876755 -0.82176 0.094465695 0.25542137 -0.16113113 -0.24378748 -0.24718435 -0.5192031 -0.3080304 -0.31271768 0.03790122 -0.002034883 -0.1842257 -0.20762712 0.49448746
405 0.0848012 -0.33129445 0.1604135 0.36213127 -0.36012793 0.29156005 -0.3765692 0.17934126 0.18462726 0.098856226 -0.12961821 -0.118409224 0.22737686 0.1292707 -0.5548733 0.26197192 -0.012565277 0.1589714 0.013414249 0.07105274 0.2944622 0.5475154 -0.069268815 -0.2026682 0.060065605 0.37879795 0.09416158 -0.20021829 0.03473786 0.29736218 -0.3606815 -0.3193286 0.18600242 0.11897892 -0.21416916 -0.009192412 0.043049164 -0.27838773 -0.25906044 0.08595018 -0.13283406 -0.07418542 0.22784497 0.4901516 -0.18268988 -0.65046847 -0.057332244 0.28937894 0.17645423 0.0041245576
1122 0.06493511 -0.086720854 0.16357554 -0.21232286 -0.31369177 -0.29192644 -0.06478042 0.24335356 0.3780092 -0.08773916 0.035252664 -0.4448384 -0.3453483 0.10649967 0.0033782586 -0.44198647 0.16299646 0.18360302 -0.06084637 -0.0065318537 0.07095557 -0.17099866 -0.060318112 0.538135 0.24704134 -0.03827756 -0.11849312 -0.15515323 0.54868805 0.2345255 0.0014978327 -0.1281811 -0.26986182 0.41263923 -0.24781612 -0.037957277 -0.10590846 -0.18523547 0.23571414 -0.15453131 0.17162788 0.36587358 -0.13683839 0.3936724 -0.09968783 -0.30832094 0.113707736 0.3806903 0.21951339 0.07358964
806 -0.48379356 -0.27654034 -0.25773948 0.09099201 -0.13751997 0.37689248 -0.13202225 0.15742548 0.49943027 0.01968178 -0.2999893 -0.39748967 0.16807811 -0.0037476926 -0.2165207 -0.03700332 0.348006 -0.1149919 -0.20253958 0.6695709 0.13430558 0.4035457 -0.39862373 -0.009003749 0.35686862 -0.62746453 0.7734173 0.24994253 0.15919085 -0.027772497 0.07529284 0.25814152 0.09629634 0.38761887 -0.5297694 0.052040733 -0.1176005 -0.12392108 0.2997725 -0.018997706 -0.12207634 -0.284178 0.3193061 0.7259278 -0.22863999 0.29747492 -0.090512596 -0.11555546 0.90156364 0.2787928
1684 0.017132232 -0.49355495 -0.090833806 0.043199267 -0.058969323 0.05332926 0.28216642 0.042002518 0.060441855 0.2091547 0.016567439 -0.118762605 -0.31913537 -0.39681393 -0.10424441 0.043039754 -0.2560083 -0.0031707021 0.38684666 0.05897547 0.082682945 0.274149 0.3915253 -0.5068159 0.3329865 -0.26936644 0.20220464 0.38081208 0.021192929 0.14502548 0.28349194 0.28926384 -0.5494831 0.13161647 -0.42028484 -0.16233508 0.27393535 -0.0026007728 0.13980432 0.16115917 -0.1148048 -0.19337894 -0.48386335 -0.17207053 -0.2706101 -0.29186416 0.15636663 0.5920772 0.12901308 0.21999998
1176 -0.21132411 -0.37736943 0.20629771 0.0981548 -0.23571286 -0.15032808 -0.23451358 0.29306382 0.23647946 -0.14513 0.039161947 -0.025739131 -0.0742379 0.24025223 -0.17662401 -0.24473536 0.13161792 -0.03719296 0.25914064 0.036666222 -0.28423268 -0.10958318 -0.1258899 -0.26572558 0.23849046 0.10700531 0.3116227 -0.014552751 -0.03775062 0.30383492 -0.097978264 -0.2049777 0.052339483 0.19434401 -0.30615756 -0.26183468 0.04123305 -0.16618745 0.0077421726 -0.36590093 0.0141396085 -0.05963201 -0.26145053 0.22243935 0.015879668 -0.006791276 0.4118938 0.6821907 0.06718173 0.34068513
1138 -0.08962109 -0.041398156 0.1355653 -0.0148012135 -0.27372214 -0.53955454 -0.17608367 0.014986249 0.28143114 -0.5010511 0.14072908 -0.61686635 -0.064471334 -0.015070042 -0.20117483 -0.10251303 0.2318211 0.15660284 0.31547236 -0.063845776 0.06557276 -0.32897168 0.54273367 -0.2934173 0.04977827 -0.11019305 -0.14163664 0.13470301 0.21810983 0.025960384 0.03350047 -0.06616976 -0.07970537 -0.06492647 -0.03929186 -0.19152741 0.24901752 -0.06408616 0.15932976 0.28961676 -0.01525296 -0.015049765 -0.16040328 -0.061902113 0.017180381 -0.30357984 0.31780115 0.41038275 0.108768255 0.041464478
1180 0.15480925 0.16664165 0.13649195 0.20607169 -0.2658053 -0.21535784 -0.18509446 0.2671 0.2930714 -0.21230832 0.10936278 -0.4171855 0.031567596 -0.036466245 0.062469803 -0.5345521 0.030066822 0.3793213 0.0918971 -0.08303955 0.25045168 -0.11019461 -0.2546765 0.01981486 -0.08542433 -0.14340194 -0.13514006 0.13064425 0.073385656 0.07860952 -0.0034508808 -0.0049500894 -0.28899163 0.30132183 0.02187036 0.33971044 0.2780722 -0.20652328 0.20295903 -0.0032726093 0.037255555 0.23100264 -0.11026768 0.2961092 -0.28965572 -0.036273148 0.10015583 0.67545944 -0.081572525 0.08751021
1066 -0.11629113 -0.39718923 -0.065724745 -0.0037292205 -0.33724564 0.18906294 0.4052041 0.11659142 0.5114129 0.113393076 -0.11401402 -0.44648227 -0.025228709 0.07263625 -0.0131644 -0.25660557 -0.3130615 0.591969 0.15763593 0.2917514 -0.23764168 0.34572452 0.015539167 0.075082764 0.283795 0.15143937 0.27682862 -0.538906 -0.5963095 0.38149455 -0.3718516 0.11923605 0.13820842 0.2353906 -0.15627226 0.42553708 -0.033628594 -0.35762516 0.12310741 0.25158042 0.25528318 0.3694992 -0.4013103 0.16379997 -0.044087578 0.115109004 0.2444431 0.442842 -0.48579755 -0.21962243
1347 -0.28178972 -0.68316203 0.15626276 0.24175726 -0.116449915 0.033574846 0.35917747 0.27283743 0.52294964 -0.33497998 -0.13862428 -0.19836402 0.09785298 -0.024021642 -0.20229816 -0.10881163 0.04424141 -0.18605033 0.10276276 -0.016734734 -0.04679614 0.12880266 0.465418 -0.44790214 -0.17856231 -0.14054585 0.39969167 0.14201769 0.07632113 -0.4839033 -0.41985422 0.24498774 -0.56183285 -0.24695954 -0.4684786 -0.344824 -0.23645987 0.12734434 -0.41429535 0.12432361 0.1257929 -0.049195707 -0.61670357 0.062126663 0.0015524344 -0.1375494 0.26128936 0.23465094 0.2645457 0.19235846
0 -0.5061728 -0.24881993 -0.3663656 0.3719467 -0.09043716 0.10357279 -0.021676974 0.027684752 0.4010721 -0.015407518 0.3826412 -0.24704005 0.2825032 -0.13005558 -0.4549999 -0.4398855 -0.12607205 0.94260955 -0.3579591 -0.1731261 -0.17137147 -0.0528896 -0.0944165 0.0739276 -0.2925256 0.27061784 -0.13139494 -0.23026483 -0.17317288 -0.03572444 0.39951932 0.3543678 0.094623104 -0.1021846 -0.595542 -0.09106542 0.28461015 -0.6844518 0.24065793 0.2908066 -0.047076747 -0.32408813 0.25470725 0.3559049 -0.15832844 -0.13195577 0.28484443 0.0989199 -0.07009773 -0.13030137
177 0.05137768 0.15319511 -0.45567486 0.09084095 0.24368475 -0.25739124 0.26652703 0.16614713 0.16724321 -0.04362915 -0.08860636 -0.2245891 0.01926632 0.030457651 0.15209031 -0.12104538 -0.0900682 -0.46153948 0.3422732 0.32232928 -0.2211848 0.31315818 0.03775152 -0.10041827 0.24140832 0.08224638 -0.034080602 -0.0778102 0.060739767 0.10995756 -0.044746455 0.37959993 0.04976837 -0.2747485 -0.0940095 0.12785387 -0.108593315 -0.6036183 0.105848916 0.16115147 -0.21062897 -0.1845776 -0.12750426 0.6921898 -0.31039765 -0.019288037 0.56228745 -0.0171153 0.26250955 0.109782286
710 0.2216105 0.33497268 0.12886764 0.10221928 0.018999426 -0.056403507 -0.06408386 0.1274254 -0.059636343 -0.3661655 0.32580644 -0.23259556 0.58772933 -0.3359062 -0.18264148 0.20507126 -0.14137967 0.15185991 0.34733465 0.17386019 -0.13820356 -0.064199395 0.68406117 0.2510407 -0.08551723 -0.10847732 -0.17203954 -0.13457178 0.5543458 -0.47510684 -0.029948372 0.0064970143 0.16122302 0.23617935 0.07961868 0.3198795 0.44472072 -0.6572792 0.18279904 0.21560596 -0.55443895 0.13513829 0.28860238 0.21375826 -0.20400457 -0.7565733 -0.06081368 0.21314262 -0.4158067 0.57650334
342 -0.15565921 -0.3416195 -0.2116405 -0.030676968 0.015803777 -0.017940221 -0.21110593 0.1334921 0.3352238 -0.07534692 -0.07237486 -0.20089862 0.43798092 0.031114697 -0.023704858 -0.23125978 0.031865004 0.3357169 -0.31418326 -0.18174534 0.27930862 0.23664527 0.2922498 0.15852661 0.25279748 0.18591882 -0.19506362 -0.4224995 0.07509147 -0.30508554 -0.49059033 0.32188478 0.27225557 -0.30838975 -0.29578167 0.19194789 0.4472211 -0.5459706 0.50174344 0.12729533 -0.13183604 0.18790255 -0.08910484 0.44544214 -0.17249349 -0.37295336 -0.23346886 0.36997148 -0.020595493 0.055394933
300 0.23196034 0.031922717 -0.24322115 0.24353439 0.18972819 0.37425944 0.22531122 0.44485456 0.22789705 -0.12440421 0.002631263 0.027815351 0.2648025 -0.39857182 -0.22448023 -0.26284826 -0.05330015 0.04966204 -0.18589155 0.09334732 -0.18122144 -0.34347034 0.09644266 -0.2252669 -0.15150018 0.020460255 -0.11409092 -0.104213744 0.28842935 -0.1994206 0.2557332 0.04430099 -0.47669894 -0.03809878 -0.17654549 0.017747454 -0.3528314 -0.6888347 0.039962646 0.09169932 -0.098249055 -0.2693972 -0.12134329 0.4336109 0.26290685 -0.6923873 0.17022492 0.11619244 0.38508204 0.040451653
1086 0.17928314 -0.12851247 -0.28829885 0.2101612 -0.25684074 -0.22169943 0.0151354745 0.01363662 0.5375392 -0.41378796 0.29148218 -0.530968 0.04390635 -0.09587965 -0.31303397 -0.38862002 0.48228905 0.20249832 0.41898045 0.100584514 -0.28887644 -0.1958535 -0.13542461 -0.31459174 0.4421543 -0.090824746 0.111648224 -0.09789333 -0.009253398 0.13440709 -0.2805567 -0.039435457 0.03154573 -0.013085477 -0.15979604 -0.21312818 0.113371685 -0.27292898 -0.44928598 -0.141826 -0.04095414 0.15818256 -0.22813015 0.11801322 0.26253825 -0.011500582 0.12080632 0.22589047 0.40592057 -0.14823681
1136 0.24708565 0.21208562 0.16288176 -0.012443595 -0.15784657 -0.14076608 -0.30554923 0.4419795 0.3487241 0.0807972 -0.02764544 -0.35960808 0.06849115 -0.015606724 -0.27655482 -0.2969115 0.4156356 -0.08331235 -0.06754708 -0.36294124 -0.26592454 0.008343104 -0.10962342 -0.22105186 0.09282889 0.007195343 0.09074391 -0.037834764 -0.4012072 -0.2482003 0.04768047 -0.0777445 -0.2106725 0.30921954 -0.22634503 0.32651722 -0.08018654 0.06425302 0.17843659 -0.050116215 -0.08961502 0.33741656 -0.27630523 0.4140044 -0.17679301 -0.1670837 0.5150549 0.38525665 0.09942006 0.08774354
605 -0.34520736 0.0523188 -0.023586951 0.10604585 -0.20853777 -0.20537663 0.089127444 -0.22442286 0.07701377 0.031295456 0.42861876 -0.65955377 0.16035847 0.034903243 -0.15113378 0.17958671 -0.06433067 -0.016526617 0.4015055 -0.21583049 0.41175988 0.29544201 0.28414276 -0.014986128 0.0836286 0.16005342 -0.27107492 0.07068572 -0.0024806971 0.025201451 0.19629808 0.48019823 -0.054046877 0.35105872 -0.42971954 0.26674867 -0.07635845 -0.04223465 -0.018097324 -0.26289567 -0.055629786 -0.108094744 -0.18258584 0.70776325 -0.3212699 -0.44439134 0.0001371116 -0.30208862 0.40337586 0.059250083
1438 -0.033664737 0.052038964 0.3795436 0.30710915 0.07837439 -0.31972826 -0.19166295 0.18963073 0.39524361 -0.24988213 0.11014387 -0.45033553 -0.17670979 -0.3500118 -0.1876973 -0.23424186 0.3275307 -0.026027726 0.013404991 -0.034690574 -0.008904771 0.088661164 -0.17427494 -0.14854042 0.07345258 -0.28658798 0.22337453 -0.24662188 0.086430706 0.41053733 -0.1909658 -0.08173658 0.1471455 0.24545455 -0.15600267 0.029267667 0.07376694 -0.1886351 0.07719826 -0.024927938 -0.13168806 0.1096081 -0.30196276 0.0081184 0.26814532 -0.47113708 0.13578926 0.3107115 0.05445713 0.09507379
953 0.08635758 -0.076118514 -0.19088651 0.0130905025 -0.064945206 -0.21999744 0.2551813 -0.010370214 0.3778688 -0.09384685 0.121106006 -0.47115952 -0.25459185 0.22445135 -0.067907706 -0.31964248 0.032225717 -0.045486126 0.2630991 0.106558084 0.03847029 0.093512096 -0.03239971 -0.29034984 0.2721654 -0.06917808 -0.17785437 -0.053118747 0.39486676 0.08724246 -0.08461981 -0.29581496 -0.13989253 -0.37089846 -0.106844604 -0.10749504 0.20762755 -0.40108618 -0.23022561 -0.21966559 0.0070579667 0.23095241 -0.29117566 0.15376486 0.3181164 0.012862792 0.27962723 0.4930544 -0.023491714 0.13732383
681 -0.10229121 -0.13531747 -0.01047482 0.28352574 0.68501806 -0.3226631 -0.17806469 -0.11213034 0.22142987 -0.13347062 -0.12034139 -0.4723367 0.009758448 -0.45747945 -0.026893657 0.072608165 -0.45428026 0.31990248 -0.042164553 0.50723064 0.11539423 0.101420835 0.2283098 -0.44375902 0.13768502 0.22149038 -0.22348504 -0.23815796 0.17518876 0.17979336 0.4309991 -0.017084653 -0.17694105 0.18230696 -0.55942464 0.21915522 0.25219882 -0.84929305 0.18285331 -0.18829776 -0.0008897799 0.13951111 -0.17980798 0.744115 0.533846 0.13412791 0.17363888 -0.29120612 0.1788214 -0.33892205
353 -0.2689159 0.07196759 0.27400354 0.21077105 -0.18455486 -0.08316716 -0.44593233 0.36166725 0.031867735 0.17890103 0.081470296 -0.52908945 -0.08710549 0.13098073 -0.32899737 -0.24831292 -0.12785965 0.14571807 0.25638536 0.055656046 0.21159448 0.35258946 0.26909083 0.3327966 -0.049521323 -0.38664743 0.38304275 -0.34451717 -0.15655223 -0.699498 0.026481908 -0.31261727 0.36568114 -0.6888331 -0.08317228 0.6861248 -0.37137377 -0.6266564 0.17541045 0.42356256 -0.27937564 -0.14757968 0.44684875 -0.21189196 -0.24688159 -0.30628842 0.3087372 0.1398287 -0.23092054 -0.017370477
428 0.40121523 -0.35607034 0.026396923 -0.0037482043 -0.0715477 0.16180591 -0.19515586 0.056073103 0.23079082 -0.34352323 0.44224417 -0.41580617 0.33271345 0.050181773 -0.36411703 0.05732091 -0.19851473 0.1566861 0.41776872 -0.19703451 0.29941526 0.36827162 -0.14592332 0.0880822 -0.029621731 0.042109776 0.008407316 -0.18225668 0.14921518 -0.10342233 -0.17075776 -0.07805738 0.04944295 -0.055926207 -0.30173868 0.27626413 0.21948431 -0.2718245 0.47898832 0.16063291 -0.18980734 -0.31527686 -0.07814173 0.19363508 -0.3383603 -0.19413576 0.12370453 -0.18269107 0.46172678 -0.1487237
434 -0.20214456 -0.08188745 -0.48488128 -0.00993178 0.15722035 0.14667216 -0.11485676 0.20446526 0.52740544 -0.3068923 0.30755025 0.10801072 0.042870495 0.018012805 -0.5709774 -0.13457502 0.00043058302 0.047510806 0.052999493 0.12842314 0.32024306 -0.02725432 0.2888604 -0.23701613 0.18518192 0.16475046 -0.076158136 -0.15024632 0.30807903 -0.0306383 -0.009566714 -0.0070195305 -0.40624398 0.5129582 -0.46635133 -0.004401251 0.23304887 -0.9555189 0.26601046 0.104494855 -0.4485193 -0.07466235 -0.010438391 0.3040011 0.020413794 0.07602657 -0.12767066 -0.3829368 0.15196829 -0.24262823
118 0.55984217 0.17589697 -0.81567866 0.2097106 -0.15090996 0.05013909 0.24981989 0.07432031 0.1362499 0.117455296 -0.039926246 -0.44558483 -0.60914326 -0.18095848 -0.11361812 -0.07030844 -0.14802614 0.32955295 -0.11092301 0.2739046 0.4423198 0.3546338 0.92095757 0.14145212 0.45915446 0.022733733 0.33978984 -0.10227694 -0.015279997 -0.26793405 -0.3678739 -0.092027664 -0.44505206 0.076383315 0.056923736 0.0044301795 -0.11794405 -0.4983626 -0.10481503 0.37143502 -0.35048997 0.088910416 -0.44082025 0.63527757 -0.16381799 -0.15639704 -0.13847215 -0.30222112 0.43328947 -0.103479035
488 -0.52121794 -0.1184027 0.46464223 0.51930934 -0.21540855 0.11047299 0.15957724 -0.1374665 0.4016191 -0.082596585 -0.50129807 -0.4071621 -0.3677268 0.015491849 -0.60090417 0.47603744 -0.5613111 0.123568095 0.25650388 -0.44260705 -0.38905093 0.6186521 0.57386327 -0.35645908 0.6318476 -0.4115857 -0.41293707 0.42636183 0.7580589 -0.32129398 -0.4458636 0.13046397 0.17374328 0.5833092 -0.54531026 0.316321 -1.0903102 -0.23183213 0.5577522 -0.8728424 -0.077542566 0.14378455 -0.49506804 0.23090547 0.6711811 1.0663395 -0.44440332 -0.110673405 -0.2713292 0.20288755
279 -0.03645827 -0.32888874 -0.28596106 0.18448454 0.22904348 -0.24897802 0.39774516 -0.27428123 0.2842851 0.11329892 -0.77685577 0.33728915 0.09480806 -0.011343765 -0.07325973 0.23483536 0.07056421 0.29941973 -0.07900663 0.791977 0.5733346 -0.50740814 0.22191696 0.06549289 0.13036546 -0.056253962 0.021087755 -0.0753321 0.85208946 -0.031607803 0.32513213 -0.27748758 -0.060153306 0.10953395 -0.776891 0.5510136 0.02574617 -0.4541216 0.41636422 0.20772187 -0.23809958 0.20503876 -0.53431463 0.61911505 0.2869994 -0.079831764 0.28199115 0.4123288 -0.121797614 0.51362514
1416 -0.039183877 0.28687918 0.12436345 -0.050345402 -0.39019904 -0.22493228 -0.3479163 0.06216136 0.4456629 0.0316819 0.005919468 -0.67216307 -0.471115 0.104501426 0.11792489 -0.52004874 0.35281196 0.27572438 0.16504939 0.117037065 -0.123856425 0.14222552 -0.17975006 0.08354662 0.154405 0.291799 -0.0062207323 -0.2621057 0.07450021 0.10874532 -0.28558043 -0.113032155 -0.1015514 0.5207361 -0.06905504 0.037982978 -0.041671857 -0.3188453 0.21918812 0.0069909203 -0.10253981 0.2336982 0.40333182 0.360621 -0.11698007 0.016804704 -0.13905042 0.4251848 0.13828157 0.10077453
888 0.048401844 -0.08603435 -0.40701798 0.2679139 0.33386394 0.23767428 0.08052396 -0.09107673 0.38531306 -0.21265833 -0.051320743 -0.47713685 0.024191365 0.110256635 -0.4057643 -0.30904657 -0.3945466 0.11804219 0.35003856 0.18201284 0.22243537 0.21055397 -0.07972802 -0.07029656 0.20626372 0.10819591 -0.5538469 -0.17738439 0.037962206 -0.09857247 -0.02666113 0.23635001 0.26585516 -0.15814844 -0.24361432 0.13143234 -0.34309497 -0.17741795 0.33904415 0.4028048 0.4957798 0.34074596 0.6366087 0.37940887 -0.22635414 -0.23130114 0.14700265 0.45884222 0.23361346 -0.3351337
839 0.053201854 -0.5439851 0.29049152 0.3639995 0.0467828 -0.42113677 -0.41897023 0.16951679 0.28291273 -0.19005854 -0.040012766 -0.20902671 0.025695987 0.2002626 -0.6113086 -0.25294915 -0.279335 0.29009777 0.24614295 -0.47873488 0.37116972 0.13895667 -0.05123373 0.012696215 0.31495866 -0.1753606 0.44405192 -0.33503392 0.014702015 0.02217605 -0.24747859 -0.13324979 0.07731007 -0.3518623 -0.23040664 0.33924997 -0.32849553 -0.018053403 0.7042581 -0.012473092 -0.43381068 -0.23600392 0.5001182 -0.07470833 -0.0058813877 -0.11735091 -0.071872324 0.24856557 0.24047084 0.23798938
804 0.5509903 -0.33194128 0.4225195 0.03126654 0.12449014 0.35289294 0.056396473 0.24728487 -0.21680799 -0.5409218 -0.032876905 -0.056770395 -0.17587683 -0.2608451 -0.61955494 -0.4079028 -0.23627684 0.13017927 -0.37869793 0.26215297 0.46373752 0.4933269 0.29941735 -0.0974575 0.14258492 0.286108 -0.07557442 -0.15353929 0.14729124 -0.40243405 -0.26924887 -0.35866338 -0.07286907 0.33371043 0.03014763 0.4562982 0.016106077 -0.57225096 -0.19562344 0.08366568 -0.09132734 -1.2587917 0.27374026 0.4798498 -0.029561674 -0.34699702 0.23611307 0.7541165 -0.059944782 -0.48161134
1024 -0.14713034 -0.21642056 -0.054448284 0.20597917 -0.069565795 -0.16162086 -0.16403626 0.07958324 0.38553905 -0.37749985 -0.47640648 -0.22105095 -0.21247031 -0.26693338 -0.29520312 -0.106896766 0.42456925 0.10963542 -0.0064386283 0.25612918 -0.0635987 -0.1525049 0.04914953 -0.14767964 0.36618012 -0.47124046 -0.21208319 0.29857612 0.06989107 0.111389875 0.14589854 0.14964887 0.06844163 -0.13586949 -0.21486928 -0.07110763 0.3916069 -0.004687468 -0.07105693 0.05557693 -0.3894644 -0.05236471 -0.15585203 0.21758553 0.23077677 -0.21268043 0.35837156 0.6312027 0.48493493 -0.23413174
377 0.15502878 0.09656098 -0.19138019 0.34729925 -0.20225 0.12052684 -0.049231034 0.069594234 -0.2726723 -0.17622004 0.076383725 -0.26818368 0.35074052 0.35297596 -0.38103005 0.38270956 0.34996605 -0.083428085 -0.024667488 -0.20373185 -0.13088274 0.39785013 0.47757733 -0.25770095 0.17166719 0.056831356 0.056512054 -0.2544732 0.12736183 0.31044936 -0.020223716 0.2650114 0.13898958 0.09541662 0.17936213 0.36081076 -0.03717531 -0.23010336 0.054962546 0.24718909 -0.5459948 -0.12871155 0.0154544385 0.44246247 -0.26362938 -0.36126187 0.2455596 0.3706613 0.26813942 -0.010048635
891 -0.10582637 0.08830019 0.107490204 0.14400515 0.15198396 -0.20016113 0.21150674 0.16351007 0.51516 0.16905452 -0.20538703 -0.21675016 0.25150758 -0.18208413 0.057011124 0.17224316 0.08052094 -0.17326017 -0.07997559 0.22368322 -0.30146754 0.067763 -0.21901713 -0.23900823 -0.11189362 0.116207644 0.12856413 -0.023696624 -0.13082786 0.37263417 -0.33450538 0.18109626 -0.2535092 -0.23204656 -0.051218703 0.3090475 -0.14789325 -0.5190383 0.27895665 -0.042049248 -0.07662687 -0.066508375 0.115539595 0.57888997 -0.1303515 -0.21715516 0.23743646 0.35910287 0.45506606 0.30478787
298 0.22018984 0.3616495 -0.25937203 0.49149513 -0.30146965 0.005985577 -0.060661063 0.20682895 0.7963467 -0.096354336 0.53464454 -0.28809935 0.12181216 0.55603385 -0.14234492 0.22435263 -0.16384783 0.49809754 0.27290475 0.052414954 -0.0052675465 0.52273995 0.002575 -0.08292804 0.43649536 0.39225423 0.21640338 0.032871835 -0.24099311 -0.27310628 -0.13221315 -0.03932908 0.5746706 -0.40972117 -0.16855562 0.16127938 -0.3531182 -0.15395066 0.65950054 0.15927793 -0.20347975 0.29718342 0.5454498 -0.16742043 0.10502955 0.14840521 0.21314362 0.39495033 0.15479694 0.18796079
906 -0.17542213 -0.37453026 -0.15763883 0.68024457 0.0072632176 -0.44305575 0.1091805 -0.11021193 0.38635555 -0.00018421479 0.121069215 -0.0648875 0.31957498 -0.50059074 -0.27558085 -0.018677058 -0.32572967 -0.56569046 0.7637381 0.5539236 0.35959494 0.5701743 0.5447525 -0.41269392 0.39678326 0.009516933 -0.16821091 -0.11433781 -0.121495776 0.45606297 -0.099027276 0.03102605 -0.21467714 0.16645503 0.080751866 0.15068409 -0.1684257 -0.27894077 0.21223336 0.5067909 -0.2671944 -0.04328654 -0.5031796 0.13618067 0.020335285 -0.34790167 0.08917477 -0.63151777 -0.2770354 0.38969368
1039 0.15112875 -0.0018988685 0.08991292 0.084244676 -0.20857117 -0.4614135 -0.52085215 -0.1053346 0.34857345 -0.0508204 0.16905135 -0.60686195 -0.07928572 -0.23871201 -0.08650611 -0.13603994 -0.066702515 -0.033621628 0.0658335 0.014047267 -0.118469745 -0.071691945 0.06363878 -0.3105477 0.2590481 -0.17253862 -0.116370745 0.3666719 0.13381582 0.16101973 0.24853568 -0.3145143 0.007115078 0.116177104 0.08451451 0.05992128 0.3792004 0.08903644 0.12733728 0.09954506 -0.12761943 0.0012955748 -0.36370727 0.18606192 -0.18822536 -0.38502458 0.36167914 0.37853873 0.30884308 0.15627834
1421 0.06190974 -0.03872907 0.1592996 0.44291764 -0.25218543 -0.4388658 -0.49647245 0.08655388 0.40917298 0.0100659765 0.16126296 -0.41463384 -0.30101174 -0.14170481 -0.22333595 -0.1583328 0.09472428 0.051663198 0.03808614 0.00914826 -0.11954886 -0.06936509 -0.24261676 0.16583727 -0.021858722 0.1536203 0.14627035 -0.4446984 0.1374355 0.2684052 -0.21831773 -0.10376701 -0.05057719 0.31489664 -0.20440763 0.050395224 -0.43880582 0.034157924 0.09381726 0.036050934 0.019062893 -0.024426619 0.09894222 -0.02677082 -0.091998994 -0.023550017 0.538784 0.48046705 0.028518442 0.2953193
84 0.12061813 -0.30864996 -0.21555212 0.2988132 0.012756627 0.015637234 -0.48085767 0.37934715 0.21725841 0.24320072 -0.47833493 -0.59588444 -0.10946876 0.36868176 -0.6131575 0.16866292 0.270536 0.11940063 -0.011660251 0.06576752 0.41630736 -0.12297387 0.029375648 -0.007363346 0.018703533 0.053200554 -0.33048788 -0.225461 -0.11467043 -0.16306321 -0.5064899 -0.22928178 0.57673943 -0.014150714 -0.33441156 0.23920691 -0.19828066 -0.2906885 0.004456067 0.54653287 -0.46336836 0.0138918115 0.050479855 0.10886657 -0.03400356 -0.44433957 0.06938946 -0.013632945 0.38628355 0.0562234
967 0.5164923 0.045581117 0.2762522 0.4798906 -0.16710408 0.2165477 0.32918242 -0.055090725 -0.026170265 -0.04784223 0.19151956 -0.38712904 0.41449815 -0.63949937 -0.26511613 0.018916776 -0.19135755 0.2706194 0.44126204 -0.098580986 -0.05156097 0.09943194 0.024390018 -0.5620324 -0.080347925 -0.31421325 0.004997216 -0.18436573 0.027830312 -0.38200334 -0.088276975 -0.06816893 -0.36569172 0.17317377 -0.44848713 -0.21307817 0.05852472 0.115054086 -0.28218412 0.44534907 -0.1291954 -0.0056359475 -0.29374236 0.20668943 -0.596582 0.0032741104 0.1352007 0.38801795 -0.12002024 0.21870346
1240 -0.14859459 -0.20422186 -0.56187785 0.17929384 -0.3022008 -0.21242727 0.29724634 0.06540714 0.19576634 -0.4709441 0.26547718 -0.6107458 -0.23123522 -0.18999276 -0.02712528 -0.10417293 -0.36908147 -0.050319605 -0.2320542 0.20710234 -0.01892855 0.2488528 -0.025710523 -0.19395673 0.14578226 -0.33578673 0.20462978 -0.19808757 -0.31055596 -0.0494817 0.23788726 -0.005154096 0.00479458 -0.0029026591 -0.84635276 0.19839478 -0.28377128 -0.33276117 -0.50325674 0.068155006 -0.1634565 0.08961774 -0.11229669 -0.43226546 0.17659697 0.15854013 -0.2293964 0.4694091 0.25032637 0.30541635
17 -0.2988498 -0.008154921 0.40683377 0.1681146 -0.068662375 0.075056314 -0.2959756 -0.068182655 0.61199886 0.20292638 -0.20951875 -0.3468837 0.28953785 0.2486425 -0.28377837 -0.18213259 -0.32201612 0.12958874 0.13661093 0.1385743 0.22589764 0.17160907 0.21210222 0.27611816 -0.048052244 0.10256898 0.037906572 -0.02737982 -0.09257823 -0.23399617 0.010925834 -0.3874395 0.28834796 -0.09482502 -0.11951242 0.6238214 0.13187742 -0.36401835 0.28082716 0.13288294 -0.5888336 0.4076422 0.20308253 -0.085357055 -0.5071217 -0.3756393 0.18940376 0.19816683 0.09403778 0.17730498
91 -0.19959332 0.06816343 -0.5170079 0.2407475 -0.021711506 0.05378979 0.34217513 0.36053988 0.07877115 -0.16862383 -0.14082326 -0.40887764 -0.09552179 0.5158094 -0.2624764 0.25247666 0.18474442 0.35144556 0.32533735 -0.035347056 0.15406658 0.34495997 -0.20766376 0.095821485 0.36214313 -0.13493972 -0.44650263 -0.2727167 0.33607274 -0.08339044 -0.15475576 0.18302292 0.00092977466 -0.30402824 -0.5885646 0.09136046 0.26096246 -0.3462875 0.2164274 0.08870015 0.08331886 0.11203996 0.3783066 0.41786718 -0.57028204 -0.20469172 -0.19265701 0.10584576 -0.12575756 -0.04807405
436 -0.28254843 -0.11076988 -0.0069151293 0.2754683 0.077609874 -0.053562455 0.16928522 -0.18583952 0.18083447 -0.24984463 0.0769449 -0.7292741 0.124191664 0.59508574 -0.5833737 0.25804764 -0.020238038 0.3287599 0.02666413 0.22686408 0.15407436 0.16510148 0.1015918 -0.23130845 -0.043412488 0.0027904443 0.005540792 -0.41449046 0.32718533 0.062303465 -0.26158828 -0.17120479 0.64519644 -0.35625774 -0.3145875 0.32882658 -0.20548946 0.1677006 0.529105 0.37377653 0.12928359 -0.2577794 0.21870863 -0.18678346 -0.2594282 -0.34208605 -0.14808784 0.6674952 0.02626125 0.6990614
1076 0.14308573 -0.015159985 0.30420214 0.16342524 -0.25246596 0.005765804 -0.21298781 0.17612931 0.45888862 0.023357127 0.29506862 -0.4720352 -0.2316716 -0.031366765 -0.19856276 -0.20519058 0.09120719 0.036363058 -0.14221397 0.009875203 -0.15924557 -0.10726056 -0.35006985 0.36504778 0.034436014 0.10371986 -0.14961363 -0.36185372 0.3020474 0.1865752 0.078631714 0.072346956 0.10373041 0.3492134 -0.14004609 0.18383709 -0.103837356 -0.19320586 0.32109705 0.10035426 0.054032348 0.08165984 -0.076034814 0.061479405 0.06667357 0.05198873 0.5899407 0.34566215 -0.09295635 0.38540894
715 0.30331764 0.016686412 0.3571748 0.22898792 0.13690202 -0.03375753 -0.1495283 -0.12123245 0.54753107 -0.17967165 -0.31265512 -0.4031763 0.32118636 -0.13123704 -0.24170592 0.15771073 -0.13758646 0.13092408 0.066887945 -0.07775126 0.13821779 3.6599322e-06 -0.15265076 -0.19402432 -0.027151896 -0.12217816 0.37788478 -0.030496683 -0.11716583 0.3002402 -0.21076149 0.058329366 0.14457968 0.047655288 -0.35641333 0.5457886 0.15752904 -0.28621155 0.31105423 0.44984987 -0.42793798 -0.06197368 0.19962975 0.19854553 -0.20630777 -0.27982536 -0.20554234 0.042559944 0.36140394 0.47400856
1282 0.5098136 -0.18739723 0.014407136 0.5958069 -0.6509027 0.6778755 -0.046892222 0.48341337 0.28594667 -0.2668683 -0.35067976 -0.40245363 -0.06826244 -0.022700869 0.6119899 -0.078989394 -0.49874863 0.21001421 0.42739677 0.039481547 0.08940826 0.052949537 0.51990014 -0.08906692 -0.08177374 -0.56051075 -0.07866269 -0.22863269 0.25633487 -0.03358201 -0.30020416 0.11603039 -0.0939651 0.012074483 -0.043816045 -0.1187639 -0.43047047 -0.5687031 0.19085972 -0.6014736 -0.43175995 0.7732272 0.037227307 -0.13958915 0.4058361 0.10723558 -0.26120508 -0.03294517 -0.2127495 0.7270207
956 -0.6145615 -0.41063797 0.4100453 0.13262239 -0.44253165 0.3064918 0.06315256 -0.08422857 -0.026926743 -0.2286378 -0.06453509 -0.73483306 -0.06901323 0.21350476 0.050604835 -0.035196338 -0.016999125 0.42627996 -0.2309646 -0.11312265 -0.038129132 -0.12734224 0.2749849 -0.17363031 0.08473873 0.13060156 0.55453575 -0.5598296 -0.358666 -0.12196898 -0.13817205 0.3941953 -0.12358549 0.40778685 -0.10456037 0.4657273 -0.2921218 -0.36939412 -0.06063268 0.49661574 -0.13808027 0.38870713 -0.067185126 -0.05532724 -0.6510725 -0.055974323 0.2126042 0.3681823 -0.33465213 0.15125844
1121 0.027290344 0.040937826 0.4139681 0.22555715 -0.2618881 -0.30019724 -0.55907834 0.1932887 0.14468144 0.02504074 0.37026924 -0.29537332 -0.43523 -0.102906056 -0.20000361 -0.0804291 0.029880116 0.0781982 0.0077433605 -0.11765643 0.51712257 -0.18933108 -0.12037931 0.20077321 0.2689474 0.0051481114 -0.2216797 0.20030108 0.36694598 -0.036455598 -0.20705172 -0.2633928 0.05558845 0.16336796 -0.18432124 -0.102209546 0.028379237 -0.5047763 0.035116658 0.046748348 -0.05838407 0.18971674 -0.004488928 0.101912 0.022841275 -0.08365068 0.38340333 0.5793598 -0.08835486 -0.07064203
388 0.12959258 -0.13629122 -0.043787643 -0.1187339 -0.3047089 0.4499851 -0.10925193 0.45126358 0.66945696 0.15833719 -0.006131241 -0.26752472 0.20219249 0.16553548 -0.20332693 0.5038272 -0.03377464 0.073195085 0.30221245 0.03850748 0.12615274 -0.07320575 -0.11923292 0.20397723 -0.25494677 -0.25749972 0.19606674 -0.18848772 -0.34186888 0.060262382 -0.47286218 -0.3922944 0.03072858 -0.075973585 -0.024683492 0.5004561 -0.28603002 -0.056207936 0.2716911 0.12455792 -0.25133142 0.22550459 0.050935343 0.44685102 -0.021555353 -0.64683723 0.2788599 0.3377614 0.42230302 0.3093634
1243 0.62761295 -0.11552022 -0.31678683 0.1741693 0.023887305 0.46966034 -0.31192955 -0.07370348 0.2989665 0.4123194 0.35397428 -0.6923468 -0.35913682 0.120062776 0.45724 0.1351099 0.34637028 -0.116600364 -0.049821194 -0.31823075 -0.28151283 -0.17056744 0.8688918 -0.76594377 0.11509837 -0.4371608 0.0102333715 -0.0039199456 -0.1355723 -0.3491093 -0.76173913 0.20648631 0.193379 0.32119712 0.05082477 0.45220095 -0.33003598 -0.30962965 0.28119656 0.39075783 -0.08419642 0.14429256 -0.38602257 -0.07267527 0.024402786 -0.28246883 0.07838363 -0.2854175 -0.50334144 0.6671438
