2625 50
992 -0.2151567 -1.9235648 -0.7919452 -2.2941046 -0.17044687 -2.5796943 -0.08034126 -1.0756555 1.045831 0.3904858 0.8878306 0.38871557 -2.6558995 1.5102937 1.2909055 1.4010983 -1.6968583 3.447953 3.0817547 -1.5336727 -0.19061007 -1.1912849 0.27415025 -0.18168475 -0.91337764 2.4310474 -1.432796 0.48860702 -1.1033236 -1.7601305 1.7284399 0.4860432 -1.3745066 -0.8817154 -2.158205 -0.17804964 -0.44802138 -3.3173316 -0.5624879 -0.49325815 -0.60963976 -0.9862899 -0.19480765 -0.18338583 1.2510725 1.160498 -2.7839372 1.9433345 1.2864978 0.7147
278 3.9297585 2.1314442 0.72457546 1.292191 1.0917461 0.2464741 0.6027057 1.0968995 -2.2644525 -0.9712768 -1.7297702 -1.623724 0.1759611 0.39142764 -0.91817373 -2.1043985 -1.4953638 -0.3006373 -2.6483061 0.16360444 -0.97291106 0.31191832 0.40056002 -2.0330436 2.3863244 -0.88513505 -0.19780144 0.59511626 -0.10225419 1.2231156 -0.8738559 0.51277006 2.2808619 0.29769465 0.6708178 1.8036578 -0.27299064 1.6001161 -0.25111756 1.1353883 2.017855 2.7805645 -1.2779762 -1.387837 1.2374818 -0.3595327 1.1668878 -2.486847 -2.8969457 -1.7181077
449 1.4125786 1.0674946 -0.6619532 0.90706044 0.926254 3.3185918 1.9307556 0.8650415 -1.3944424 0.8742035 -1.3694974 -0.035834108 1.3566309 -1.2801116 0.067951426 -0.7680083 0.7558525 -2.5246568 -2.9159667 -1.7249835 2.225722 -0.83736175 -2.6974974 -0.8991333 1.3311993 -1.9521173 0.25751877 -2.1496074 -1.2083256 3.6707006 -1.8725191 0.9829923 0.021409735 0.2395511 1.9427574 -2.1667063 0.45239606 2.161587 0.4128277 -1.9266899 1.4936167 -0.3829112 0.5782325 0.42973012 -2.4660194 -3.2428215 2.411961 -0.8901549 -1.4624023 -2.8598087
1042 -0.5068417 -1.7632495 -0.06547484 -1.197326 0.31726673 -3.3406487 -0.114996314 -1.350793 2.08529 1.7983465 1.2779924 0.83534753 -2.25516 0.99169767 0.356811 1.6688854 -0.24593048 2.9985704 2.8244565 1.1078322 0.37370887 0.023575962 -0.19767308 0.021319747 -0.32487428 0.3023024 -2.2078035 1.9024701 -0.84227496 -2.1528306 1.3937186 0.43939713 -0.40540683 -1.2675374 -2.4982388 0.58181876 -0.70925313 -3.7838702 -0.90721047 0.9484407 -1.9538598 0.5981119 0.0150367925 1.5841001 1.2286723 1.9404861 -2.845788 2.7172039 0.4755497 -0.07731397
1200 0.7391337 -2.0404525 -1.1157916 0.93609685 0.65542954 -1.7455208 0.17901716 -0.878722 1.1903824 0.5073806 0.4819538 -0.1742144 -2.4405062 0.40617093 1.1606857 2.9868846 0.024570065 2.217021 3.2516463 -2.5790565 -0.3577898 -1.3647561 1.4665278 -1.1311263 -1.6550983 1.8155687 -0.8672642 2.1552174 -1.4439982 -1.2543044 2.2437592 -0.85322917 -1.9356359 -0.08068915 -2.5567164 0.36618206 -2.4251232 -1.4331635 -0.6241595 0.2318637 -0.33167836 -0.19783454 2.22066 0.18619373 0.59938854 0.8412513 -1.3586695 1.8987719 1.3206193 0.08619844
415 -0.35690698 1.1658329 1.68562 0.41691655 -0.22098985 2.9250827 2.6928344 1.148221 -2.9095612 0.03510571 -0.65575653 -2.073053 1.1454021 1.0966456 1.2906473 -1.6730161 1.6264501 -4.0538363 -4.679095 0.062488247 -1.3252447 0.90647954 -0.64623505 0.16288367 2.6513388 -0.65747386 1.9971944 -2.1297028 1.5223136 1.6577349 0.0031259712 -0.0833202 -0.28074697 -0.2867288 1.8631012 -1.8115001 0.7643365 1.3177291 1.6245029 -0.9119533 1.4030381 -0.3622118 0.14545211 -0.9169489 0.8234045 -1.2349802 2.5748942 0.99139243 -2.896332 -0.54365635
1069 -0.9930869 -1.6694212 0.16847208 -1.8581634 0.29932526 -4.0384545 -0.690653 -0.6150663 0.91713476 0.9309935 0.59438586 0.90357643 -3.6450908 -0.31591427 0.09765929 2.2804728 0.23147292 2.57392 3.313563 -0.953403 -0.01426832 -0.29740515 -1.128495 -0.21980809 0.12656099 1.8048193 -1.371503 1.8600671 -1.0368946 -2.0204933 0.8412427 0.07836816 -1.6654038 -1.6532718 -1.3598721 -0.8710515 0.27933905 -2.3788767 -0.7663507 -0.38835168 -0.9669137 -0.8669641 0.13391466 1.4323316 1.2795198 2.2959378 -2.8997579 1.1545663 -0.5468637 0.9926693
1123 0.4204014 -1.5194434 -0.7581998 -2.3883045 -0.85404783 -1.1127928 0.9105387 -0.9153951 1.8066504 0.83124685 1.2072277 1.8782462 -3.3025148 1.6636176 1.5930128 1.1031802 -1.5477542 3.1937697 2.9198472 -1.3690188 -0.19068615 -0.25616696 0.800578 -1.0410416 -1.0904325 2.3372867 -1.492384 0.4536564 -1.2908828 -0.5552308 1.665359 0.7506946 -1.4724443 -0.4429857 -3.147328 -0.28453273 0.14816405 -3.9812214 -0.15943418 -1.3216475 -0.18631136 -0.7963681 -0.43052182 0.06374491 0.37217125 0.91227967 -2.5125337 1.7176026 0.77185893 1.2200873
1228 -1.7281982 -1.0186651 -1.1274348 -1.8520532 2.8836124 -1.0792598 0.43737173 -2.9341047 2.843446 2.3859398 1.231852 0.4149717 -1.7654592 0.39823502 2.366345 0.2637804 1.5161424 1.8241155 0.5716987 -0.46514702 1.2722106 0.01970923 0.7369765 0.17833522 -0.38954002 1.1197646 -0.71425724 1.6953746 -1.7186476 -2.8461907 0.20662959 -0.82216907 -1.3248471 -1.1777442 -2.070016 1.7914528 -1.9160212 -0.85652095 -1.6410891 1.3419482 -2.1231265 -0.13516954 1.9229606 1.3625859 1.2890973 1.3847896 -1.7226679 -0.23067857 1.2344042 0.92799556
129 -1.4132923 1.8170416 0.4687059 -1.9354004 -1.7171946 2.9893239 -0.60093725 -0.20696908 -0.5282973 -0.0014263742 1.2360599 -1.9581872 0.4779157 2.6799362 -0.749549 -1.7302104 1.4062809 -0.78426176 -1.48961 0.42311746 1.2831836 1.5121127 0.34423387 -2.6865342 1.915419 -0.41382986 -0.79229516 -0.4631465 1.229302 0.8615706 -0.98034996 -1.6669898 0.59807795 -0.37829039 2.9978397 -0.045825105 1.8224248 3.9176416 2.1605492 0.5499776 -0.02374242 2.3193452 0.37381765 -2.4325297 0.37080482 -1.8393232 3.8080583 -1.6287179 -3.3269615 0.3976096
12 0.17543876 1.117883 -0.972577 1.1949553 0.21280332 0.537232 2.823836 1.0980252 -1.253316 -1.9559728 -4.7602572 -1.9532987 0.47884604 -1.7971003 0.3663975 -0.4595166 2.0465546 -0.6447636 -2.9078286 -0.24566819 1.5882667 0.899011 -0.44608614 0.8416386 -0.57141507 -1.8541651 -1.6613272 -0.961659 1.2770841 2.4978168 -0.85071844 1.9857267 1.2707199 -0.029290363 2.6143932 -2.7835214 0.31458592 3.437543 1.3388957 -0.1752785 2.4013634 1.8655192 -1.8287897 0.5346817 0.62784433 -0.6559163 2.6613681 -1.7882664 1.7569762 0.43035987
1255 -1.1345369 -1.0713936 -1.3315482 -1.4500133 1.1701608 -0.7048791 1.2150517 -0.5923563 3.3474214 -0.21692026 1.1545563 1.4947921 -3.5379434 -0.60066956 0.53811425 1.9811 -0.5994829 1.2091132 2.7387078 -1.2751199 -0.6983959 -0.8332356 -0.022728786 0.0706573 -2.6430378 -0.23191294 0.23229304 3.0602422 -0.14409183 -1.7497829 0.29735288 0.20214769 -2.0763705 1.0911012 -3.6913471 0.30728364 -2.552202 -0.8652535 -0.70675665 1.6436567 -1.5079633 1.3950425 0.36141714 0.48286748 1.954839 -0.071619086 -1.2173129 0.6737389 1.1865821 3.00942
6 0.11313612 3.158224 1.7107583 3.05026 1.2923907 2.3402374 -0.92115796 -0.26296878 -1.5776066 0.83787984 -2.862146 0.47811392 1.6960416 -0.6087959 1.4825935 1.5132892 -0.2833552 -3.182122 -2.6111758 0.917656 1.4866924 2.7229378 0.08931115 -3.3215034 0.5739272 -2.0732646 0.20628475 -0.5589636 0.19256763 2.5176563 -1.6402134 0.59270966 1.5935757 1.1744874 2.3060267 -1.4343827 1.0354592 1.3780495 -0.3608041 1.2713388 0.20260891 1.003621 -0.9519489 -0.53257275 0.31022578 -0.30625844 0.77032995 0.4111364 1.4857587 -0.13661438
1116 0.7079115 -0.9403344 -1.588148 -1.8253386 -0.9728234 -2.6998148 -1.3140837 -2.193105 -0.13721013 0.017158942 1.6835599 0.6093554 -2.7327 0.2408495 0.9515582 0.10446565 -0.8057243 3.0546453 2.950946 -0.26962242 -1.5817664 -0.40280664 0.16933022 1.2859967 -0.62944794 1.9474727 -0.18960863 0.6889219 -0.034130566 -0.29997644 0.7203711 0.87960136 -1.8764517 -0.83875215 -1.4659064 1.2050726 -0.2601014 -3.4790277 -1.9982278 -1.262825 -0.63699394 -1.7452207 -1.4199668 -1.8015174 1.1915312 1.9799219 -1.2954395 0.5672638 1.4825082 0.1139018
943 -1.0653745 -1.496503 -0.43359742 -1.3659163 -0.7151689 -2.116445 0.47944054 -0.12244835 0.6148663 0.18663497 1.1480035 -0.28244996 -2.52783 1.8306774 -0.8747113 1.2718642 -1.5753354 4.356659 3.7544694 -0.021837113 1.8364528 -0.4812538 -0.16579475 0.67004377 -0.6712166 0.9843213 -2.4866078 0.25137362 -0.75727206 -1.5157753 1.1769732 1.6697446 -1.0514541 -0.066768184 -2.2478366 0.7041505 -1.1358652 -3.098341 0.25611442 0.33049268 -1.5366235 -0.8547756 1.1848719 -0.8312802 1.5941246 0.6518729 -2.6568613 1.860887 0.62199736 0.22074826
1040 0.092896126 -0.9012037 -0.1396148 -2.1594388 -1.7143769 -2.8574257 -1.6251698 -2.6656299 0.55456924 -0.17932244 1.8131219 -0.28116283 -2.997641 -1.2212025 0.45542717 1.2067364 -0.883921 3.5551286 2.1160543 0.031726584 -0.644543 -0.81515396 0.28580844 1.6421002 -0.89050305 1.1506294 -0.5840793 0.07017143 -1.0415405 -0.965148 -0.25854516 -0.47501615 -2.238304 0.41536915 -1.8446562 1.061107 -0.2675333 -3.5685732 -1.9368944 0.41707048 -0.5783376 -0.41461587 -1.5134274 -0.3508489 1.0219469 1.4627119 0.004336035 1.6747221 1.0888667 0.53940386
1230 -0.32677355 -2.5478911 0.96491086 1.9394535 0.9999055 0.60276616 0.9621752 -0.63488996 2.744556 -1.9558727 3.5490286 0.32015985 -2.517544 -0.9395934 0.76937526 1.9511888 0.7291194 1.6171331 2.9878683 -0.23815064 -0.6722439 -0.7279919 0.2984136 1.3080031 0.48874176 -0.49891737 -1.5075858 1.6541821 -1.2020024 -1.5164354 1.7053463 0.6024634 -1.985884 -0.22514997 -1.4443086 -0.8681806 -0.48631695 -3.5943744 -1.1655025 2.2661378 1.2829249 0.05564635 1.8132524 0.029742124 1.3565613 -1.4494328 -2.7038496 0.36576426 -1.1595234 1.6617451
1242 -0.78908265 -0.42471978 -0.65482396 1.7833577 0.18623787 -0.5238404 0.5537348 -0.59171003 2.3203533 -0.4759382 0.16855991 -0.8156978 -0.7560363 1.8634874 2.6656096 1.340907 0.32491964 1.6553943 3.308513 -1.6529753 1.8098149 0.2745742 1.2156538 0.68992037 -0.3352034 -0.80717134 1.1095719 0.9636161 0.017832395 -0.8280368 2.21236 -1.5071594 0.23871346 0.7438149 -2.0905027 0.39813715 -0.59738517 -0.44189456 -2.2974908 0.5429865 -0.6558251 3.6561627 -0.35529518 0.96674526 -0.39945447 -0.25422275 -3.93407 2.0050187 0.5297297 2.0223498
641 0.2435859 1.5590109 1.6612859 -0.20793298 -0.9382985 0.96513927 0.42772743 -2.1821606 -0.91099864 0.5451698 -1.9312905 1.5416775 1.9974002 0.5713842 0.8910449 -2.838256 -3.0235913 -1.4507406 -2.9253585 -1.0638486 0.8458316 -1.533235 -0.29041138 0.26326418 2.8205302 -2.5142977 -0.47404194 0.91297346 -0.2754419 1.8641083 -0.23610392 -0.13063776 -2.774382 0.87043667 2.618567 -0.09642857 1.0980465 4.684448 0.16647016 -2.0776057 0.59692615 2.8594012 -1.8155552 -0.08566107 1.3294411 -1.087217 -1.349542 0.7212603 -1.607846 -0.2780566
313 1.5452905 -1.5541664 0.9880222 -0.21345714 -1.0999985 3.070826 0.72771513 -3.1838763 -0.14594042 -0.9722098 0.3426654 -1.8036728 0.7165305 0.5894134 0.8287286 -1.1743449 0.27611452 -1.9931539 -4.2571335 1.3811829 1.8344005 2.2267838 -0.087880924 0.7052014 0.2024294 1.0807935 -0.1596805 1.2692722 -0.13863541 0.87772214 -2.497061 -0.47270387 -2.360262 -0.6740589 1.8320818 -0.60451275 1.0433074 2.0218666 2.092578 -2.2450354 0.94789755 2.6269393 -0.34231395 -2.1333742 0.1163717 -2.6188064 0.26367867 -1.308013 -3.4037452 -0.37701783
392 0.026605356 -0.33080408 -0.5065594 0.9026125 0.1620935 -0.27651128 2.1754742 -0.5023193 -0.28367376 0.59970677 0.043719247 -1.0172764 1.2734674 1.1524131 -0.23625171 -2.530068 -0.4547093 -3.7013104 -3.9996138 -0.65384007 -0.20815332 -1.5444049 -0.5161591 -2.6242151 2.446981 -1.2613176 1.3534123 -0.8172309 1.5043904 2.7756042 -2.030504 -0.36615306 -2.8846123 -0.47601002 3.2642298 -1.545102 -0.3109506 1.5426137 2.749266 -1.0743865 -0.5479496 1.5229807 0.9539511 -3.0079472 1.7673179 -0.23636214 0.77297246 -1.9930578 -1.9383072 1.1288583
275 -1.6440681 1.3089628 -0.4292079 -0.69455606 -0.96463263 2.231603 0.44963259 1.6833643 -0.96828616 -0.86307293 -2.790827 0.6218759 0.858075 0.5309391 0.38681102 -0.64654815 1.4217612 -1.6243383 -3.680767 1.9002868 -0.27953032 1.5100443 2.233949 -1.8771577 -0.6080256 -2.1575441 2.0275567 -0.74015296 1.7598299 3.3459246 -2.003581 -1.0785565 2.6796143 -0.22927213 2.4301124 0.13417114 -0.5554492 2.7473032 0.9352769 -0.5151124 0.30957183 1.4782776 1.4144918 -1.0353664 -1.5662081 -0.2412645 1.6058064 -2.3555667 -1.1929927 -0.48854798
654 0.13886745 1.6970819 1.2910846 -1.8962524 0.28974637 1.4113125 -0.08206535 2.8955514 -2.3226373 -1.7367175 -2.6324193 1.7432965 0.8311892 -0.31166717 -0.46471918 -0.6198665 1.7242968 -0.8655013 -0.72763324 -0.7577313 0.6316385 -1.9555187 -2.3154478 1.1840618 -0.33066908 -1.9599434 -0.4755221 -2.2998486 -0.83795375 -0.0053022895 -2.6754427 -2.4425273 1.7817403 -3.5504012 0.956225 -1.1098473 -0.20452856 0.2625163 -0.8985462 0.69438475 0.44554418 -1.4378783 -0.55850023 0.8771828 -0.36939073 -0.95981115 3.050877 -1.498692 0.7380944 2.252938
757 0.5772249 0.8497592 0.12168471 0.69825244 -0.16536741 1.3549201 0.37115029 1.0074669 -0.078176565 -0.32402578 -4.11846 -0.3865788 0.33345166 -1.0918146 -0.6804592 -1.5963147 2.2248302 -2.380604 -0.82412153 0.5230374 0.46932784 0.60832494 1.0360833 -0.36033306 0.09294404 -3.4784067 1.0351504 -1.0442281 0.37082303 2.6709461 -2.6620307 -1.9191195 1.6151899 1.2919352 2.9738612 0.76780444 1.9698211 2.7941697 1.4105748 0.38915908 1.5474238 1.3864444 -0.41182217 0.9599067 0.14878389 0.7663339 2.4370942 -3.3500466 -0.8276802 1.2907363
1114 0.013966737 -1.0609627 -0.3547599 -1.813328 -1.3066314 -2.6986296 -1.6368047 -1.467151 -0.441048 -0.09439739 1.7056149 -0.07741876 -2.9652696 0.35813883 -0.40986407 0.10765499 -0.98829067 3.6898665 2.4087608 -1.1895505 -1.6574726 -1.358476 -0.17979757 1.3132281 -0.6032646 2.0866745 -0.40990964 -0.6913678 0.12961698 -0.23218681 0.7686271 1.2749277 -2.1501286 -0.73942995 -1.6506668 0.84508467 -0.43928364 -3.6285067 -1.1414127 -1.7419288 -0.3840155 -2.2833579 -1.4583243 -1.0657408 1.4714911 1.8369352 -0.18849365 1.3454957 1.263576 0.64224225
998 0.105534315 -1.2637403 -0.44527596 -1.0599767 -1.2761071 -2.6167917 -0.438742 -2.3171434 0.259016 0.5100704 2.0681496 0.050537337 -2.5672548 -1.1490874 -0.46180865 0.9833949 -0.7435194 3.516532 0.73846865 0.50863785 -1.9863973 -0.7089861 -0.9700235 1.7269222 -0.66224027 0.56261176 -1.0308688 1.0099546 -0.7738875 -0.667508 0.89818466 0.82002735 -0.9274964 -0.43440506 -2.4131484 0.72616976 -0.5607409 -3.7381046 -2.0994828 -0.4165936 0.26157194 -1.1955361 -1.2556212 -1.1461258 1.1734651 2.1680224 -0.4102559 2.291041 0.7531405 -0.6722803
58 1.3507667 2.2935073 1.0284487 1.0446085 1.0980633 2.6737485 1.6361101 1.9229084 -2.5135777 0.21626823 -3.5905461 -1.2342963 3.3543236 0.700348 -0.50013214 0.6855564 1.4142932 -1.3947171 -1.8655194 0.59333867 -1.3843219 1.1287147 -1.1812141 -2.107034 0.26851106 -1.8400371 -0.2579457 -1.0233991 -0.34724373 1.6587409 -0.05982182 -1.4769894 0.6235459 1.5044204 1.2723888 -0.93222874 3.5242522 1.7716982 0.7326805 0.73014313 -0.7215945 -0.9032873 1.2738851 -1.07128 -1.4707856 -0.5642789 1.4524717 0.28148568 -0.81518805 -0.7480252
591 0.2914101 -1.2804219 -1.1197298 -0.32074428 -0.57736546 4.012289 0.95486987 1.9329579 -1.1593874 -2.049224 -2.9540112 0.7859139 1.5736251 0.5520942 -0.3610918 -0.3243444 2.1892257 -2.2812626 -1.0787092 0.71362036 -0.6195826 2.38907 -0.37727764 -0.1930761 -1.7745484 0.91226727 1.3104737 -0.1414861 0.20215538 -0.1651234 -2.5560482 -1.3122333 3.2813518 -1.2151117 0.7509554 0.45103228 2.3454638 2.0588002 1.8388071 0.0029830988 1.3824503 0.3470773 0.67673343 -2.4831371 -2.4252436 -0.2990735 2.029086 -1.6357619 0.08729409 -0.14216308
307 0.43616635 1.1109123 0.16142158 0.959185 3.1059005 1.3213786 0.45554703 1.9210446 -1.1549996 1.0020962 -3.8070006 1.6827095 1.6940252 1.0657347 1.5577198 1.7958401 -0.5059676 -0.54087836 -3.2139773 0.6890433 -2.042748 0.3811787 1.8619146 -0.47145897 0.7039455 -1.919885 1.1935949 -2.6674645 -0.122255 0.48511335 -1.7091535 -0.06471672 1.4090946 2.313896 3.280525 -0.01608048 1.1521391 3.1264136 -0.17632034 -0.8187319 1.2103543 -0.72638315 -0.4864593 0.2513371 -2.6780107 -0.43992078 0.9869615 0.28227133 0.013764052 -0.35035923
471 0.18660001 1.4324129 1.0284166 0.47820747 -0.3847058 3.1462324 -0.70284325 -1.3229698 -0.6005823 0.31634185 -0.93418956 -2.939818 1.7619672 0.711512 -2.0737154 -0.9120725 0.3213756 -0.66922987 -2.8082333 0.64548546 -0.57414424 -0.61898446 0.67747045 -1.75781 -0.83301055 -1.6825485 0.5289726 3.1391 1.8092008 2.2081785 -0.06336128 0.84909534 -1.8873854 1.0479193 3.9118254 0.5658816 0.06916993 3.3794186 0.01619148 -0.9577701 -0.70893687 0.12644592 0.44650462 -0.86238265 1.1735055 -2.833542 1.5757439 -1.2238722 -2.3963978 -1.0835848
1179 0.17310624 -1.2071646 -1.502876 -1.1584303 -0.009582771 -3.1244507 -0.09045723 -1.1106929 0.7847801 0.355692 1.6489927 0.57875407 -0.77592826 1.2943594 2.0594456 2.9067423 -1.418149 3.7318347 1.7501067 -0.3980744 1.6268952 -0.5017182 0.7160457 0.8957854 0.53663117 -0.5288896 0.22375071 1.4030063 -0.59448034 -2.919196 1.6902553 0.9208167 -1.4878297 -1.072586 -3.6232796 0.5801594 -1.4981879 -3.9584758 -1.2011131 -0.4223674 0.72282296 0.012122626 1.4419221 0.32195932 0.5880282 -0.20971616 -2.4517558 1.4093263 1.4883708 2.5815783
1211 0.4775557 -1.7671239 -0.057466567 0.5682801 1.5037688 0.37971896 -1.1329874 -1.397455 2.6475534 2.8717594 1.6368047 -1.3234413 -3.1343274 0.83242685 0.43378878 0.45338753 1.2493986 1.7757053 2.1332223 0.59137 0.45561466 -0.40243068 -1.6577606 0.02135997 -0.8671514 1.876073 -2.274203 2.1132884 -0.49274608 -3.385029 1.0817881 0.10207763 -0.8224986 -0.029329121 -2.5238793 1.219491 -2.3315513 0.32196346 0.4726678 3.4357376 -1.901867 0.7029145 0.3812784 1.1830263 2.9522252 2.2090762 -0.5420694 -0.20164923 -1.087661 0.57507783
531 0.8736766 -0.080025055 0.65604115 -0.6938673 0.059271377 2.201755 -1.4330003 2.2521906 -1.7967416 0.26822534 -0.24904107 -0.94021565 -0.88739586 0.16008544 0.4314951 -2.7536457 2.7480168 -2.6399944 -4.617655 0.21005549 -0.99282783 1.5958506 -0.091449104 -3.133226 2.3996122 -2.176005 2.2912972 -1.9788476 -0.1496923 2.0575063 0.30285645 0.40651408 -0.53198856 0.47415492 2.7808142 -3.0703106 -0.72112167 2.2585235 2.3466127 -0.9962691 0.48472387 0.024608059 0.3185426 0.328706 0.017925208 -1.3938782 2.7936323 0.8806557 -1.3097583 -0.06750351
1244 0.6346785 -0.123744816 0.15174022 0.0914974 2.1520267 -1.1664174 -0.22074945 -1.3259078 2.98075 1.3319275 3.1142552 0.6442929 -3.3077626 1.0031445 1.3615228 1.0460616 1.5479101 2.0044224 1.5873306 -0.9898696 -1.8470283 -0.7773831 -1.2599207 0.5893955 -1.5487674 -1.5154456 -2.1633387 3.9138005 0.6491365 -2.1968396 0.2693077 -0.16537023 -1.2351159 -0.5860561 -1.207938 -0.20497431 -2.2394075 0.33115286 0.80395764 2.1927779 0.32075435 -0.30996037 0.7247837 2.0150154 0.0036848898 1.8922545 -1.6257293 0.701674 1.1637454 0.3513674
1260 0.096909165 -0.84613574 -1.0231687 -1.8087491 -1.2387054 -2.1573687 -0.84498155 -0.9016389 0.46392095 0.60716504 2.9508784 0.4612343 -1.5292027 0.3846164 0.61049503 1.0408055 0.40145302 3.693414 2.6096537 1.1803557 0.102550834 -0.2748881 0.46498805 1.9577883 -2.3614664 0.6681845 -0.7953559 0.9577222 -1.3908529 -1.5047287 -0.95611817 0.83738315 -2.7814772 -0.63903266 -1.6509085 1.2261631 -2.3018303 -2.4043791 -1.8896939 -0.9966021 -0.8534568 -1.2448152 -1.1836151 -0.42054334 -0.098440215 2.2253137 -1.4588656 1.7579631 1.5820355 -0.62149394
845 -0.114660464 2.476671 1.3053522 1.6732303 2.3828244 2.288285 -0.74264944 1.1465201 0.42436948 0.9964629 -1.9965165 -0.6064622 1.9226007 -0.25304884 1.7147212 0.31388938 -1.4922153 -1.2176414 -3.036896 0.95340234 0.21450736 -0.40090388 -1.0950927 -0.4143604 0.6082772 -1.1450119 -1.6620848 -2.0289445 1.6498754 3.85982 -1.0800058 0.98036516 0.13056162 1.2589098 0.984533 -0.9105519 1.6248518 3.3658354 -0.19197416 -0.09335292 -0.37710828 -0.9665273 1.5454828 -1.6149442 -0.8917452 -0.77243054 0.9543306 -2.5895972 -0.3693807 -0.69399655
949 0.15211031 -1.3164973 -0.2554288 0.0018508057 0.62211525 -2.7726772 -0.20766203 -2.019525 0.915743 1.9824136 1.6984802 -0.7492413 -1.9554386 0.95245653 -0.3720209 1.0280882 -2.514716 3.0920544 2.194342 -0.422624 -0.44488436 -1.8966433 0.5967592 1.293278 -0.29119092 -0.036725942 -0.9232723 0.53716695 -1.6180011 -1.1024897 0.7211207 0.7486592 0.32747388 -0.8476871 -2.2943377 -0.50269425 -2.0411131 -4.4325337 -0.98539025 0.38625547 -0.58696353 -1.5492557 1.3580183 -0.9439992 1.9556807 -0.33140638 -1.5254382 2.3615742 0.13998967 1.1870376
89 0.051329505 1.095353 -0.6583096 1.5942606 0.48490936 2.5867257 2.1595268 1.9003602 -1.556929 0.90401775 -2.8412447 2.4277494 1.7564021 -1.3781809 0.21378796 1.7289293 0.70954895 -3.7420516 -0.34138867 -0.57041526 0.18857057 1.237499 -2.90864 -0.07131102 0.093531854 -1.672315 0.537484 -2.5246518 -0.16796075 1.7419281 -1.4559406 0.48154333 1.4224645 -0.6571378 -1.4501128 -0.4315043 2.832691 2.3879175 -0.10599219 0.026175918 0.4774762 -1.2019035 0.31882617 -0.9187652 -0.26310363 -1.6726683 1.3962485 -2.280663 0.25990123 -1.0431145
1059 0.47470722 0.3213446 -0.5059805 -0.95654315 -0.14531566 -2.5571246 0.46650884 0.18138625 0.74545926 1.2654687 0.93252933 0.36917514 -2.9851842 1.5052316 -0.97216356 0.8643295 -0.53159994 2.5025797 3.5013993 -0.8970603 0.2135805 -1.2632488 0.7235531 1.7456475 -0.5993763 0.02923185 -0.47551298 -0.49950492 -1.557246 -1.8897207 1.2426336 0.08657778 -0.8260515 -0.18500076 -2.7132049 0.82044446 -0.6621256 -3.3933125 -2.321588 -1.4553899 0.6451086 0.46362463 0.5283028 -0.10908352 1.3722491 -1.1429405 -3.3341377 1.4882171 0.007606751 2.0313206
1217 -0.28879395 -2.2855432 -0.9897835 -0.05503165 -0.04363046 -2.059363 0.029524637 -1.4601483 0.823964 1.5305747 1.3549312 -0.35785523 -1.5962415 2.0080984 1.1213449 1.0462499 -1.6498659 1.271118 2.3036098 0.34948483 2.081346 0.74835604 1.778885 0.02435381 -0.36461213 0.8594949 -0.21964134 1.2115626 1.8431998 -3.539135 1.258654 1.2474811 -2.1600523 -0.7042845 -2.6536388 -0.052087918 -0.23600955 -2.1962082 -1.9697073 0.8880066 -0.85806805 -1.0261935 -0.09806574 2.645233 1.9778671 1.5409945 -2.381059 -0.08816576 1.6531501 1.0865428
1236 0.3762782 -1.1296799 0.4517352 1.2429329 1.2546127 1.580787 0.6773304 -0.006020617 2.1281898 0.3752808 1.9471066 1.1384943 -1.8966696 1.1405818 0.789074 1.072461 1.7573739 2.0889678 4.864843 -0.98673975 2.2115147 -0.93581986 0.57433367 1.3808266 -1.169566 0.14901416 -0.09275973 0.62177634 -1.2929245 -0.7064296 0.3699177 0.5910228 -1.3264228 0.9889302 -2.1343176 2.2718804 -2.0721276 -4.058892 -0.27454087 -0.018763626 -0.10680205 2.033078 0.70426524 0.480797 -0.20470059 0.33147007 -1.4071531 1.1676687 -0.24239358 2.21587
1006 0.93691266 0.111242674 -0.3155232 -1.6624827 -1.8405002 -3.4258347 -1.1317297 -2.7658398 -0.6206575 0.38324258 1.8337028 -0.5687861 -1.5140841 -0.29261902 1.3619894 1.8605509 -1.0527601 3.4428835 1.6176358 0.1885736 -1.2466973 -0.33079505 0.47975647 1.7752432 -1.150818 1.5507089 -0.8290439 1.0558892 -1.5197039 -1.7273065 -0.54090303 0.5920788 -2.376385 -1.0187792 -2.5034275 1.7814735 -1.2152444 -3.005508 -1.6006017 -0.29225457 -0.45287648 -1.7257658 -1.9539933 -0.6826524 0.73179823 1.3030641 -1.3067882 2.2972887 1.1377468 0.67211396
550 -0.3027244 1.8267274 -0.025997555 -1.7947303 -1.2871561 2.3465757 -0.8685939 0.6450816 -0.6130061 1.4757943 -1.5097915 -0.1505368 1.3564707 0.32079154 -0.59878075 0.4407793 0.3449076 -2.7761736 -3.6522028 2.4883623 0.2649751 1.0118511 0.88433295 -2.753054 2.1368058 -1.9877692 1.0228118 -0.7283677 1.094566 1.5292398 -0.16311635 -0.3128606 1.0679971 -1.1681479 0.87355626 -1.2864082 -0.6940106 2.5102382 0.3939969 -1.6670874 -0.5112325 2.8362079 0.9365229 -1.2319026 -1.5307847 -1.8605613 3.1646235 -2.2133863 -2.7796662 -0.80079347
285 0.68699485 -0.17171302 2.6584477 -0.8475775 1.0181147 0.833606 -0.47245213 0.35805053 -0.68571895 0.016921107 -0.5506038 -0.41521484 2.1891034 -0.3055497 1.2581578 -4.330849 -1.6213421 -1.8050827 -0.36535794 0.59234154 -0.9508905 0.79882294 -0.654926 -1.2280561 0.5475322 -2.620317 2.317907 -1.1677616 1.7213284 -0.5369321 0.5057041 -3.0524194 1.4118745 0.7635358 1.351671 -3.033543 0.8741954 2.5167403 0.7560332 0.034009576 -0.32064494 0.16668157 1.4572225 -3.184794 0.42552966 -1.5296597 0.30906883 -1.034255 -1.3775623 -2.0173273
1063 0.6041027 -0.095493965 -1.8518292 -1.5133126 -0.3584883 -2.1877506 0.4809469 0.5662334 -0.004394311 0.21702814 -0.014771472 0.61799574 -0.6177124 2.046755 0.07482587 1.7800177 -1.7989544 2.7933764 3.7572453 -0.18876329 -0.17469265 -0.033743665 1.8172531 -0.35014126 -0.571157 0.7031372 -0.82861006 0.4357558 -1.0472392 -1.0533814 1.6604637 0.80327296 -1.4322222 -0.83923095 -1.6172045 -0.117009275 -1.5620258 -4.2339563 -1.1679562 -0.10665977 -0.08771538 0.18837003 -0.13609928 -0.46973312 0.47578484 -1.5187535 -3.1017482 1.075443 0.44928312 3.1068654
302 -0.04184293 -0.100266755 1.0604303 0.7180296 0.6785169 2.4923842 -0.40578634 1.3785517 -2.4606466 -1.2948865 -2.2003415 1.004924 2.4109266 0.8660556 0.6286732 0.054161124 0.0014719882 -0.6415924 -2.2450612 0.1507175 -0.065996915 1.3210453 0.39135975 -2.2623587 1.1225921 -1.792128 0.54338384 -0.05088196 1.7817477 0.99618125 -2.7327006 -1.3290253 1.7213002 0.2797821 2.196274 -0.7824679 2.6362484 3.1865306 1.9486167 -1.67758 0.59970516 -0.334935 1.3419487 -0.8303496 -1.9435039 0.29088005 2.2939272 -1.7866646 -0.20157364 0.59752077
893 -0.17462847 -1.5108852 1.6222152 0.76422256 -1.2925674 1.7370813 2.2139726 1.8183383 -1.0782228 -1.6219757 -1.3662605 -0.39827126 2.9138694 -1.4631337 -0.57577264 -3.269641 1.7047225 -2.4336953 -0.93159175 0.37900025 -0.18552259 0.6736805 -1.1296097 2.0414248 1.0384451 0.3969121 -1.916591 -2.8632364 -0.94370633 0.36736798 -1.3090206 -2.0827262 1.2679678 -1.435284 -1.9958487 0.5888694 -2.026472 2.5683095 0.8520251 1.5645862 1.0664074 -0.4674053 -0.23381 -1.3784503 -4.1318626 -1.1555775 0.41726056 -0.18544343 1.7990776 -0.1797224
964 0.3397709 -1.6562133 -1.2302815 0.06343199 -0.8240653 -1.6158693 -1.3586013 -2.136167 0.4180669 0.6785981 2.1392365 0.1738411 -1.7846044 -1.6829501 0.2426204 0.45363602 -0.10963974 2.9501925 2.1489317 -0.031367112 -1.6823018 0.43123817 -0.49386433 0.9825001 -2.176598 1.3964143 0.6247989 0.83482605 -0.77716863 -0.64897835 0.013338017 1.3154285 -2.4471185 0.41041937 -1.4880266 0.6149265 -1.0316408 -2.7852533 -2.2160406 -1.8071718 -0.20788042 -1.5163682 -1.7605124 -1.5148286 1.1767367 1.4135008 -1.2281289 1.9122037 1.5906348 1.8532243
150 1.6950864 0.550009 -0.621109 2.7718067 2.0786445 0.8481665 0.1625115 1.7179352 -1.2761343 -2.3028562 -4.21145 1.2261229 1.9088955 0.45536432 0.38158908 -0.88733804 0.23911168 -2.3707113 1.0943595 0.67250353 -1.2950337 0.62900203 -2.7858021 -1.3790696 -0.4549891 -0.9196359 -0.2539609 -1.9299911 0.51965004 0.9626371 -2.7825663 0.9215432 -0.1073893 2.8143961 0.24719915 -1.1638392 0.9072973 1.8815887 0.804275 1.1220047 0.9446599 -1.3137374 2.530772 0.64730537 -1.4337574 -1.7728945 -0.012354708 -1.0461125 -0.7263996 -1.4927592
931 -0.9565512 1.8961179 0.7085978 2.5213788 1.601838 0.39954847 1.2041314 1.9114351 0.10118667 1.9294858 -3.3719916 -1.3607286 0.637899 -0.75334215 0.43605042 1.7356169 0.8844303 -1.7140641 0.7569335 0.17666729 0.062569596 0.7153655 -0.6921316 -0.16828471 -1.124524 -1.4277269 0.2862899 -1.8997577 2.067021 1.8699012 -1.6283476 2.0678356 3.1226711 2.572551 0.65182924 0.4357124 1.3486296 -0.118201174 -0.9923206 1.7549465 1.4346253 -2.4329648 -1.0034093 1.6022328 0.19302027 -1.7952907 3.5697153 1.4165561 -0.67778265 -1.107488
1021 0.3960836 -1.6737359 -1.4033599 -0.4687902 -1.4174252 -2.8260043 -1.8030039 -1.0678803 0.12677643 -0.16670206 1.5248071 -0.50655746 -2.5330584 -0.15731756 -0.6172524 0.89889413 -0.3465368 2.4454408 3.0843709 0.33277008 -0.22844322 -0.5288024 -0.37638208 0.9900117 -1.9292477 1.1190532 -0.85088414 -0.18871176 0.23541266 -0.3441706 -0.10177276 0.30028793 -1.5130738 0.7797582 -1.5250822 1.1191843 -1.3352444 -3.3458812 -2.1564002 -0.97993106 0.3206975 -1.0691003 -1.3745627 -1.5290208 0.76272565 2.4588306 -1.7255697 1.0294774 1.1844914 1.8222512
473 -0.4699943 0.9196345 -0.0021675408 0.8624521 0.34504095 0.97947246 0.9073482 3.195067 -0.43634167 0.30908483 -3.2925081 0.37681168 2.457465 -0.083551124 0.21425611 1.6845661 0.97752273 -2.844843 -2.292153 1.4458882 -0.87904674 -0.14852616 -1.5235116 -0.94490504 1.1433315 -0.38235462 0.88084596 -2.7500374 0.6770391 1.3117925 -2.2184114 1.3226882 1.824689 1.3713137 0.73531604 -0.4770045 0.9097991 2.9864397 -0.56933105 0.96579534 1.2814443 -1.1677712 0.88049656 -0.3082581 -0.9853527 -1.8020643 2.3083465 -0.86205727 -0.8054604 -0.4345369
93 0.36834943 1.5038911 0.8957509 0.03236103 0.23440722 2.1354172 0.20161515 2.3980472 -1.5456325 -0.028983094 -2.6817746 1.0285754 1.6420215 0.73634434 -0.14309146 -0.50094706 0.13913336 -0.7474378 -4.307688 1.3459189 -1.1683123 0.7976783 0.86651134 -1.4346933 0.8196187 -1.1997526 0.717437 -0.6547757 0.85367197 2.946155 -1.576107 0.77936226 1.937136 0.9300144 0.31232402 -1.7559532 0.9319916 3.059076 0.49521133 -0.6651077 -0.48370165 1.0885907 1.3888663 -1.1649892 -1.6921645 -2.2382889 3.816607 -0.347313 1.24864 -1.3210789
951 -1.7166742 -0.004428633 -0.22017 -0.6166857 1.2931726 -4.321557 0.92306 -2.0030856 1.1070662 1.436011 1.7650496 -0.4734899 -2.6735363 0.36839998 -0.0037097195 1.1703469 0.30771405 2.248276 1.5866319 0.8201974 1.414413 0.70023847 0.5083538 1.2203791 0.14268863 0.07288566 -0.5291228 1.6713151 -1.2372847 -2.183328 0.29617894 1.9373642 -2.989077 -1.2640496 -2.461918 1.0862656 -0.057578627 -2.6690953 -0.57141805 1.3914671 0.87233007 -0.5946778 1.2319448 2.1088552 0.46343437 1.6111875 -2.2620833 0.59335256 1.1845522 1.4655893
1164 -0.6660905 -1.4844193 -0.5258302 -0.7182892 -0.028483678 -2.5996797 -1.103245 -1.4376035 1.6782953 -0.47254136 -0.09647573 -0.33468986 -0.9932886 2.1803632 -0.48642784 1.870943 -1.9365355 2.9477906 4.796831 -1.2608446 -0.4482498 -0.23654447 1.193916 -0.638791 -0.07593362 1.423329 -0.8454663 -0.3113463 -0.09897149 -1.4191763 2.0279226 0.45776734 -1.2601451 0.3559178 -2.5480154 0.69931257 -0.33165514 -3.2454953 -0.76603734 -1.5268958 1.0209807 -0.66620576 0.37768525 0.1418535 0.6785585 -0.54504704 -1.1074018 1.5692626 1.4808663 1.4608767
1115 1.5681087 -1.0108373 -1.9054759 -1.4267837 -0.7282261 -1.2987608 -1.1126876 -2.2734945 0.006292604 0.61561406 1.9177325 -0.43076888 -1.9964827 -0.060782913 1.263071 0.28678715 -1.5485059 2.3025453 3.068387 -0.8532944 -0.5930147 -1.6517084 1.0157939 2.5438118 -0.035573788 1.320654 0.05152066 1.0251929 -0.12136201 0.3473644 -0.59284407 2.0147407 -0.7907877 0.34849465 -2.0608437 1.3814952 -0.3896731 -3.1585548 -2.067129 -0.6536244 -0.18419152 -1.0175729 -0.4465467 -1.10847 2.0191689 2.9599266 -0.5693474 1.0615841 0.712126 -0.07000412
1038 0.46424615 0.0037763931 -1.0670902 -0.38336405 -1.5117657 -2.8654685 -1.5226958 -1.16185 0.32453907 0.35147572 2.1319718 0.15655422 -2.5585852 1.1445256 -0.042542983 0.7970204 -1.5110823 2.4767013 3.5802321 -0.2504995 -1.7454345 0.29968503 -0.22803596 2.465664 -0.78550196 0.7626327 0.48583072 -0.22306144 -0.26008162 -1.2475345 0.8432856 0.6713439 -0.6886307 -1.1445221 -1.4599144 -0.31292894 -1.2995421 -3.0513391 -2.171269 -1.0116696 -0.2855109 -1.5218056 -2.21452 -2.4971297 0.46600744 0.5820437 -0.9268162 1.0706934 0.06681609 0.31815943
333 1.1626458 0.17299958 1.777262 0.76624835 0.34287724 0.45648623 1.3826289 2.374976 0.2322334 -0.45667613 -3.0628412 0.1274854 2.34194 -0.52726555 0.016161125 -2.1215668 0.8214133 -0.2895276 -0.7840379 1.2391202 -1.997277 1.2617565 0.22158767 -0.5094981 0.5770535 0.8278988 0.8916536 -3.6895626 1.4000642 2.5322943 -1.7451807 -0.73763835 1.5429375 -0.15408519 1.1637906 -2.1223505 0.90841424 1.6889602 0.5584861 -0.18488489 1.9171638 -0.17530753 3.7226403 2.2125154 -2.8851178 -0.30906984 0.9760467 -0.5941748 -0.3001751 -0.6663925
1110 0.54975164 -1.0504206 -0.43596843 -2.1155434 -0.3175487 -1.1306517 -1.534977 -2.5628064 -0.060585417 -0.69052136 3.0584168 0.038772076 -0.9317874 0.79934245 -0.32036456 -0.41935325 -0.96847785 2.8284318 2.74838 0.7462238 -1.0497328 -0.71074545 0.7371442 1.1831036 -0.15852335 0.2208054 -1.1727654 -0.6654678 -1.4114472 -0.18732683 -0.22851036 1.089203 -1.9741145 0.28055257 -2.4534416 0.96292686 -0.876677 -2.9547215 -1.3688319 -0.03369397 -0.34337616 -1.7868043 -1.4857947 -1.3529847 1.8020552 2.1309466 -1.6257389 0.66416126 1.8194674 -0.8324341
954 0.9094118 -0.123182125 -1.1072136 -0.9105262 -0.6065906 -1.5548402 -0.9368166 -2.9897213 0.84611523 -0.1794753 2.5014515 -0.5258827 -2.987817 -0.2530454 0.07811223 1.6268212 0.10527301 3.1297584 3.3596134 0.12344618 -2.0602176 -1.0429986 -0.42509466 1.6039394 -1.2682589 -0.13857639 -1.4161599 1.7428266 -0.74162596 -2.6505094 -1.2052897 0.3585667 -0.95824635 -0.010620155 -1.2747005 0.56362855 -1.9817791 -2.8779898 -1.5929986 0.24342434 -0.92327803 -1.2940898 -0.6491968 -0.63596225 0.39389473 1.8021579 -1.7500039 2.0045216 1.3781315 -0.6655993
290 -0.82746655 0.67604643 1.6080177 1.9768494 0.9415074 0.8495639 0.37379944 -1.5016539 -2.9660757 -0.6720654 -1.2876486 -0.71129394 -0.16735893 1.9397385 -0.50223976 0.18326487 1.246293 -1.0991534 -4.237554 0.16608134 0.9948308 0.24339624 0.9688842 -0.60410327 -0.20329227 -1.2503163 1.3604634 0.39252272 2.5030165 0.7781513 -2.2877245 -0.85110575 -0.094817504 1.3454272 2.813539 0.8235394 0.6573609 1.8606269 1.7859524 -1.6946018 0.4276227 1.0975263 1.3297809 -2.696355 -2.3310864 1.1043997 1.6755694 -2.1618412 -2.126052 0.05759022
1133 0.21493673 -0.43420413 -0.5311696 -2.075658 -1.0501845 -2.0837636 -1.9913974 -1.5505346 -0.64457554 0.10489261 2.3854644 0.5750308 -1.8429574 0.9129266 0.41896197 0.17484954 -0.7728217 3.083598 2.0911062 0.53205764 0.4531094 0.5386603 0.24288183 1.166679 -0.7077079 0.9044154 -0.36166242 0.95495653 -0.94064766 -0.14664206 -0.053301614 0.033981066 -2.2453494 -1.3386897 -1.6303726 0.67912936 -0.9094708 -2.639544 -1.9095882 -0.31159306 -0.55115443 -2.657341 -1.857265 1.0724766 1.124433 2.2912042 -0.9073447 2.2142599 1.3200859 -0.7293329
384 -0.45839843 -0.26240522 1.374746 0.38836607 1.1386247 0.72216904 -0.2597498 3.273219 -1.0801946 -0.7304099 -4.840186 1.671141 0.70720494 -1.833445 -2.229736 2.0691395 0.5643872 -0.40490425 -0.69689345 -1.3502861 -1.0814227 2.4633954 -0.6255939 -0.4452666 -2.040103 -0.8394619 0.09933442 -2.593982 0.57156706 0.7039785 -1.0242993 1.5503209 2.6558425 -0.28328103 0.1722884 1.967836 1.7678128 -0.2094621 -0.6494713 0.6444641 -0.15845014 2.0565932 -0.9281264 2.7879329 -2.8335025 0.84745014 1.6448164 -0.15629886 0.40845641 -1.3871033
1218 -2.562701 -0.88722056 -1.522885 -2.6903415 1.6460043 -2.999168 0.3667267 0.21914934 1.3841977 0.9042544 0.98964405 0.16318169 -1.8278286 1.4402304 0.31273332 0.8716829 0.41620737 2.7731895 1.5544932 1.6044394 1.2524287 -1.3496243 1.6599511 1.7338252 0.37033477 -0.0138678355 -1.8301014 1.451964 -1.6243093 -2.310574 0.7952404 0.36949894 -1.2184954 -2.0778918 -1.4062532 -0.86174977 -0.3286323 -2.7223477 -1.2696975 1.5224967 0.38258654 0.03141531 0.90992653 0.5895273 1.486128 1.0100305 -2.9218996 0.7489279 1.225468 0.31035438
1125 0.5483777 -0.8570466 -0.38944876 -1.4910369 -1.8829188 -2.5447652 -2.5326638 -2.4607782 -0.0018539659 -0.38590643 1.4383808 0.36001024 -2.423268 -0.4847078 0.23469372 0.83407134 -0.7244482 2.7367415 3.2670767 -0.3902902 -0.87493116 -1.3763547 -0.4717951 1.507589 -0.26484656 -0.21593857 -0.5894284 -0.015791317 -0.69897443 -0.44776723 0.73925275 -0.17450953 -0.059994657 0.22566995 -1.1082661 -0.15799928 -1.2816404 -1.8359402 -2.3029392 -0.18859923 -1.3701429 -1.8840271 -2.052268 -2.011322 1.0357107 1.8171446 -0.1652358 1.6899409 0.7522835 0.24417077
1152 0.79627764 -0.8477856 -1.9966327 -1.7130722 -1.2974687 -1.886659 -0.9466301 -0.5146306 -0.23101832 -0.019593073 2.232748 -0.018391583 -1.5513835 0.04718136 0.8962903 0.8754269 -0.2343231 3.4713435 3.5480816 -0.73523325 -1.4329385 -0.23916575 0.5513058 1.3544362 -0.5725424 0.60269624 0.59177554 -0.19389775 -0.026750548 -0.32739952 1.5470374 0.6752564 -1.9501117 -0.42373425 -1.7922971 0.32581514 -0.28975758 -3.5946977 -1.275977 -1.5908294 -0.27463016 -1.0800908 -1.5344374 -1.280559 1.2526386 2.460289 -1.5187869 1.4441202 -0.03586672 0.57109034
879 0.75268334 0.55189174 0.5450697 0.06074053 -3.0610294 3.0068665 -0.5003215 1.7492645 -0.45954502 -1.3366283 -0.6723707 -0.80241334 0.38458222 0.42623422 -0.45078412 0.08946334 1.1553446 -0.1486232 -4.727854 1.4558662 -0.662626 0.84558 2.1875389 -1.3521962 1.3092968 -0.98312736 2.0141718 -0.13979486 2.0564656 0.7184429 -0.9276821 -1.8263228 0.40311232 -0.6792783 1.5627701 0.24897192 2.3307557 3.5106184 2.2280953 -0.9677953 0.43984035 0.93631774 -0.38905868 -1.5593209 -0.67217755 0.29377058 -0.744096 -1.8834894 -2.755328 -0.7467654
1210 -0.5859061 -1.3009622 1.0887719 0.68458104 2.1014092 0.2692465 -1.7328221 -0.9284645 3.1040766 0.2587082 2.4605818 0.14514196 -1.534281 -0.3176655 0.4705887 0.5768288 0.005055428 1.0964592 1.1933266 -1.262688 -0.63889784 -2.772935 1.001724 2.6060913 0.070061564 -0.5802931 -2.5660603 1.6297445 -1.3102735 -1.5169909 0.34972984 0.5853526 -1.3334489 -2.1956522 -3.185652 -1.9292433 -0.97570467 -0.2962616 0.26223475 -0.40488446 0.5888756 0.25993118 2.1316037 1.9301064 1.6715636 0.54628944 -0.6629151 2.867438 0.65677226 -1.2021766
1299 0.3902242 -1.7217823 0.5973963 -2.3657663 -1.368928 -2.4075444 -1.2505957 -2.1994884 -1.237979 -0.06692369 1.8074737 -0.63091457 -1.4285278 -0.2303816 0.67607594 0.94713306 0.35826224 3.0347025 2.1951535 0.7932956 -0.30587694 -0.30158556 -0.86264837 1.7832887 -1.256488 1.462402 -0.11441973 0.99851006 -1.5509961 -0.67030734 0.59037626 -0.19694246 -2.8221118 -0.7910404 -0.83971244 0.65684336 -1.256385 -2.461529 -2.0472598 0.022888616 -1.0809426 -1.7823244 -0.91446453 0.33289155 0.980038 3.4013112 -0.8209248 2.3315754 0.07835808 0.16928847
233 -1.1230212 1.7756233 1.4547986 3.4433098 0.47509134 0.55174035 0.3383907 2.627147 -0.9836281 -0.98615724 -3.7537658 0.74465996 3.0439317 -1.535522 0.68784726 1.4261917 1.1267679 0.32980117 -0.41256157 -0.7665178 -0.93906736 0.37918103 -2.090015 0.6122976 0.7651659 -1.8418643 0.03494163 -1.296856 1.5858399 1.6610879 -1.7993134 1.1208193 1.1671909 1.2770134 2.7530842 0.41840938 0.2594517 2.2333655 0.52929825 2.7400544 1.0552349 -2.3592784 -1.4614971 1.9270645 0.86403763 -2.1312826 -0.04287947 1.5386164 0.7176044 -1.0488762
1425 0.22471549 -2.3140173 -0.4575426 -1.6203661 -0.84419984 -2.6211112 -2.56512 -1.8488009 0.36133137 -0.2552369 1.9605267 0.10208709 -0.30361855 0.30580175 -0.4938566 0.47762856 -1.0581908 1.8034475 2.1857076 1.0289814 -0.8819088 0.33967087 -0.5692488 1.0274314 -1.6882628 1.8027558 -0.7088087 0.8738159 -0.76317537 -0.17038251 -1.1694716 -0.014716583 -1.8516128 -1.4559995 -1.1186589 1.253977 -0.2103178 -1.756619 -2.6351628 0.15888813 -2.2592149 -1.2584022 -2.2380536 -0.04161678 0.9621041 2.3312595 -1.4825991 1.4129741 0.97484595 -0.66265
1146 0.46884978 -0.7105763 -1.9939903 -1.8284701 -1.3192533 -1.9373982 -1.8850363 -1.7046916 -0.5894619 -0.20993385 1.5979133 0.040166114 -0.7353787 0.27291334 0.67511135 0.10104182 -0.9178641 2.9932377 2.3775866 -0.32679582 -0.56937015 1.2089409 0.541945 0.94510484 -0.77801704 0.08049569 0.2842013 0.55549675 0.91098917 -0.6828578 1.3074691 1.565637 -2.0761335 -0.8633794 -1.9082657 0.6349838 -0.6206486 -4.4466176 -1.7407272 -1.8075709 -0.67422116 -1.0095032 -1.5279014 0.2263041 0.7681539 2.3280644 -1.7665964 1.5143539 1.2816913 0.29450184
746 -1.3137581 0.3593162 0.2740146 1.0135027 0.5488818 1.6372296 1.9910915 2.8499243 -0.24851587 -0.7896643 -2.980236 0.41685697 1.5910438 -1.8129035 2.1010737 0.4828391 1.046762 -0.53254634 -3.3885293 -0.3820487 -0.729279 1.2168188 -0.8092462 -0.20281078 0.40052646 -2.4320676 0.03413255 -3.2952309 0.20983957 1.4193524 -0.37196165 0.2012652 1.339441 0.4100443 1.2850481 0.027549256 2.2128487 1.443224 2.0776255 1.1057397 0.3133419 -2.3079464 0.25730705 -0.60353386 -1.4662694 -0.4903327 1.6026108 0.19377512 -0.37015393 -0.49098215
1011 -0.2651902 -0.7096537 -2.2762682 -1.3180823 -1.9160998 -2.0891418 -1.8313521 -2.2245386 -0.8819966 -0.4106592 1.4390172 -0.77267665 -1.39382 -0.8135898 1.5928484 0.58610314 -0.1982653 3.7905695 2.53471 0.80713934 0.19349112 0.789945 -0.3296354 2.0814028 -1.7523909 1.8617462 -0.3304351 0.8968233 -0.003355698 -0.344869 -0.077397734 0.92309034 -1.5639956 -0.47374913 -2.2753108 1.197426 -1.6392847 -3.0256763 -2.0984142 -1.0237074 -0.31341058 -1.3699383 -0.70948416 -1.4236113 0.93729025 0.8103472 -1.0262393 1.5721047 0.5013217 1.4171183
882 0.18216516 2.1966078 1.3069489 1.052614 0.4107083 1.1241555 1.3645036 3.450231 -1.6584781 1.12789 -3.821885 -0.77762365 1.3458068 0.013396319 -0.8284564 -0.9882102 -0.07360927 -1.3809649 -0.56118 1.1142881 -1.72609 0.06429985 -0.89222723 1.63968 -0.679756 -2.4266906 -0.081870355 -1.5012037 1.2690092 1.2944288 1.8410069 1.0868664 1.1155864 -0.34059405 0.7082276 0.70345414 0.35383272 3.5428958 0.63388574 1.4960443 -0.3938928 0.024430722 -0.8641115 -1.4573576 -2.7494178 -0.22568627 0.71921265 -2.0951736 1.2448508 -0.14592315
1199 0.35639066 -0.35046315 -1.9458922 -1.2623199 0.5137061 -2.3659241 0.023836214 -1.444015 1.7117867 0.23710383 -0.19202645 1.3904754 -2.8340971 2.029404 0.18215093 1.49125 -0.46351683 3.3699152 2.9188337 -2.021263 -0.7031726 0.77057695 3.229857 0.1418514 -0.3793001 2.249017 -1.3881834 -0.48045722 -0.29431623 -3.074353 1.8972515 0.67476594 -0.89606905 -0.9247569 -2.7548323 0.278006 -0.41108018 -1.6525898 -0.24929354 -1.1679128 0.22455354 0.73046964 0.8894632 1.4040216 1.8117882 -1.8084999 -2.1855295 1.4352365 0.6034373 -0.5471767
795 2.1983812 0.50944155 0.14596209 -0.81382954 -1.0718236 2.1805692 2.1158843 0.22717673 0.033970766 -0.91933787 -0.90723926 -0.6674832 -0.07003902 -0.752777 0.1591346 -0.08465114 -0.44490215 -4.8386583 -2.7825797 0.13232411 1.9834466 -1.355049 -0.26600987 -1.5033319 0.18765235 -0.8313851 -0.94718564 -1.0383769 1.5358322 0.40669352 -1.2511269 0.67647696 -0.4677609 -0.49455252 3.0796046 -0.6346958 -1.6481482 2.7216156 -0.83974594 -1.0610766 0.0035482098 -0.5078118 -0.028500991 -1.1155992 0.17626137 -1.5749727 1.0045615 -1.5901082 -2.5485046 -1.9634413
1158 -0.027493281 -0.6587353 -2.3220382 -2.687067 -0.7016932 -2.2486255 -1.2947575 -1.4924115 -1.2112025 -0.56542367 1.2102075 -0.64918905 -0.34632453 -1.359902 0.61679256 0.11720722 -0.36883038 2.9307117 3.3609648 0.39154467 0.7014575 -0.6619811 0.79390615 2.20538 0.031911913 -0.3222573 -0.13551216 0.9351189 0.082437836 -1.5130932 0.49379194 0.5984 -2.1217127 -0.23051298 -1.7015723 0.89796126 -0.912263 -2.488908 -2.925534 -0.38345775 -0.23032418 -1.0716383 -1.744699 0.21247551 0.9781728 2.4967022 -0.16469544 0.46664813 0.8365865 0.1903919
1093 -0.41521356 -1.8579261 -0.99867284 -2.0089474 -0.8374193 -2.1588097 -1.4487586 -1.6545634 0.8689905 1.2834734 0.9069947 0.8013117 -2.941631 0.8251613 -0.16358766 0.46957397 -2.8306022 2.817338 2.7523656 -0.43679777 0.62178135 0.4121404 0.67421633 0.009518095 -1.5844561 1.0455548 -1.6767858 -1.2902935 -1.5738311 -1.1166604 -0.21889003 0.6711473 -0.4578334 -0.6731137 -2.9435267 -0.29864287 0.3819712 -3.77152 -0.16600186 -0.65941525 -0.62268835 0.6299753 1.5293702 0.58537716 1.4100413 0.68455416 -3.429595 1.3406684 -0.41170847 0.17028144
1417 -1.5029626 -1.0141157 -0.23388861 -0.214547 0.11201522 -1.9134139 -0.21294996 -3.1654937 0.84248805 2.3156996 0.6677278 0.79444474 -2.3048506 0.79702204 -0.6962982 0.40375322 -0.16403286 1.4421574 1.3344012 -0.6800222 -0.9602971 -2.4401228 1.1820016 0.40852356 -0.0052592927 -0.028662464 -2.1444783 1.562568 -0.5170983 -1.6957654 -0.4867225 0.8383211 0.2658216 -0.17435089 -1.5263796 -0.15311213 -0.027002946 -2.0654736 -0.9285966 1.4828026 1.5539804 -0.32365027 1.5972555 1.6648085 2.0150235 0.53036225 -2.6738677 1.0258597 1.0871751 -1.6961359
1031 0.6499947 -0.77121633 0.38959414 -2.2422237 -0.6720992 -2.4331143 -1.6211969 -2.437072 -0.5259186 -0.1945174 1.8021635 0.035385933 -1.9493064 0.43743387 -0.31499338 0.04499911 -0.6934784 2.128329 2.6596174 -0.7221298 -1.0349425 -1.087808 -0.18548748 1.7144332 -0.8980092 1.147696 -0.25619262 -0.6203572 -1.8068935 -0.40260595 1.3700237 -0.1927019 -0.6259427 -0.7980783 -1.7957178 -0.13662475 -0.75558466 -1.775988 -2.4753046 -1.021261 -0.05709964 -2.0029018 -2.4712782 -1.7526876 0.8970316 2.1264572 0.0069739395 1.7680923 0.44669312 -1.3833345
59 0.42307568 2.576233 1.0554906 2.496222 0.4846175 1.6995561 1.6592091 -0.13737841 -0.9360777 0.028176002 -4.4215274 -1.300125 3.0939703 -0.005088429 -0.40749407 -0.2570763 0.20198022 -2.1228201 -1.2786789 -1.4477633 0.3657341 0.98171955 -3.2342992 -0.51013523 0.26702172 -1.2857918 -0.43516514 -3.4902818 -0.38609335 0.26886547 -0.44478402 1.4659187 1.0125023 0.3076641 2.9853506 0.92808765 1.0160501 0.51196104 -1.3216063 1.0582396 0.1939926 -0.65811884 0.75225204 0.8456763 0.47613063 -1.1800008 1.382363 -0.24881314 -1.1034421 0.98888665
1275 -1.9028999 -1.246486 -0.19699803 0.7629931 1.843798 -0.91266197 -0.56177884 0.23766966 3.3342957 2.0837917 1.7394849 -1.2713236 -1.7617718 -1.0756633 1.4578965 2.4244313 0.41365623 -0.11969139 3.2175725 -2.7675412 0.43710864 -1.5302666 1.6629242 1.1106772 -1.7364721 0.16473575 -1.388052 2.0734127 0.307532 -0.0202374 -1.157871 -0.71691716 -0.119894855 0.3480546 -1.3455461 0.8184897 -0.721248 -0.92524254 -0.7821926 1.1629243 -0.43733692 1.9284587 1.0542827 0.2089288 -0.6056865 -0.11694199 -2.8151696 1.262751 0.61156094 1.4774388
1214 0.08302254 -1.57038 0.7562114 -1.4710525 0.3777515 -1.3401366 0.9586278 -0.49222517 2.2732637 0.8288118 2.101518 -0.10604977 -1.5060214 -0.18935938 1.8864642 0.9758482 0.42064345 0.66024536 1.3770728 -1.4966705 -2.0141425 -1.5505155 -0.0655146 1.2053428 -3.6061015 -0.33990443 -0.7240401 2.5911088 1.1927485 -1.6686926 0.95213455 -0.069913566 -0.8123654 -0.39045212 -2.9651132 0.25744325 -3.4142065 -0.6129652 -1.192322 2.1697485 -3.4654212 0.374551 0.84022325 1.430342 0.7829783 -0.17355582 -1.9279559 1.945171 -1.1693667 0.18548347
1118 -0.06902556 -1.0470691 -0.9578334 -0.50743675 -1.8320259 -2.3595674 -2.5491352 -1.7964935 0.13282718 0.329985 1.3174349 -0.18763311 -2.1759033 -0.5672077 0.087577805 0.83338654 -1.9254494 1.8564135 4.275464 -0.82663745 -0.9500827 -0.9453422 -0.012198546 2.2148764 0.1792433 0.652642 -0.89544386 -0.44724664 -0.3554788 0.052369867 -0.0035220901 -0.048423287 -0.7165632 0.23833476 -0.12466431 0.58859473 -0.06923452 -1.3932332 -2.3165956 -0.7290258 -0.4552352 -1.7351027 -1.2566621 -1.9098892 0.80062526 2.162017 -0.47688112 1.7767214 0.48134896 0.11356093
144 0.6844552 1.6253421 1.1806045 -2.073371 -2.8265007 2.4089127 -0.05919687 0.27549157 1.1843944 0.9665285 -1.0391788 -1.4833086 1.7126619 0.82352567 -0.742354 -1.0544823 -1.9995686 -1.1346734 -3.2400346 0.43077603 -1.0967387 -0.5939265 0.56161016 -2.2499797 3.1405573 -1.2962357 0.7716308 -0.35264248 1.213721 0.866534 -0.1400815 -0.2938257 0.98410445 -1.3896179 1.2658682 0.06764899 -1.0828472 3.6951354 1.7188922 -0.2322656 0.4657325 -1.1143016 0.54980797 -1.3913792 -2.2408524 -0.80049276 2.5343215 -3.3987658 -1.4971406 1.7862843
310 -0.43220362 3.269501 1.5892876 2.5312276 -1.6556052 2.5169814 0.54204893 1.0152158 -0.49798435 0.17021559 -3.1074927 0.53593695 2.6665606 0.7061029 -0.9355133 0.38469046 1.294839 -2.032946 -3.4102273 0.68786573 1.2834989 -0.991112 -2.5138156 -2.391158 2.1488025 0.3162089 0.436164 -1.7038951 1.7769212 1.9037822 0.07719661 0.14383261 0.63236934 0.7279789 1.4887905 -0.9587692 -0.046545234 1.507503 -0.6683111 0.46738282 0.8295353 -0.095009364 -0.5217385 0.27046758 1.662562 -0.46143556 0.5442687 1.5062325 -1.7826225 -0.9428431
1457 -0.3854256 -1.0858601 -0.21094307 -1.3497583 1.6270102 -3.3804388 0.47094125 -1.6242127 2.3055716 2.0905113 0.19254878 0.47434005 -2.5927892 1.5333896 -0.056283295 1.3685905 1.0245341 0.7960802 4.0213385 -0.30953985 0.18922986 -0.7799489 -0.67897654 -1.6629773 -0.7582344 3.1037395 -0.8385993 2.1590345 -1.4138604 -1.8804245 -0.041558336 0.08191554 -1.2839838 -1.6835623 -1.7080636 -1.1091908 -0.3316024 -1.775695 -0.5919128 -0.2581015 -0.8291542 -2.0342224 -0.46115243 0.5915981 0.48036748 3.4253104 -1.2288424 0.21506074 -0.020304352 1.0179933
200 -1.9202789 1.9051945 2.5539207 -1.0676465 0.27542648 1.8495326 1.1965367 2.012192 -0.86548644 -2.4422538 -1.7334293 2.1428235 2.3926096 1.3330826 -1.5431445 -0.05700704 1.4651115 -2.194817 -0.13048428 1.6690975 -2.0294757 2.2675145 0.225563 -1.7415642 1.1483412 -1.2467824 1.1708264 0.10166809 2.868442 0.9006075 -1.0645097 1.3688205 1.8617926 -0.0916764 0.8980807 -1.3439977 1.3356237 2.7193336 -0.57453513 0.63160974 1.3530376 -0.7074389 1.7347314 -0.120389305 -2.4317932 1.121801 1.3416646 -1.5981324 1.5613004 1.5880921
255 1.0736113 0.48417768 0.8669295 -1.1132143 0.3961644 1.1031806 -0.35966724 0.04934286 -0.24821927 -1.1282505 -1.2540073 -1.4308139 -0.14483486 0.63053006 -2.038068 0.09115587 -2.0023642 -3.319206 -3.7562668 -0.47232094 2.684853 -0.62778187 -1.4506027 -0.9679746 3.2975006 -1.0142033 -0.4578836 0.5187093 1.0571519 1.2703204 -0.6641169 -1.9792962 -1.9202795 1.8705624 1.5381145 -0.61902267 0.4353555 3.6471877 1.1677382 -0.52581954 0.97354335 0.63347554 -0.21852863 -1.5867217 -2.0643382 0.114762604 1.0530393 -0.64069897 -2.4432545 0.39204478
957 0.37311673 -0.38616455 -1.6479658 -0.6921595 -1.5971253 -1.935996 0.6183624 0.81980366 -1.3760219 2.05199 -0.08038225 0.31814137 -1.8356279 1.7218722 1.2149342 1.0981141 -0.7512488 2.520743 1.6848966 -0.7772353 2.4928591 -0.06595459 2.226398 -0.28540677 -0.74842906 0.8595812 -1.564049 0.85010445 -0.16030462 -1.3307886 1.3475251 1.8770493 -2.2932658 -0.075519174 -1.9904011 0.337265 -0.29744107 -3.515355 -0.49191022 0.38130194 -0.7374258 0.37881455 0.75650495 0.92761046 0.25474808 -0.32215038 -2.1725705 1.6873518 1.4074732 2.0954466
294 -0.25493252 1.3235574 1.6768773 1.1292864 0.59475887 1.267918 -0.42198387 -0.16082297 0.17204735 -1.3548322 -3.3204162 0.3701768 3.3607879 -0.09812303 0.450777 -1.7188095 -1.8930496 -0.86422116 -2.2078583 2.7025652 0.49249318 -0.44583446 -1.3440318 -3.1054397 0.3517676 -1.1431261 -1.0020106 -1.7143825 -0.7068874 1.321881 -0.15124741 -0.54017514 -0.9870347 2.1116772 0.7100379 -1.1348984 -0.85503924 3.7677867 -0.63952667 -0.0013991237 0.80305827 1.0323318 0.6753421 -0.3115591 -0.44479042 -1.6609021 -0.51802796 -0.48754597 -2.2136533 -0.72869754
1270 0.48741946 0.8182249 1.0790142 -0.047284763 -0.19507718 -0.08676627 -1.6642501 0.1245117 2.5171642 -0.2053248 1.5657339 -1.3603591 -0.7040741 1.5839794 1.4019175 1.858693 1.7846549 0.6403824 4.2756333 -1.7216586 0.9082001 1.8626096 1.5087674 0.7427091 -2.0439463 -0.41994825 0.4946569 0.9377656 0.9140232 -0.88637936 1.7798252 0.22132817 -1.8204064 0.14642836 -3.506858 1.6161535 -1.7333412 -1.4169669 0.21799345 -0.32907227 -0.88285637 2.8722699 0.8250342 0.8819493 -0.87008107 -1.1087186 -2.6561751 1.0422173 0.48238164 0.7683903
803 -0.9142986 2.2686756 0.8870207 0.49201652 0.26751357 0.3786813 0.12063216 1.0575066 1.1084167 -0.6635228 -1.8260199 -1.4022628 2.4243264 -0.15783148 -0.20880699 0.1952479 0.8176121 -1.8628368 -3.6816845 0.7315576 1.8152832 0.96175605 2.0592232 -3.1848242 1.8012944 -2.6548994 0.87569565 0.27291897 0.6966107 1.4429051 -0.39335868 1.9083962 0.7045096 -0.130118 2.9539587 1.8872743 0.4641058 1.7578404 -0.39334503 -0.28397498 -0.15252204 1.0474321 -0.20513661 -0.8165661 0.1729806 -0.006104438 2.418502 -0.8644278 -0.91386193 -1.5507284
1369 0.9723664 -1.7443457 -1.1168493 -1.5783558 -0.7617226 -2.795636 -1.7847191 -1.7720442 -1.3221911 0.88883847 1.4268063 -0.23816238 -1.9236103 -0.21232915 0.9568533 1.1965313 -1.1861166 3.0419495 1.1275833 0.27879512 -0.9479981 -0.8714973 0.67946136 1.0247318 -1.7764506 0.63022786 0.895261 0.18082057 -1.2787001 -0.11485308 -1.7102618 0.25020194 -2.7806952 0.028155375 -0.57712346 0.66981006 -1.1596014 -2.587293 -0.81472933 0.13945268 -1.0025125 -1.4137832 -2.106303 0.91396415 0.41029808 2.9840102 -0.2259835 2.05659 1.5137938 0.43260518
970 0.2938364 -0.53469294 -2.2964342 -1.1142653 -1.9675269 -1.5876317 -0.46250215 -1.6742206 0.5301286 -0.7255701 2.0169797 0.881571 -1.3196462 0.7594485 0.3948023 0.5921731 -1.3429701 3.701283 2.3668985 0.98199505 -0.51825374 0.038273748 0.87479854 2.1873443 -1.3992707 1.0474865 -0.40608552 0.43798584 -0.09629337 0.9281037 -0.36468259 1.4538912 -2.661882 -0.48068905 -2.124427 1.0774871 -1.3627644 -2.8899527 -1.6119679 -0.8958804 0.6269409 -1.2881716 -1.6412868 -0.6712119 0.2726041 0.7003633 -1.2350469 0.63823014 1.9613158 0.7958751
1137 0.38057885 -0.46719012 -0.40006346 -0.71609384 -0.99480325 -2.485229 -1.9267231 -1.7225507 -1.3922712 -1.1322209 2.3982055 -0.6050689 -1.8429191 0.09369901 0.2594565 0.3445653 -0.98972434 1.8192488 4.314577 -0.65449095 -2.2568324 -0.15421799 -0.6505124 0.92175174 -0.2796028 0.3888784 0.14614204 -0.3539398 -0.032274738 -0.4320631 1.1082689 0.93025315 -1.032469 -0.6872607 -0.9866293 0.3985624 -1.0938326 -2.9354148 -2.1662397 -1.0307232 -0.32213655 -1.6341318 -1.9764597 -2.3265505 0.7788687 1.2479728 -0.7274955 1.2347379 -0.22553591 0.12193199
456 0.9422627 2.122216 0.89846784 0.7930041 0.45351374 1.5482845 1.2385588 1.9420522 -2.3619244 -0.49333394 -2.4160297 0.7782372 2.4273326 1.6208049 -0.22746547 -1.1371944 1.1036258 -2.5103662 -2.364026 2.6796048 -0.74283594 0.7021886 -0.31766373 -2.3574305 0.108976625 -2.194457 1.4959731 -0.07991575 0.57203317 0.94817835 -0.75629693 -0.7753967 -0.38242024 0.76504457 1.5717889 -0.8971751 0.42309678 2.2660208 0.5341864 -0.89344823 0.3181701 -0.8198638 1.0164431 -0.9517516 -0.22855963 -1.7240599 1.5230854 0.23985088 -1.9147521 -1.4632329
338 0.6044019 3.1086662 1.6359035 1.2670645 0.9776576 2.0412047 -0.789117 0.7563651 -1.1404886 -0.2733265 -2.713435 0.08408982 1.0507433 -0.0649482 0.5212733 0.15019059 0.33099356 0.7348602 -1.675444 2.028645 -1.4442161 0.65306544 -0.8535566 -1.9315151 0.8850919 -1.0042782 0.47691885 -3.2743397 0.59404856 1.0324502 -1.8650969 1.6722842 2.1530097 1.2622284 0.56201756 -0.90402895 0.9737472 1.8049963 0.69854033 0.7247893 -0.58618295 0.79320115 2.6805158 0.07059108 -2.8244 -1.6322881 1.773167 -0.3897497 0.050561722 -1.1748352
1127 2.269731 -2.0317316 -0.562584 -2.593624 -2.3504415 -2.9172955 -2.55285 -2.1127627 -0.26704735 0.52763945 1.7356089 0.55216247 -1.9960254 -1.1065352 -0.05412136 0.84195626 0.21947904 1.6097571 2.6278799 0.047128208 -1.100004 -0.42051587 -0.60237837 1.1510353 -1.0562483 0.3600187 -0.9918769 0.97920185 -0.9948663 -0.83939 0.07967086 0.122629 -2.1429977 0.31517804 0.035546556 -0.57252485 -0.3651486 -2.608651 -1.8417206 1.9527482 -0.48875397 -0.51917416 -1.1564399 -0.41347656 0.54523337 2.0473502 0.30074087 0.14969717 0.52212065 -0.11073012
494 0.7253851 2.1791565 3.706623 -1.4707177 0.8876671 0.94853574 1.0745958 -1.3684541 -0.7118683 -0.37622815 -3.1665394 -0.1339349 1.3520397 0.4575915 -0.24485251 1.4297606 -0.06533103 -2.347879 -3.4205348 0.47747636 0.7826361 -0.7313236 1.1479278 -1.6273403 0.9278833 -0.7055031 -1.3862078 -0.28632224 1.9456311 1.5692245 1.2713559 1.7133015 -0.874491 2.496773 2.754434 -0.9796982 1.2247809 1.5394698 -0.65269977 0.12146528 -0.24727196 0.11891076 1.3222146 0.33030277 -0.37764502 -0.02924707 2.1254182 1.1955038 -2.0259092 -1.3081652
1545 1.3239688 -2.1543713 -0.8113025 -2.0867739 -1.0842998 -2.3984563 -2.813229 -1.3840051 0.43950915 0.6599177 2.1560519 0.40110177 -0.8856376 0.37604478 1.0661386 1.1484814 -1.4232147 2.2037187 2.6734738 -0.4606838 -2.2419875 -0.67463064 -0.61752623 1.1082418 -0.21797955 0.87772226 0.53324974 0.8074195 0.5840433 -0.71015453 -0.25102624 -0.33712098 -1.3510966 -1.0273509 0.52739364 0.534558 -0.51465464 -2.3569527 -2.199566 0.7530755 -1.0350876 -0.9679232 -1.097149 0.44466847 0.16329671 2.4488225 -0.77771163 0.53899163 0.41179383 -0.8489536
748 0.58505875 2.3391552 1.2005439 -0.6232487 0.32796997 1.1644416 -0.6960432 0.41159108 1.3104148 0.07115614 -0.4466428 0.30970338 0.57664883 -0.59937936 0.47773424 1.220062 -1.1587757 -3.7388058 -3.0359254 0.14474826 1.9258664 -0.6364684 -0.47307575 -2.834602 1.8860039 -1.3917719 0.6174179 -0.58299786 1.2163423 1.9823204 -1.4220515 0.27288502 -0.9500575 0.65739787 1.7335933 1.1133165 2.905446 1.327067 0.39334157 -0.065230034 -0.30014837 1.2471503 0.8212035 -0.86727935 1.7636014 -0.82497776 1.4155897 1.44815 -1.756952 -2.2603183
1139 1.0951742 -0.5264819 -0.7959743 -1.6559492 -0.92738926 -2.6122186 -2.2069335 -2.032615 -0.88193434 -0.37958476 0.8069265 0.013830745 -1.4203956 -0.07952261 0.37933815 0.25831583 0.2321323 2.954916 1.3279617 0.8718794 -0.2077477 0.16408385 -0.71178746 1.7450786 -0.019036321 1.8979635 -0.007679266 1.5660818 -0.654159 -0.47825888 0.30150017 1.3873141 -2.5278523 -1.1402957 -1.4918622 0.67523223 -0.81236136 -1.7943717 -1.8210914 1.0547537 -0.58792144 0.6073035 -1.6749438 0.86970687 0.7155207 4.259386 -0.9993797 0.55691326 1.6423421 -0.9556356
408 -0.00509834 1.2059778 0.66422886 2.652228 1.0772387 0.0151410205 1.6353894 2.3307996 -1.898867 0.5727428 -2.7907262 -0.068081975 1.0163671 -0.63416433 1.0790014 -0.5756514 3.1077764 -0.038408622 0.9135165 -1.0122275 -0.8288598 -0.40352082 -0.015766336 -0.13841324 -1.8036919 -1.0221993 0.9956757 -4.2223244 1.6148951 -0.9583574 -1.6273134 0.62123644 2.3137512 0.5899578 1.7019676 -0.746339 3.6647737 -0.20806712 -1.8459874 1.0157981 0.43346274 -0.33085713 0.50250953 1.9354348 1.0173041 -0.8167555 0.9745486 1.2715236 1.1453136 -0.45830742
311 0.122632004 0.7073306 0.69029695 3.4481194 1.0372318 1.2795403 1.4828876 1.935897 -0.094699815 0.5448594 -2.1591 1.0038333 -0.008123218 -1.286335 2.128009 0.753461 0.5412019 -3.4245644 0.3447611 0.28891015 1.569112 0.91119206 -0.9872741 -0.15251745 0.7371067 -1.1906204 -0.42545316 -3.146393 0.07337578 1.0187331 -1.4032395 3.0929537 1.2194436 1.5611235 0.60431933 -0.5065013 1.3480183 1.6737648 -0.32878417 1.7837363 1.7317573 -2.3140914 -0.86808985 1.2982824 -0.011641495 -0.5247247 0.498028 1.0918466 0.31479165 -0.62003934
523 0.321942 2.0796695 -0.6164567 1.1178635 3.111394 3.45613 1.3065717 1.7798349 -1.0009725 0.5939753 -2.8550692 -0.79849106 3.2228806 0.16229619 -0.53567684 -0.33018488 1.4433584 -1.5518761 -1.3340681 -0.5906851 0.8549098 1.368984 -2.5652416 -0.2507707 2.0933716 -0.5352922 -0.20126279 -2.4455488 -0.85124916 1.7138942 -0.94861317 -0.4944292 2.6401992 0.51508445 1.4519418 -1.5748938 2.1212113 3.0322642 -0.8308463 -0.25955623 0.049192786 -0.8930201 0.24036837 -1.5845941 -2.0912468 -0.9515027 1.1683334 -0.23639767 0.8031419 -1.060571
797 1.0389798 -0.58989936 0.88541967 1.6266546 -0.04438525 1.3930849 3.6010804 -0.24467184 -0.357864 -1.4819062 0.9192167 -1.1792743 0.46993026 0.77680343 -1.02657 -3.3715453 -0.24972124 -1.0629077 -2.6812994 0.42965415 1.7237496 -1.210276 0.2152307 -1.1368365 -1.3103398 -1.5633351 -2.2892425 -1.5758334 2.0663223 1.2566421 0.48939282 -1.3930427 -3.0192447 0.4837562 3.304696 0.4713182 1.619281 1.757991 -0.17193046 -0.49828368 1.7126995 -1.4595059 -1.240637 -1.0254725 1.2785435 -0.7154198 -0.8962528 0.023153782 -0.7172124 -0.78707117
1077 -0.1790925 -0.91619194 -0.16153151 -2.8967733 -1.1405375 -1.7570579 -2.0002706 -2.515166 -0.097637534 0.22321068 0.5106239 0.21566398 -1.1978484 -0.27391094 -0.33246773 -0.059387468 -0.7033596 2.561014 1.5469741 -0.14506093 -1.3863771 -0.55303246 0.10018232 1.3037916 -0.8292217 2.4210317 0.47063562 1.0623838 -1.5057689 0.76430666 0.07686846 -0.27849826 -1.16878 -0.78380615 -1.1076138 1.0057678 -0.92912966 -2.3275614 -2.1573923 0.45507738 -0.84950984 -2.1263993 -2.6294062 -0.74169475 1.0303985 2.0328078 0.40360236 1.1795433 1.2860179 -0.42234597
503 0.9699348 3.088576 -0.26309332 -0.7003648 0.6335881 2.6359074 1.0162328 0.17011449 0.7618074 0.47762358 -2.6749468 0.96444714 1.0739777 -0.77828896 -1.2421845 -1.0730908 0.7261603 -2.1005714 -2.6349618 0.9128131 -0.66121656 1.2005414 -1.1029426 -0.7067502 2.6719644 0.26810637 0.72689253 -0.8154117 0.096013546 1.460669 -1.8718383 -0.81263703 -1.3306566 2.569392 3.245454 -0.70861155 0.68449706 1.9566517 -0.900664 1.3622707 -0.9258228 2.6178493 1.5456172 -0.6096346 -1.2982074 -2.5613694 -0.018154982 -0.5356066 -1.6997845 -2.8433883
863 -0.09416251 2.5530794 1.0161927 0.54317135 2.0590458 2.0274677 0.3665644 -0.0875604 0.017609922 -1.5662155 -1.4732213 -0.35528782 1.5613 0.6120667 0.2796508 -1.0245032 -0.81722915 -3.030269 -2.1762054 1.9064277 0.37276465 1.8929977 0.53080535 -1.4033076 1.2296419 -1.503814 0.3346983 0.9407113 1.3423655 1.5576434 -1.326086 0.29225507 -0.31610358 -0.010740982 2.7646005 0.7785165 0.8937962 3.1564353 1.0530492 -0.93155813 1.0360476 0.294319 1.9671206 -0.35598835 -1.4623967 -1.0001315 2.5200438 0.8195243 -1.0836971 -0.6880616
199 -0.35797152 2.6835728 2.1648357 -0.021341575 0.59565294 0.9404387 0.08683725 -0.6366496 0.16330072 -0.35758612 -1.5439751 -0.3689251 0.3576892 0.6326994 -0.73876077 -1.3861235 0.8894233 -2.4691334 -3.8934343 -0.4097551 0.5875341 0.6515425 -0.1080575 -1.3345828 -0.5050623 -1.475507 0.68955845 0.9698306 0.26593518 2.316731 1.0631605 0.14204723 -1.770655 0.25671762 2.9658577 1.0639828 0.48133847 2.3962615 -0.2415269 -1.5393839 1.2083462 -1.3999653 -0.4334085 0.0052993665 -0.17797366 -2.5838084 2.248556 1.0130473 -3.1321387 -1.7243216
342 1.1261557 1.9068936 0.91961896 2.8434541 0.69816315 2.3174782 -0.08529441 1.4297551 -1.0990049 -0.5999156 -3.453518 -0.12852812 2.0637531 0.2897734 0.4865066 -1.1334214 2.569331 -0.802429 -1.0869353 1.1724609 -1.3496895 1.6421156 0.07919876 -0.7995072 0.25877616 0.22267924 0.66768885 -0.07941817 0.25951287 1.220288 -1.1912373 1.3210136 0.68292683 1.9413637 -0.5063431 0.07436008 2.5535598 3.9610353 1.5693088 -0.24805392 0.17431371 -0.25277838 2.2933388 -0.44134453 -1.7436041 -0.15874706 1.7709929 0.16810948 -0.9352583 -1.5299327
1347 -0.36721057 -0.8077125 -1.8061842 -0.41370443 -0.3517502 -2.559878 0.46191826 -0.91523224 0.43951604 -0.4201936 0.7455792 -0.37456113 -0.343734 2.1899018 -0.9476732 2.090575 -1.0150452 2.4904013 3.6258178 -1.0554795 0.904749 -0.26108044 0.85339135 -0.0094903475 -2.1566627 0.2524185 -1.2564175 -0.39102316 0.18224005 -0.19171461 1.3148417 -0.30022147 -0.751265 0.12911184 -2.6924136 1.2156731 0.6037547 -2.4809241 -1.103315 -0.573176 2.3030643 -0.70297563 0.51989317 -0.5732552 1.3703545 -1.1768337 -3.4356163 0.9842175 0.673846 3.2654364
0 -1.2972442 1.2001231 0.7390714 2.1670609 -0.37153476 2.1638336 0.6492376 2.60557 -0.50806516 -2.3070598 -4.0183024 -0.9290443 0.96919405 -0.20206875 0.3242828 -0.86761945 -0.32519236 -1.3244513 -0.32646155 1.994322 -2.0376801 2.0816646 1.2429669 -0.44479293 0.36503327 -1.4118105 0.54342675 0.07671834 0.0828143 -0.10070276 -0.4266833 1.4923643 1.3007503 -0.94729763 0.28488448 0.14087449 1.0442282 2.8203628 1.2059839 0.5238778 0.21642756 0.052757647 0.49655685 0.72815984 -0.8904478 0.036314234 3.4045799 -0.90613776 -3.1373327 1.2156986
886 -1.7048832 -1.3253142 -0.33507925 0.9889449 0.28689748 2.3584807 -0.91209143 -0.45754385 -0.41447192 -0.72859377 -0.35290945 -0.1413224 0.9299391 1.0166885 0.8798928 0.3371329 -0.8743528 -0.26164332 -4.63545 0.75831586 1.9771993 0.3174846 3.4009953 -1.30987 0.91687524 -2.7478962 1.1934077 -1.62917 -0.42330524 0.5320989 -0.7811218 0.26413307 -1.6598521 0.63646466 3.366972 1.377168 0.98099005 2.2675774 1.2177252 -1.5370268 0.62438405 -0.37496972 -1.4485233 -0.3663057 -0.5578857 -2.5670328 1.5034357 0.13299753 -2.5909538 -1.652722
935 -0.8121035 -1.6730113 -0.9893018 -0.6728178 -0.3758914 1.542774 0.41297188 0.08103474 -2.9665942 -0.90430206 -2.7820861 0.23791665 0.9826008 0.012314632 -1.831364 -2.6297483 0.31408638 -3.040432 0.18412614 -1.2376766 -0.9048818 -1.7851157 -0.3499944 -0.3142143 0.25018835 -0.12877771 2.984364 0.062081065 0.09988806 -0.6524259 -0.4919155 0.4528999 2.7995033 -2.0260751 -2.3402903 -0.21908818 -1.4550171 1.1429491 1.2505184 0.325169 -0.2169042 -0.3070288 -0.5869358 -1.3492056 -3.1096454 -2.171263 -0.8127132 -0.9660869 -0.5785001 1.1829993
243 -0.7391407 -0.05583385 2.331871 -1.2243524 2.14776 1.3542005 0.10426269 -0.47147843 -1.6417115 0.99569684 -1.4939357 1.2841338 2.877587 0.18117237 0.3178175 0.2611782 -0.29123026 -1.4880768 -1.1122968 4.104803 -0.9610978 0.13023034 -0.09070365 -2.282882 -1.041903 -0.34005234 1.1489813 1.392651 1.8786985 1.7289287 -0.78171366 -0.54783726 0.32787153 0.56039053 -0.66339 -1.0668844 1.2635499 2.4923787 2.0812507 -1.448611 1.5447707 1.0353508 2.0085442 -1.4815686 -0.6138073 -0.7055723 1.2872083 0.19118449 -1.7500484 -0.32557443
118 2.3198557 0.19888276 0.20441507 0.5240272 -1.030422 2.0314386 2.1900728 -0.3850362 -0.1146503 -0.1692413 -0.1913319 -1.1056606 1.3666196 1.0643909 -2.0741403 -1.692652 0.5942028 -2.8317976 -3.1462855 1.5854206 0.15242532 0.8118136 1.0444021 -0.8326646 1.372632 -1.2636849 3.272369 -0.84948677 0.80975264 2.9084275 -0.99817365 1.3992091 0.7949058 1.0909957 -0.46611214 -1.0853531 0.21085088 3.2608085 1.3023068 -0.6389467 2.125861 0.31425944 0.83543515 -1.9969766 -1.5694332 -1.2505742 -0.38508022 -2.1084275 0.08833215 -2.0365803
434 -0.13664792 1.3171632 2.149958 0.778264 -0.032210067 3.0464032 -0.4448583 0.818854 1.1919456 -1.3205726 0.046713237 -0.63943326 1.9120744 0.8586105 -1.2694161 -0.7748452 -1.0155305 -2.2495086 -1.617762 2.933982 0.12747648 0.45979062 2.176836 -3.5118477 1.3584231 -2.3748016 -0.5459742 -0.74490327 0.89285576 2.4346747 -2.4139762 -0.35067815 0.8970118 0.9948429 1.1522199 -0.06194746 2.1496778 3.919938 -0.020461595 -0.4575226 -0.008201695 0.020690601 1.5896186 -0.3940084 0.2009159 0.38982671 0.966126 -0.7119749 -1.7660427 0.21236078
405 0.79653436 2.3514116 1.9188445 2.651027 0.21513885 2.119574 0.026048623 0.5580701 -1.031376 -0.72806597 -4.04724 1.3129289 1.7728089 1.2839277 0.8205423 0.321782 0.40224138 -1.5581776 -2.696226 0.21215793 -0.6914487 1.5730001 -0.5646566 -0.60567534 0.31020063 -1.468844 0.7136543 -1.4951235 0.03859068 1.5205989 -1.4341536 1.2787906 1.7788825 1.7567999 0.032084253 -0.3275602 0.95271 0.4271862 0.6879147 1.4643557 -0.2803906 -1.9960961 1.2235802 -0.49635324 -2.1840415 -1.5490353 1.319593 -0.7380788 0.056964662 -0.6099423
711 -0.32180062 0.9507532 0.5087081 0.7060138 0.34185803 0.85875 0.9997643 -0.3635085 -1.3079224 0.67795736 0.24546754 -1.4182729 1.6258444 0.29222468 2.468031 -1.762503 -2.2888923 -0.19999278 -2.7173462 0.5591544 -0.098786436 -3.034847 -1.3345636 -1.8803957 0.5164712 0.45503715 0.49519756 -0.6837527 3.4593148 1.7779971 -0.6812179 -0.8170719 -2.9488184 1.9731771 3.2467332 -1.4813502 -1.1774561 1.8600343 0.9320467 0.8934445 1.2164056 3.0142977 -0.8583156 -2.1019912 0.6272662 -1.125645 -0.032585975 0.38355523 -2.1531856 -1.7244526
1144 0.19698584 -0.48762915 -2.4260857 -1.8589712 -1.6484994 -1.4807664 -1.9066657 -0.4950149 -0.83342004 -0.8266597 0.41994455 -0.14850344 -0.7300974 -1.2906641 1.0568544 0.12953384 -1.1195323 2.6667068 2.9029546 -0.046025306 -0.21138057 0.7786548 1.2995852 2.0506012 0.02306969 0.8328069 -0.22895123 -0.026149733 0.77176124 -0.8698177 1.6709384 1.1719495 -2.2301593 -0.02783103 -1.6025356 0.84247047 -1.3137039 -2.8549044 -1.2383648 -0.40431142 -0.565416 -0.5348872 -1.7885739 -1.9131639 0.93682075 3.7034125 -0.6330402 0.5171711 0.78212786 0.4733556
1257 0.5544741 -1.7569371 0.29541868 -1.0535104 1.609689 -1.0191315 -0.33632436 0.7558156 2.7393243 0.3165319 1.8810338 0.6066727 -0.97412646 -0.30454767 1.77559 1.5670158 2.0781245 2.4829178 0.9891399 -0.12444623 -0.46932116 -1.9100238 0.7332273 0.48369527 -3.296365 -0.079082705 1.2245752 2.551089 1.0313942 -2.2599466 0.94384766 -2.203525 -0.34373087 0.6318029 -3.3708935 -0.10960355 -2.865929 0.27647227 -1.5175695 1.7348149 -0.33014467 0.54107046 -0.5867911 1.6314032 1.6560835 0.46657854 -2.0487995 1.4223225 -0.6282117 0.6875175
1365 0.77824336 -0.351095 -2.1533947 -1.1083692 -1.5080429 -2.202449 -1.360712 -0.79246056 -0.7172637 -1.085764 1.6685207 0.854216 -1.3991373 -0.27343756 1.4903624 0.8845236 -0.93899673 4.29918 2.5574994 0.11677914 -0.40404397 0.1650545 0.5196209 1.7993786 -0.68277866 1.9444247 0.42689505 1.6072325 -0.46200827 -0.03430159 0.46931887 0.7701034 -2.7204208 -0.50063276 -1.4472852 0.74755293 -1.0016279 -0.78709394 -2.6245291 -0.04421881 -0.3056433 -1.6523968 -1.3621155 -0.22645676 1.0505788 1.0372291 -1.0751289 1.1665804 0.9104831 0.90998733
177 1.373035 1.0603789 -1.5078064 1.1296397 0.0589602 2.3394394 1.1292596 1.9031625 -1.1314027 -0.5096269 -0.8162785 -1.1955813 0.26518407 0.54164773 -0.26915494 -0.5394118 -0.04181391 -2.3477929 -3.3985121 0.89943546 -0.22938074 -1.4463915 -0.48746324 -2.2126734 2.3734624 -1.5532974 2.3847668 -0.706957 0.46225098 0.48422134 -0.111394405 0.86530423 -0.41829285 -0.49005574 2.4792144 -0.95858264 0.04430931 3.9300268 0.5896277 -1.1107465 -1.3202981 0.6253775 1.4335822 -2.3506413 -0.0462245 -0.5860221 2.5917416 0.54806256 -1.706675 -0.32567272
1136 1.2650735 -1.4376602 -1.6440682 -0.29897282 0.02902942 -1.9989511 -1.1104621 -2.2895398 0.01822345 -0.08926457 2.3433983 -0.79158145 0.17261158 0.24459851 0.57555526 1.5882907 -0.84694576 3.363244 1.7423671 0.6607281 0.081733674 0.11344964 0.3108876 0.3097448 -0.17666304 2.2457268 -0.85626525 0.13177976 0.39822423 0.21393684 -1.0479649 -0.14733699 -1.9910617 -0.84774756 -1.0894786 2.2888823 -0.82414925 -3.109894 -0.78560084 0.28127685 -1.8405166 -2.3256865 -1.200773 -1.0843344 0.45404714 3.361743 -0.9929996 1.0088077 0.707725 0.19211547
906 1.2914892 -1.6417682 1.2970884 0.15218547 -1.9922645 1.843677 3.2461526 0.3442763 -1.6484032 0.27170885 -0.32557032 -1.7903261 0.88930804 -0.60164326 -1.1984888 -0.82327825 -1.2289294 -3.7250266 -2.1200638 1.4978212 0.7921813 -0.5304164 0.7826303 -0.45417073 1.9714094 -0.89445645 0.53351027 -1.6150014 1.1445568 0.26964542 -0.534789 -0.62235516 -1.3036972 0.0025010838 2.436605 -1.9220433 0.17380306 1.8148856 1.2722673 -0.6105251 -1.1525759 1.3008542 1.1010101 -1.9346107 -1.6630405 -0.25283185 1.2979963 0.733169 -2.4298124 -1.774317
806 -0.47041568 1.3505541 -0.59568304 1.5661521 1.2264383 0.96119523 0.17479101 0.5199365 0.73403454 -0.74542296 -1.8290304 0.24770011 -0.36377236 -0.5279633 -1.0077277 -2.8999646 0.32414207 -2.1642709 -2.9489486 1.4436132 1.0890275 -0.12624583 -0.7147606 -3.6184702 -0.09967599 -2.186451 -0.69343907 -0.4694617 -0.2904938 3.0374892 -1.9123675 0.31926188 -1.1935178 1.70298 3.977238 0.6150683 0.9530031 1.768536 -1.5158653 -0.00046516466 0.457192 0.75209016 -1.6095362 1.5784127 2.0535836 -2.3229525 0.15475652 1.4196297 -0.9564312 -0.2945435
1176 1.1810133 -1.3589708 -0.909986 -1.0961834 -2.3474596 -2.8134646 -1.3729883 -1.6707791 0.49002537 -1.2678066 0.68633395 0.4385923 -1.3535842 -0.36067393 0.9188274 0.7217361 -0.8667752 2.509414 1.3041584 -0.35484156 -1.0325733 0.09212512 -0.5231886 2.7433407 -0.3241575 0.55047107 0.06468164 1.6284748 -0.91563743 -0.12464732 0.6293054 0.68506086 -2.0185146 -0.5840908 -0.4876355 0.09236246 -1.8467277 -3.668893 -1.9052398 0.21705128 -0.68617994 -1.2555901 -1.0623811 -1.695835 0.34169284 2.0421488 -1.3177611 0.88440806 0.43704227 1.589201
9 0.53896976 0.69109565 -0.2653971 0.77354324 1.902794 1.9944224 0.3783975 1.6173742 -1.3980591 -1.6572511 -3.3712304 -0.6096494 1.9327133 -1.0899109 0.6465975 -0.28166246 0.4996696 -2.0408363 -2.4016478 0.90687805 1.4384964 2.4342263 -1.8281829 0.31428942 1.0890604 -0.9678328 0.9940787 -2.578041 0.84925467 0.08257493 -2.4948707 0.13280463 3.4563234 -0.058715396 1.5138986 -1.4536374 1.4209827 1.1611922 -1.1659548 0.017002508 1.2728127 -0.7753731 0.7643089 -1.0360461 -0.93478024 -2.0907025 0.59961426 -1.6598969 0.94748265 -1.0988208
605 -0.4536119 1.307084 0.30479583 0.5960698 -1.395503 2.4707153 0.6455039 -0.27547193 -1.128124 0.07326225 -1.0586811 -1.0995241 1.9321048 -0.14804111 1.1282433 -1.1453568 0.67178106 -1.478601 -3.4384642 1.3639948 0.08551693 -0.58607596 1.5411073 -2.55551 0.9715606 -1.0595074 1.8009716 -0.09051271 1.5542107 0.6042616 -3.911341 -0.96913826 0.8100943 0.44835168 2.857739 -0.46000594 2.0467832 1.809594 1.1743201 -1.1185098 -0.45223436 -0.521366 0.41336176 -1.2054648 -0.13463898 -2.8851511 2.681876 0.4054697 -2.3490903 -0.7608023
1282 -1.1781747 -1.694508 0.7048967 -0.040649645 2.493787 -0.5966793 -0.16425085 -1.6147963 1.0279996 0.082997285 2.5392177 -0.31643206 -0.9682924 -0.14639194 -0.42571434 2.0107367 1.5909692 -0.12396075 0.36511165 -1.5356517 -0.32736412 -0.7708205 -0.48575386 -0.74569094 -2.4281392 -2.6098819 -1.220441 1.5985281 -1.9608947 -2.8911858 -0.63303566 1.0537516 -0.18715584 -0.51048046 -3.1564586 0.80865306 -3.1283228 0.3825403 -1.0166086 2.1653078 0.70712155 0.6906046 1.222889 2.8138306 1.3432518 0.095531 -2.0422697 0.6201029 0.6068474 0.39371502
1690 0.41689888 -3.0564082 0.5124814 1.3845589 1.065982 1.0639515 -0.0029124117 0.96845263 2.1503086 -0.06753489 0.9235434 -0.5385089 -0.52918434 1.0124149 0.60651296 1.9726425 1.8912556 0.8206277 2.6821249 -1.7753639 2.1404934 -1.2928717 2.1396906 -1.463626 -1.7588655 0.19721253 -0.42086324 -0.31785983 -0.80270386 -0.97671247 3.1338747 -0.5880508 -0.3582096 -0.29831234 -2.5180285 -1.1801707 -0.12272873 -3.0371199 -0.8425019 -1.3815027 -1.0093114 1.1639397 -0.4586784 -1.9332755 0.44653392 -0.8002739 -2.0880547 1.1081955 1.5127211 1.0274882
1074 0.586293 -1.7989955 -1.0703284 -1.6431301 -1.6039004 -2.6014245 -1.9448944 -1.9776243 -1.2115011 -0.34944597 1.7668562 -0.16895245 -0.51936466 -0.53178036 0.6691629 0.4629194 -1.0693498 2.8176117 1.8028011 -1.1539022 -0.5092646 1.2391424 -0.16557902 1.2386209 -1.9627694 2.0069773 0.6027228 -0.18381156 -1.831713 0.4773116 -0.4147681 0.9323329 -2.336936 -0.78326666 -0.83616406 0.73694366 -0.23075329 -1.6130493 -1.6624222 -0.32777908 -0.83853585 -1.8487498 -0.91537577 -0.68592036 0.12201935 1.2376627 -0.9359547 1.7214804 0.44045898 -0.08138823
1138 -0.16862546 0.03283199 -1.8299183 -2.702464 -1.8772836 -2.538411 -0.9799122 -1.1695614 -1.2038087 0.56941503 1.1718917 0.1447145 -1.0016838 -0.64026237 0.7580476 0.69059354 -1.6435835 1.9784443 2.285727 0.5938978 -0.47361588 -0.71058565 1.3900036 1.718344 -0.40342358 2.3143625 0.12852469 0.5031653 0.19110021 0.24647184 -0.15697163 1.6241056 -2.1002 -0.61756945 -2.1779964 0.9149402 -1.2921784 -2.1253247 -2.2964706 -0.6099943 1.7013602 -1.0471195 -1.4945157 -0.7716371 1.6304864 2.2299058 -0.62382513 0.8757071 1.5049248 0.17051096
298 -0.13442968 0.68673164 0.8292656 0.96888644 0.3518283 1.2682351 3.3629894 3.7510128 -0.571376 -1.045403 -2.4580147 0.8610269 2.776967 -0.22542816 2.6182394 -1.4738162 0.8236536 -2.0925932 0.108620346 -0.68003464 -0.10822102 1.0383453 0.18941996 0.78723156 0.53273225 -2.0556796 -0.37155324 -2.0818975 0.9124005 1.4130634 -2.1934917 0.81499857 2.9160328 0.075765654 0.26967582 -1.4748205 0.84858227 1.3495605 0.57518893 -0.21651565 1.2626704 -0.22343767 -0.21263354 -0.4753858 -2.2899635 1.288118 1.6151118 -0.23509198 0.43063042 -2.368817
1086 0.86178094 -0.645826 -1.7051716 -0.8153362 -1.6323813 -3.0031993 -0.33630085 -1.1763582 -0.5779669 -2.069736 1.3150365 1.0401309 -2.6391869 -0.18153563 0.75016433 0.52578676 -0.58106697 1.9329307 2.5354762 -0.633253 -1.480832 0.96738654 0.46153477 0.7973518 0.03271534 0.0530195 -1.1424484 -0.11411306 0.010343947 -0.55928445 0.62027186 0.9805693 -1.0482022 -0.43385974 -2.0367067 0.400823 -1.2381665 -2.8387573 -2.300693 -2.236179 -0.27764302 -1.657278 -1.5129803 -1.5507917 0.78803056 1.7488279 -2.121498 1.55127 0.7049467 0.080278836
1180 -0.14636475 -0.9828009 -1.5383419 -0.6114607 -0.8629696 -0.88482046 -2.3553321 -2.1562405 -1.2521108 0.1267127 0.21073355 -1.1151531 -0.8179198 -1.0070596 -0.15728182 0.07625567 -1.9341146 2.739263 2.3264997 0.6253469 0.10495503 0.32106948 0.22899906 1.2488568 0.79706794 1.1788801 -0.13001256 1.627417 -1.1057967 -0.52707565 -1.3301252 0.20986836 -0.8471587 -1.5843065 -0.10044542 0.4691233 -0.83236766 -3.7169 -1.8278676 -0.048793077 0.1305075 -0.621178 -1.6534175 0.5843147 1.1713755 2.9785423 -1.1441514 0.50197613 -0.09257314 -1.784438
1249 -1.4488274 -0.2328015 1.1016163 0.9998597 0.5354692 -0.30058217 -1.9836032 0.001763991 3.2171488 1.3419815 2.2438583 1.000765 -1.2461 0.7882265 0.31718168 2.137856 1.9277884 1.0107766 3.889865 -2.705386 -0.3413214 1.4476645 1.2920424 -0.16400455 -1.8696901 -0.43667597 1.8595136 2.1052034 -1.3114545 -1.2864653 0.5610249 -1.4295864 0.18299544 -1.0370139 -2.157703 0.015834577 -1.6531254 -0.91415167 -1.607587 -0.4028809 -1.4432808 0.7367409 2.3577359 -0.13049404 0.15352227 -1.1647092 -2.8123899 0.8868575 -0.68124574 0.92290175
1024 -0.37557754 0.6859915 -1.8356854 -1.2369641 -1.2505404 -1.2229687 -2.1064973 -0.06980588 -0.16607936 -0.97576016 0.60151637 0.8618561 -1.691513 0.54923683 -0.72888446 0.058729477 -0.9459771 2.2696211 3.630266 -0.14199226 -1.220548 0.37515488 1.1322892 1.594535 0.061885376 1.6113968 1.2428688 -0.042278647 -0.022468025 0.76645213 0.5638128 1.1822278 -2.1281621 1.0506094 -1.3573112 0.3989444 -0.63743573 -2.451026 -1.8778563 -0.24742024 -0.4028851 -0.79528695 -1.7487797 -1.8799014 0.82952976 1.7160697 -1.5277991 1.7176176 1.2130545 1.7269554
1122 -0.5567043 -1.686761 -0.38050178 -0.9665996 -1.1434767 -2.6667697 -2.1197994 -2.3759644 -0.4346827 1.0411934 1.7550216 0.28082067 -0.973767 -1.6446742 0.8768114 0.16263542 0.013873651 2.8868382 1.1924093 0.929149 -0.69044167 -0.75527334 -1.7396176 1.2366309 -0.6473619 0.65487456 0.10014534 1.0575569 -1.5288019 0.1640478 -1.3276352 0.18794511 -0.5470141 -0.94082725 -0.8982618 1.5609399 -0.46280694 -2.437648 -1.5811623 -0.5746013 -0.6422319 -0.793975 -2.6505747 -1.4015144 0.48866302 2.5091498 -0.4475366 1.7191234 -0.25109863 -0.8534609
953 -0.4258635 -0.659598 -0.5681436 -1.5177312 -0.28828123 -2.9288163 -0.76721 -1.8084875 -0.13862815 -0.22160603 3.018246 0.3308258 -2.1282766 -1.3837636 -0.2611848 0.9364709 -0.14385413 2.3511147 1.9656082 -0.8219499 -1.7943922 -0.964884 -0.3291906 2.2361968 -1.1063589 -1.3859481 -0.40104264 1.0812161 -0.8390919 -1.201242 -0.048949733 0.6603093 -1.5124289 0.46391687 -1.1985631 0.2537195 0.25474337 -2.1825604 -2.3989482 -1.2966186 1.5952125 -2.3216643 -0.43489313 -1.5904886 0.8756279 0.72072273 -1.4616315 2.6427736 0.8336898 0.533372
681 -0.03815321 0.860739 1.4051687 -1.907862 -0.25306404 2.1974192 1.0383257 0.6742957 -0.0059811035 0.27845246 -0.49720162 -2.4842641 0.00908041 -0.02100103 -0.07177381 -1.4774135 0.12406989 -3.6812332 -3.4730306 1.1734287 -0.46597663 -0.3810109 0.7381255 -2.076866 -0.7188485 -1.4564165 0.15006551 -0.63343257 -0.2657347 1.078737 -1.7058291 2.9478474 0.1708527 -0.46452725 1.3778404 -0.84375834 0.85456103 1.8623483 1.9748601 -1.0639868 -1.4878916 2.454489 1.2305734 -2.2766554 -1.4643247 0.4983665 2.6713521 0.008278397 -2.591303 -0.029954853
377 0.19987208 1.7702928 -1.0728275 0.5781214 1.3132076 0.9712946 2.2919888 0.54658973 -1.4362285 -0.96601164 -1.5164028 2.2827883 2.1266634 1.395294 0.7196679 -1.6836668 0.7032377 -1.8465561 -2.5248208 1.575274 0.21144368 1.827874 -2.683108 -1.1695876 1.207479 -1.9528906 0.16050845 -1.2853619 1.5951533 1.5471619 -1.5074286 -1.3395218 -0.1764993 0.358059 0.9539765 -0.551597 1.3159922 2.3258803 1.8425225 -0.8136588 0.7767126 -0.065019585 2.1842358 -1.6501127 -0.72924876 -1.6896029 2.7894533 0.76644254 -0.5117481 -0.809739
1438 0.9813134 -1.4215343 -1.0523548 -1.8962138 -1.170827 -2.6992793 -1.7155814 -1.4904054 -1.1023345 -0.3399076 2.4289184 0.010118524 -1.0598549 0.57842416 0.11696818 0.52041715 -1.360257 3.4361188 2.6072721 0.052281387 -0.46617368 0.5167404 0.06865982 1.2195842 -0.6617303 0.83872557 0.4664457 0.36711103 -0.6127649 -0.8660434 -0.5948821 2.256562 -2.118473 0.044496737 -0.5002949 1.1637509 -0.916241 -2.1265476 -1.9231063 0.22464016 -1.0291957 -0.70572793 -1.3110601 -0.6538495 0.8436228 1.9171041 -0.87146634 0.6203888 1.3687977 0.73534584
428 1.4387168 1.2312366 -0.067147374 1.1398506 -0.62551844 2.8246355 0.6144781 2.2185314 -0.6488053 -1.1341282 -2.8458467 0.039662454 2.0957196 0.87148255 0.1113124 -0.4528877 0.6079233 -1.6355644 -2.6487455 1.6508316 -1.0359575 0.55747426 0.61044997 -0.34150767 1.1076516 -1.5412807 0.7006846 -2.0538044 -0.23533401 1.0114858 -1.8719602 -0.1134981 1.6762714 1.2406375 0.22683533 -1.6831677 2.9801104 2.9223285 -0.81014264 -0.44418907 1.5234851 -0.35143414 0.523787 0.53744507 0.31565434 -1.8758568 2.5166492 0.17827997 -0.93163985 -0.5350141
488 -2.0270772 -1.6607798 -0.021524312 -1.4256585 -1.692217 0.22119258 0.035053566 -0.030028706 -0.18273504 -0.78248185 1.4333228 -2.5018332 -0.16187556 -3.1727943 -1.3914828 -0.7670253 1.9368821 -1.3198292 -0.3156977 -0.7344893 -0.15965988 0.38317293 0.87371683 -2.328786 0.45218825 -0.5367845 0.39368942 0.40482476 1.9706177 2.3246918 0.3591261 -0.31099918 -0.66354954 -2.3268485 2.0239723 -0.40962076 -0.9627054 1.5691923 1.6201066 2.322337 1.7313259 0.9858886 -2.2201083 -0.47457042 0.42336127 -0.88562894 -0.34722105 -0.31051394 2.172038 0.75608724
1421 1.7507111 -1.3869056 -1.0965682 -1.8465698 -0.8857695 -2.9326391 -1.52681 -1.3514305 -0.66787344 0.59353536 1.6792628 0.53716797 -0.871235 1.0882375 0.36062297 0.5731899 -0.28145555 1.3895327 1.7917768 -1.029516 -1.6068264 -1.1052642 -0.31802756 0.64492905 -1.1100029 2.05264 -0.062070828 0.7193463 -0.39809066 -0.4481643 -1.3064576 0.34957486 -2.2628167 -1.5984689 0.5994109 1.4847081 -0.48996234 -1.9602586 -1.8950229 0.81728846 -1.8264953 -1.7110263 -1.6573219 -0.30931276 -0.95983523 2.904626 -0.763615 -0.25208795 0.6260816 -0.97249895
804 1.6863197 0.65838724 1.8643433 1.5507169 1.3201543 1.1518395 -1.9655132 0.9985111 -2.4866548 -1.0898927 -2.044811 -0.5145569 -0.37096402 2.1096776 -2.26709 -1.1318026 0.9809282 0.6364797 -2.217987 3.008158 -0.94203883 1.7218672 0.4222302 -0.95814544 -1.7582229 -0.7234784 -0.57773215 -1.9356687 1.6398947 0.93615043 -1.0338993 -1.6473677 2.2413013 1.4543321 2.4084618 -0.723795 -0.14039657 3.0667753 -0.6577957 0.5834516 1.4665253 0.9297556 1.6010258 0.32669476 -0.96092385 -1.4494001 2.476979 -0.16115268 0.8181265 0.61081576
279 -1.3207765 1.1435093 2.166729 -2.3601139 0.57899565 3.3335304 0.21082982 -0.20765154 -0.75865793 2.4717462 -1.4519272 0.39538196 2.162963 -0.61177087 -0.7275142 -0.6730005 -0.4481913 -1.4263321 -4.1209555 2.1638186 1.5003511 0.14887147 -2.347001 -0.8514439 0.7857 -0.58900505 0.36680642 -1.2257663 0.42193103 1.9655486 -0.41977382 -2.7961504 0.7715669 1.5985025 1.8976557 1.2014182 1.000853 3.3658903 -0.43913898 -0.69821036 0.3816226 0.18540135 -0.41925144 -0.97639716 -0.7672693 -1.1298256 -0.6338197 1.18372 -3.7889814 0.059268784
1684 0.30355364 0.26906157 -1.4835204 -1.2650672 -0.85769576 -1.4527057 0.088120036 -0.39753294 1.2819813 1.7265043 -0.2730225 0.5578922 -1.8966967 0.20520395 -0.365605 1.7280861 0.38779145 1.9131082 3.4725997 -1.4187745 1.6528597 1.2491198 1.9314023 1.5502517 -1.1137103 -0.1957592 0.1798927 1.2076302 -0.22522564 -1.7722831 1.1012315 0.9602372 -1.0075119 0.97126544 -1.6900628 0.41645655 0.12019804 -3.9756007 -1.2971526 -0.789267 0.94466144 0.7701533 1.4732956 0.5287574 0.8650041 -0.7200685 -3.2850935 1.2273848 -0.055870194 1.867082
331 1.9016595 1.5603784 0.5523082 -2.1727483 -0.07263529 1.5853113 -0.1064021 -0.79679877 0.13293934 -1.3111851 1.1947938 -2.095249 -0.73990756 1.1236632 -2.7792542 0.10787438 0.7452665 -1.805221 -3.103139 0.63210666 -0.174394 0.17602082 0.5250459 -3.2374058 1.9147694 0.4830372 1.3736569 1.3045968 2.209313 -0.6876642 -0.3418414 0.06104553 -0.9982181 -0.67077917 3.1184876 0.07024647 0.28496352 2.6550431 1.0296018 -0.4611225 -1.4465237 2.859904 1.4446489 -2.9360118 -0.020487906 0.3150262 1.0696646 -0.24284132 -1.2415923 -0.8782253
353 0.9646379 -1.1620599 0.29146427 2.9273908 0.78036165 0.762675 0.24095123 3.4622452 -1.9611987 -1.6895282 -4.0697985 1.2823358 2.290929 -1.3147684 1.2381055 -2.7870932 0.36634427 -0.83195883 0.23287128 -0.29590183 -0.47329733 0.69298065 -1.2265016 1.6677334 -0.3660261 -0.6242945 1.1363121 -2.3081462 -0.79771274 1.8386434 -0.90966815 -0.9620336 1.2472708 -0.5927504 -1.5679251 -1.6836025 0.9173622 1.794049 -0.8545888 0.83195794 1.2177268 -0.4695326 0.2991521 0.42227668 0.718322 -2.1106994 1.0698012 -1.7337615 2.1858373 -0.5263753
300 0.77959377 0.8525662 1.0805846 0.33446705 0.25059813 1.6749485 -1.4475796 1.0016605 -1.0345207 -0.6405973 -1.2734616 -1.4040447 1.5666215 0.9912191 -1.130259 0.84199846 0.5708728 -1.4970113 -4.150617 0.42954972 -0.2562889 -0.7740584 0.428511 -2.0535805 1.3136078 -1.7086705 0.51976323 -1.3621428 0.6358508 0.59820473 -1.4143897 0.68173164 -0.09793268 0.54380274 2.5494583 2.2943377 0.8197982 3.7223356 0.87090003 -0.97706926 0.1796902 1.9536766 0.5778627 0.32566324 1.8853397 -0.11804962 2.735449 0.42846185 -2.088412 0.24105155
710 1.3236588 -0.43985468 0.8028603 0.1520815 -0.7242049 1.9145377 0.44451413 1.2265134 -2.8690948 0.96427536 -3.3500805 2.1291146 3.10321 -0.91575253 0.7665784 -1.8665676 -1.1032159 -1.4621576 -1.3966967 0.8801886 -1.6669853 1.0450103 -1.8251526 -1.2893045 -1.2051965 -0.50369817 1.2783196 -2.193875 -0.16391386 0.5264751 -0.19904083 -1.4042479 -0.3200321 0.9229441 0.6345783 -1.4653026 -0.32189795 3.86838 1.0275562 -1.1988393 1.7678634 0.69891196 1.4300859 -0.29340237 -0.50046664 -1.6277966 0.6849199 0.27559468 -0.85885483 -2.0931265
1066 0.6412438 -1.2633013 -1.8264349 0.22285387 0.60961485 -2.24751 -0.704374 -0.45219052 1.9862415 0.6299231 1.034897 -0.2020159 -2.9222515 2.1828256 -0.7842896 0.71614 0.02339323 2.7056153 -0.108263485 0.51758933 -0.092228405 0.19676907 -0.30508554 1.1027597 -0.2897792 -1.4760759 -0.58063126 0.91901094 -0.9068101 -2.8621151 0.018069036 0.64320517 -0.8326981 -1.4156345 -2.170195 -0.010757242 -1.4205681 -1.8687592 -0.0881522 1.4539112 -1.4492418 -1.4169667 0.8260612 2.4407578 0.92117953 1.9466292 -2.4473798 1.1619229 0.38025612 -1.97668
1039 0.32532287 -0.308947 -2.2862387 -1.2178521 -2.712186 -1.7380812 -1.3824345 -0.51298267 -1.0014728 1.1204128 1.4215413 0.24203685 -0.9898653 -0.76926917 1.0550083 -0.037921067 0.118317425 3.5418303 2.7635255 -0.7885719 0.8504269 -0.18801649 0.62456834 0.7949602 -1.2396171 2.1913145 0.517488 0.9644987 -0.18206182 -0.8851287 -1.0646528 0.7111393 -2.753915 -0.22673102 -0.5207072 -0.6435644 -0.5626474 -2.6883035 -1.5655992 -0.8891835 -1.5051078 -0.80859876 -1.5029633 -1.5708131 0.39362237 2.4676926 -0.6852773 0.8102027 0.8751493 0.7440631
888 0.3700267 1.7710469 1.6591542 0.71931875 0.46856588 1.8629442 0.60605174 3.8574097 -0.29381308 -1.8988008 -1.9032 0.010208529 1.6238399 0.9153997 -0.0743612 -2.9216716 1.3005005 -1.0808942 -0.75555915 1.7179766 -1.2439338 -0.8751539 -0.38971516 -0.9765897 0.46888545 -1.6369684 1.116923 0.5810672 1.0161821 1.7216206 -2.6138847 2.1533525 1.9314201 -0.1771073 0.1749512 -1.5039548 1.5375975 1.006509 0.71344966 0.024422904 -0.66645265 0.1358333 1.4096282 -1.2071134 -1.6523969 -0.7532758 1.2657757 -1.5424805 -0.23790854 -1.0399044
891 0.53471124 0.6407419 0.11384181 0.78629297 1.3127892 1.2134215 1.3169672 0.7072617 0.3439135 0.11107707 -1.5419409 -0.47920364 0.8766081 0.4186803 0.8432171 1.481522 0.558723 -3.2660842 -3.2131174 1.3843088 1.4601767 -0.7389438 -0.04838496 -1.6183702 0.78095996 -1.4998853 -0.002836675 -0.94699323 1.6468389 1.4043087 -1.7705685 2.7592053 1.5846667 1.909725 2.6905653 0.0807963 0.9370973 2.276699 -0.35548216 -0.10808609 1.1179099 -0.8273909 0.31783545 -0.116927765 0.785089 -0.8270189 2.1432543 0.8834008 -2.707156 -0.5582569
1076 -0.57856095 -1.1959258 -0.7488966 -2.022244 -0.983195 -2.2277098 -2.8907816 -2.0013888 0.07978647 0.48426592 2.3431575 -0.21673718 0.16320364 0.6302993 0.7217549 -0.16555871 -0.5688154 2.8372376 1.5321494 -0.7074089 -1.0896637 -0.41923723 -0.33086106 0.79173225 -0.8392656 1.16039 -0.30017892 1.2729207 -0.92113453 -0.8023519 -0.83334285 0.057259753 -2.0432732 -1.4680917 -0.22351512 0.49172726 -0.092481025 -1.531452 -1.0323886 1.4098245 -1.5830969 -1.5429063 -2.5000813 -0.40493235 0.38691524 3.2901452 -0.3732946 1.0092719 1.2132648 -0.56423974
534 1.9171816 0.14360088 1.1831989 1.2667357 -0.47722262 0.55405533 1.1854585 1.7314502 -1.5644753 0.08485236 -3.269778 1.7502503 4.771743 1.4870616 1.9299109 0.6320155 0.44823253 -2.665477 -1.1233121 -0.53143305 -1.2541943 0.57202905 -1.6290042 -0.5269225 1.32826 -1.8345495 1.1109842 -2.3702245 -1.3526751 -0.7218389 -1.735178 1.0048702 1.1640022 1.979354 -1.0424086 0.06931934 0.7069948 1.1314207 0.044432748 0.86563176 0.9118302 -1.0092106 1.0160418 -0.73179376 -0.88026434 -0.07968664 1.3277783 0.013854872 -0.7115728 -0.82370776
388 1.0026621 0.1997505 -0.73130846 2.1269915 1.3737284 1.6434306 1.0297183 1.763447 -0.9575433 -0.88575846 -3.4840918 1.3217905 -0.06138923 -0.1917116 1.849749 0.80107534 0.29843155 -0.43961883 -2.2384074 -0.0150058465 -0.44587836 0.5283008 -1.8867596 -0.0381105 0.43803948 -1.3661127 1.1496589 -3.770105 1.1544371 1.5434453 -1.5429718 1.3717996 1.050009 2.3311353 0.8304031 -2.1685512 2.8449624 0.7195292 0.8749664 0.22418267 2.5445678 -2.2506912 0.16513664 0.57542723 -0.7284838 -1.1507614 -0.21603054 -1.2042382 0.22172827 -0.80871433
967 0.43374404 -0.92559844 -2.693146 -1.0305277 -0.111489534 -2.1444578 -0.25744176 0.97649515 -0.083545625 1.4213849 1.3231966 0.5665221 -2.2557373 1.1286904 0.36160854 3.0166218 -1.5030539 1.4494752 2.6791935 0.5213946 0.47211087 -0.0652222 2.9687924 0.25899217 -0.041630868 0.46103996 -1.3513035 -0.042219967 0.7102463 -1.5111951 0.5421526 -0.3424204 -1.9910862 -0.72713387 -3.4833605 1.1334307 -1.001573 -3.4898047 0.18410337 1.0669308 0.7183812 -0.48795402 1.3316342 1.7644905 1.1425797 -0.6188995 -1.9667643 0.668894 -1.3261527 0.19957545
268 0.49103436 0.2887538 2.8030758 -0.036507785 -0.08305104 1.967707 -0.53644997 2.8549218 -1.0488588 0.6737563 -3.037432 1.6023278 3.2737784 -0.20429179 1.0972357 0.9702705 1.8405087 0.19188598 -0.0081668105 1.7512928 -2.0848045 0.92306626 0.41717973 -0.3648692 0.1443605 -0.42279875 1.2765635 -2.4837193 0.8718497 1.7818507 -1.5877899 0.31324583 2.6385055 -0.035113834 -2.4160616 -1.5803374 1.2580327 -0.36174238 1.2346005 1.2050552 -0.5386301 -1.8073792 1.1778922 1.236981 -0.89786446 -0.5157357 -1.0336019 -1.6781595 -0.05251118 -0.9189353
436 0.17566055 0.66955435 1.2318149 -0.19592598 -1.2865508 1.5720842 0.2364739 2.185691 -1.9654514 -1.6424433 -3.888135 1.5761502 2.9782763 -0.1418541 1.4561152 -1.7182142 0.5308172 -1.0726205 -2.0237875 -0.015073628 -0.3219567 0.119924136 -1.8843613 -0.8863994 0.1927603 -0.60536194 -0.5676714 0.30973896 2.604765 1.2360048 -2.671704 0.089868926 1.1461877 2.400478 -0.16599487 -1.0313125 0.27765098 0.047063082 1.0394162 1.5500742 -0.005028052 0.98865473 0.20931603 -0.4005025 -0.72490597 -2.1417518 1.3838054 -0.9360191 0.08494357 -2.0086262
839 0.018244738 0.90326566 2.0771782 0.9973951 0.85044813 0.7292574 -0.3099856 2.244333 -0.53373295 -1.1013776 -3.3556721 -1.1660265 1.9605292 -1.1452409 1.98966 0.72256297 1.2947106 -1.8529851 -0.18309113 -0.30477625 1.7056626 0.88278306 -0.9481781 1.006282 -0.64736545 -0.13789406 -1.1701218 -2.4516268 1.5594255 1.4991692 -0.70283824 0.57695806 2.3530586 0.6865477 0.58163923 -1.529327 0.8714702 1.3024858 -0.600285 1.585327 1.7157829 -1.7488248 0.26474127 0.54039407 -0.46217185 -2.1850355 2.5987887 -0.3407378 -0.19642325 -1.83901
91 0.6015618 1.7274468 0.67786443 0.3770679 1.3004761 1.2735231 0.8846235 1.6162212 -0.28828362 -1.6240807 -2.0879571 1.3982556 2.4655025 0.28752163 0.66931427 -0.9981484 0.6910373 -1.9306211 -1.6535197 1.3538812 -0.9864154 0.32527924 1.5505462 -1.4507856 1.4858379 -0.9463285 2.297917 0.46493798 0.2331082 1.6605537 -1.6279366 -0.63606596 1.1875846 0.14720248 -0.6078719 0.4800114 1.1455601 2.7731829 -0.039284002 -1.1561686 0.15484309 -1.4173857 3.0236013 -1.5596368 -2.9014642 -1.1240579 1.8516926 -0.87358046 -1.5822616 -1.6283269
84 -0.024071764 2.2904408 0.44884542 0.83077216 0.744119 1.0903785 1.7447652 1.4060506 -0.2109786 -0.81697404 -2.683208 1.6412132 2.2216887 1.4018251 0.075272135 -1.3000605 2.9582965 -1.0799409 -0.15209854 -0.43886304 0.46151707 0.11262207 -1.8250989 -0.67062205 0.48289374 -0.5660332 0.592744 -2.5388355 0.56325454 1.2358216 -2.321278 2.0564413 1.8138843 1.7196491 -0.42030513 0.053114075 0.99756783 1.9533887 -0.013834023 1.1684738 1.2527694 -3.326543 2.1219845 -0.08370242 1.1133217 -1.2880377 1.7537123 -1.2148297 0.48417038 -1.6296377
17 -0.8314404 -0.103299804 0.93031734 2.5695953 1.5725232 2.329441 1.2185556 2.046691 -1.3339275 -0.40419486 -3.5047123 0.84836835 2.2809918 -1.3367625 1.4004574 -0.71268404 0.93107504 -1.7127823 -0.28339356 1.4751819 -0.80288917 0.0812617 -3.1934173 0.93064094 -0.89469486 -0.6313352 -0.28231126 -3.0927162 -0.26283813 -0.06644465 -1.7626888 1.5076754 0.11896295 1.6318547 -0.27553037 -1.8232005 1.5042199 1.2206578 0.09591548 0.9077479 1.2534763 -1.1072932 -0.29201815 0.45042646 -0.7573711 -0.9619312 1.0782601 0.69768524 1.1443801 -0.145086
956 -2.573581 -1.4850907 -1.2633485 -0.95220256 0.5724467 -1.9980377 -0.7788814 -0.7909997 0.7435908 1.5855925 0.7382427 0.09302299 -1.5742878 2.083336 1.0300586 -0.7905525 -0.97422636 1.3198596 0.10586476 0.5157921 1.745428 0.68079346 0.0730853 0.6594931 0.30571896 0.86006385 -1.4627638 1.4156761 0.918627 -2.4328074 -0.072713025 -0.39698872 -1.49603 -1.8303152 -2.4328074 0.69383943 0.6103082 -1.8211832 -0.53584576 2.7747662 -0.5178951 -0.7104613 1.2161257 2.586248 2.336927 1.3598168 -0.5882684 0.20985276 0.7012522 -0.8497552
1121 -0.5843025 -1.1837995 -0.5373839 -2.4675727 -0.24622834 -2.607988 -0.16358517 -2.8435085 -0.23036352 0.6890388 2.0668287 0.4636104 -1.6667874 0.3098699 1.1209615 0.19194333 -0.12349323 1.784382 2.252605 -0.14729103 -0.5656139 -0.46567568 0.5709741 1.4213808 -0.8688324 1.7291905 -0.9321984 0.08702195 -2.3331509 -0.84492177 -0.18881978 0.8710021 -1.2970128 -1.5600872 -0.53214556 -0.5681691 -1.2121507 -1.3232299 -1.2458916 0.1743918 1.1958308 -1.5894399 -0.90442634 -0.79412854 1.0101255 3.8376622 0.18529758 0.8133941 -0.13496536 -0.68876094
1243 -0.12434559 -0.6616125 0.39575607 -0.121208325 -0.058958087 -0.048047874 -0.6506494 0.12884913 1.5640584 2.1439025 1.60796 -1.4752452 -1.6984619 1.5133336 0.99615407 0.19124302 0.6273463 2.3944292 1.8975682 -3.031267 2.3641567 0.3484325 -1.2201743 0.7488537 -0.2733472 -0.32114148 0.9602396 0.9881961 0.710723 -2.4396996 2.1812167 0.35711432 0.37567145 0.20801303 -2.8333511 0.33694538 -2.5824416 -0.9542663 -0.68113405 0.6386864 0.5561215 1.0240932 3.2274714 2.5769258 0.93322176 2.1712093 -0.4388161 1.1071602 -1.6448305 0.29674494
1153 1.6196065 -0.80019146 -2.1778715 -2.2997966 -0.1327809 -2.364973 -1.4413621 -1.9473653 -1.2888675 -0.31956393 1.4590465 -0.7066307 -1.1245358 0.035112124 0.63164085 -1.1567205 0.6384838 1.8244435 2.8528419 0.41803622 0.07079106 -0.42113784 -0.3058046 0.48065418 0.5988935 0.7158558 -0.11381934 0.7021196 -0.6390481 0.17330188 0.44651508 1.4688128 -2.0296056 -0.46149737 -1.645789 -0.12632497 -0.1416732 -3.5042884 -1.6100314 0.558629 -1.3423879 -0.5675076 -1.7858024 -0.08210639 0.9023413 2.7762403 -0.6539509 0.1146255 0.20444363 -0.8087537
1227 -0.38576767 -1.05931 -0.1333577 -0.4464197 1.6219567 -3.5564158 1.158755 -2.2194393 -0.11576835 2.0726376 0.008562272 -0.38678563 -1.7144291 0.61132175 -0.33677953 1.4535002 -0.10902891 1.6814399 -0.42407823 -0.20546128 1.2354172 -1.5714399 0.020459613 1.3134311 -0.95740587 -0.6223275 -0.72160745 1.6661838 0.8008633 -2.5948822 -0.50600547 -0.13659409 -0.60927284 -2.1494782 -1.6409847 -0.6426025 -0.81126314 -1.6356652 0.51305664 3.3208299 -0.81019926 -0.50245965 0.56648403 2.9020665 2.1499386 2.0795958 -1.030037 -0.3832426 0.04264033 -1.0311034
1240 -0.887213 -0.69443893 -1.1449715 -1.0069146 1.1547654 -1.5950449 0.35325068 0.24022086 2.0237393 0.5658362 1.3213855 2.1063726 -2.1019444 3.4859247 -0.34823522 1.9588652 0.48632866 1.5807698 2.467689 -3.1908503 0.112371266 -1.498956 1.499649 0.9687729 -1.3094103 0.84294647 -0.71104634 -0.029366782 -0.9938299 -2.4762065 -1.0985187 -0.833942 0.15533096 -0.3866085 -2.635407 -0.61038506 0.34524345 -2.4441056 -0.27384466 -0.7391042 -0.096847184 0.36707523 -0.017344145 -0.74071425 2.1155531 -0.58393055 -2.4766066 2.2523866 1.0762634 0.85193
416 1.4738522 0.62676966 2.812157 1.1274894 0.43585813 2.2282271 -0.28254205 0.7933389 -1.6132443 -0.5647571 -1.5079314 0.8485227 1.0669711 0.40593064 0.33048582 -1.3994251 0.54769754 -1.7303222 -2.6267693 1.2845081 0.3175561 -0.9548169 1.9083539 -3.1289809 1.4117364 -0.9768458 1.9435898 0.7432594 1.470152 -0.08786865 -1.5731235 0.22588755 0.6043726 1.0830724 1.167958 -1.9479008 0.63499755 1.5653509 -1.0243211 -2.1052306 -0.7691295 1.6791778 0.36573523 -0.52040535 0.36611372 0.3558708 1.4793888 -1.3718568 -1.398295 -1.2601538
188 -0.40376824 1.1257608 2.315637 2.9007614 -0.768324 0.9399013 0.48852164 4.0765452 -1.0430232 1.065442 -2.789265 1.5887284 2.0083869 0.7697407 1.1820482 -2.1038039 0.0073667015 -1.8228614 -0.25820816 1.5543557 1.404192 1.6125399 -1.1209764 0.8652186 0.4869447 -0.012048059 -0.003929684 -2.4213781 0.5583697 0.7242561 -1.6574925 1.0228797 1.4691999 -1.1190223 2.173476 0.2749923 3.1350567 0.6132561 -0.56826025 0.5110644 0.8240443 -0.40000486 0.5413771 -0.22850047 0.04184372 0.055876013 0.2075671 -0.5067269 -2.4363 -1.0054404
587 -0.07621683 -0.2798239 0.15436342 -0.5871933 1.922622 2.1868582 2.1009848 0.19969693 -2.081274 0.9922515 -0.45845002 0.34988177 1.2959541 -0.9592023 -0.7104275 -1.269362 0.10242881 -3.868079 -3.308266 1.4887581 -0.73461545 -0.1610796 -0.34388602 -1.5703984 0.28540134 -2.5596936 1.5598048 -1.9776677 0.8475948 2.5749393 0.10719264 -1.4215255 -2.278937 0.7698237 1.8795727 -0.40021926 0.1517834 2.2873325 0.18598941 -2.240933 -0.14723028 2.6885176 0.4762939 -0.41979298 0.99761957 -0.6475696 0.84456915 0.5949166 -2.7363935 -1.8603638
1416 0.379706 -0.8178126 -0.26841938 -1.5964996 -0.6974837 -2.3219128 -1.3855733 -3.207146 -0.10124924 0.49503163 1.2459016 0.022407545 -0.8703096 0.09735529 0.36746243 -1.1249889 -0.74879307 2.2465792 1.316486 0.1856221 -2.053335 -0.01939744 -1.127947 0.13556512 0.06255879 1.4845034 0.15884094 1.0355673 -0.8582982 1.1606293 -0.67306185 0.5800988 -0.64321554 -1.1604241 -1.241919 0.38060454 0.066951655 -2.777985 -1.1676228 0.38723987 -1.7591404 -1.2101233 -2.3289857 -0.41017532 0.49061552 2.3850257 -0.68071467 1.1440991 -0.01963422 -2.3875334
706 0.8743209 -0.5690236 0.6038845 3.0943754 0.8480866 2.2942798 1.695187 2.6165137 -2.626996 -0.2912924 -3.384695 1.5933537 1.3688496 -0.82095355 -0.5431584 -0.9793116 1.5882165 -1.1216046 -0.027136976 -0.14222446 0.17143406 1.2939246 -2.4120388 1.0404226 0.26771504 -1.1896178 0.8269549 -2.624764 0.042226184 1.5945861 -1.1680312 -1.528682 0.26455668 0.49724755 -1.5768636 -2.6720936 0.6903249 0.8467654 2.6886358 0.112201154 2.205452 -1.3282673 -1.349973 0.84282595 -1.8082726 0.16154684 -0.47097597 -0.62549305 1.211757 -0.6037016
221 -0.16683371 2.527957 0.65991265 -1.596339 -1.7944471 1.3889107 1.5397362 -0.09737915 1.3472121 -1.1230762 -1.4407225 -1.7224926 1.4711633 0.32883513 -0.80518496 -0.8045047 1.1624838 -2.1657295 -3.5461385 1.7281725 1.1454076 -0.073728725 2.4826243 -1.6950223 0.6955348 -0.7487855 0.907949 -0.23172003 1.4371665 0.6809419 -0.892104 -0.6879473 -0.76867753 -1.2964388 1.8821748 -0.766353 -0.059820957 1.5892445 0.8051729 -1.4970621 -0.99083 1.5575045 1.5314847 -1.748175 0.81210095 -0.014570841 2.6262565 -0.17929763 -2.344782 -1.8441454
1124 -0.57806236 -1.0015388 -0.6216705 -1.4136984 -1.2709527 -2.7813866 -2.1734276 -1.3155178 0.40933222 -0.5993488 1.0871372 -0.31940937 -1.4062401 -2.212956 -1.1264665 0.74567026 -0.08913718 1.8540199 1.6127136 0.008855935 -1.9249287 -1.0576789 -1.8316981 1.6234511 0.13798875 -0.34585983 -0.6153316 1.7320994 -0.59721285 -0.9849786 -1.4486705 0.8494665 -0.5901215 -0.7356485 -0.91889375 -0.42861786 -0.8404981 -2.7694554 -2.2814498 -0.43478078 0.28977162 -0.42275515 -2.6126661 0.35775998 0.6822279 2.5454164 -1.3063251 1.7766659 -0.31819114 -0.3668678
455 0.38171986 0.70375556 0.6294407 -0.22470249 -2.0878303 2.6090543 -1.8852309 1.4506297 -1.7475777 1.4694517 -3.4759352 -0.33789167 1.856566 0.3838746 0.35573512 -2.8243127 3.012759 -0.61985075 -2.4338448 1.3347259 -1.7945851 -0.5322796 -1.2106733 -1.9080495 -1.1410736 1.2033204 0.27266333 -0.73402196 1.3630264 1.7098621 -0.91251075 1.250417 1.410311 0.33917636 -0.21902037 -0.91911626 3.2142422 -0.113828555 -0.23295268 0.47245005 0.22089984 0.672776 1.2293532 0.1573081 -0.7174138 -0.93062586 0.588722 -2.2142975 -1.6693953 0.51740324
